{"lstm.weight_ih_l0": [[-0.4489288926124573, -0.006505018565803766, 0.21448515355587006], [-0.03470906242728233, 0.023237140849232674, 0.0754205733537674], [0.0554036907851696, 0.20377053320407867, -0.0024333945475518703], [-0.2976531386375427, 0.015804484486579895, 0.021383117884397507], [-0.3796505331993103, 0.15776848793029785, 0.11119123548269272], [0.004253509920090437, -0.3645091652870178, 0.17103028297424316], [-0.007495102938264608, -0.13494493067264557, 0.17519505321979523], [-0.0021952784154564142, 0.0956982895731926, 0.24238158762454987], [0.06877513974905014, -0.23873920738697052, 0.07762618362903595], [0.1578281670808792, 0.09382817894220352, 0.18755106627941132], [-0.30379486083984375, -0.013800987973809242, 0.2449900358915329], [0.06557409465312958, -0.08610377460718155, 0.06906064599752426], [-0.06135943531990051, 0.02451130375266075, -0.2656860947608948], [-0.18454717099666595, -0.06714534759521484, -0.14642441272735596], [-0.1954965889453888, 0.05178096890449524, 0.8134061694145203], [-0.23530511558055878, 0.08017437905073166, 0.05972016230225563], [0.05328531190752983, 0.03288089856505394, 0.3301495611667633], [-0.021087350323796272, -0.19654938578605652, 0.41296887397766113], [0.23483891785144806, 0.09230471402406693, -0.046315308660268784], [0.5830366015434265, -0.10783742368221283, 0.2030794769525528], [0.8258268237113953, -0.1228250116109848, 0.4853660762310028], [-0.05934567749500275, -0.10270749777555466, 0.10835946351289749], [-0.00923371035605669, -0.08267707377672195, -0.06159641966223717], [-0.10076097398996353, -0.10161509364843369, -0.10104566812515259], [-0.4906254708766937, 0.012285836972296238, 0.22970515489578247], [0.18373577296733856, -0.13669252395629883, 0.14209794998168945], [0.03192584961652756, 0.011355637572705746, 0.04669678583741188], [-0.19598421454429626, -0.08399087190628052, 0.06744656711816788], [0.10458654165267944, -0.1625165194272995, 0.17660348117351532], [-0.007552396040409803, 0.07492699474096298, -0.05108489468693733], [0.1400618553161621, -0.13282296061515808, 0.11138396710157394], [0.10412026941776276, -0.16747908294200897, 0.5483351349830627], [-0.38179078698158264, -0.13172614574432373, -0.0297000203281641], [0.03203060105443001, 0.09784065186977386, -0.0632098913192749], [0.23306205868721008, 0.07243196666240692, 0.0044820657931268215], [-0.9177759885787964, 0.19418872892856598, 0.07751645892858505], [-0.2647020220756531, 0.03045123815536499, 0.01515171118080616], [0.11490681767463684, 0.10693886876106262, 0.09729115664958954], [-0.03831009566783905, 0.04225936904549599, -0.13391141593456268], [-0.14114436507225037, 0.14086584746837616, 0.10307944566011429], [0.14495013654232025, 0.04410136118531227, -0.05697831138968468], [-0.012597975321114063, 0.18348541855812073, 0.09764362126588821], [0.07016273587942123, 0.4136604368686676, 0.0917237401008606], [0.09999730437994003, 0.10849650949239731, -0.1059933453798294], [0.08753779530525208, 0.11698733270168304, -0.013903982006013393], [-0.13750913739204407, 0.030783209949731827, -0.09451241046190262], [-0.09535612910985947, 0.320109099149704, -0.021453795954585075], [-0.32039502263069153, 0.1188492551445961, -0.15695956349372864], [0.09548579901456833, 0.1495436429977417, 0.017425723373889923], [0.12251905351877213, 0.04621091112494469, 0.04869668930768967], [0.6134790182113647, 0.14902013540267944, 0.11527077108621597], [0.35689276456832886, 0.07372905313968658, -0.1639799177646637], [-0.09063657373189926, 0.3371719717979431, 0.01904783397912979], [0.15285900235176086, 0.05184103921055794, -0.16546091437339783], [0.03772151470184326, 0.0797465369105339, 0.14564701914787292], [-0.24720498919487, 0.2837187349796295, -0.20449845492839813], [-0.7796853184700012, -0.08327828347682953, 0.1295645534992218], [0.30134686827659607, 0.06499605625867844, 0.0321958027780056], [-0.075527623295784, 0.18539702892303467, -0.0902409628033638], [0.27520623803138733, 0.0837341696023941, 0.23664195835590363], [0.15464188158512115, 0.13491809368133545, -0.06120746210217476], [0.07529093325138092, 0.19633662700653076, -0.24963414669036865], [0.05622022971510887, -0.017085975036025047, -0.06141146644949913], [-0.4135696291923523, 0.2847442626953125, 0.0941922515630722], [0.16707323491573334, 0.10807215422391891, -0.1916629821062088], [-0.09126439690589905, 0.037648215889930725, -0.12812547385692596], [-0.19764290750026703, 0.16305150091648102, -0.1273375153541565], [-0.5893039107322693, -0.0469839870929718, 0.10035527497529984], [0.5467934608459473, -0.07912144064903259, 0.029110493138432503], [-0.09135817736387253, 0.01762767694890499, 0.10561742633581161], [0.21335257589817047, -0.18094512820243835, 0.0556209571659565], [0.16988594830036163, 0.1253006011247635, -0.16765663027763367], [0.4600231349468231, 0.02856595814228058, 0.031723421066999435], [-0.18243803083896637, -0.11342474073171616, 0.0708795115351677], [0.10968605428934097, -0.026774652302265167, 0.09491395950317383], [-0.08251277357339859, 0.11418817937374115, -0.13680526614189148], [-0.24395394325256348, -0.005118634086102247, 0.16394688189029694], [-0.15010391175746918, -0.11532551795244217, -0.03388279303908348], [-0.2164362519979477, 0.17513898015022278, -0.20945711433887482], [0.07218361645936966, 0.08908524364233017, -0.09072376042604446], [0.10563173145055771, -0.04246194660663605, 0.13179738819599152], [-0.27363455295562744, -0.01826324313879013, -0.13441254198551178], [0.39507853984832764, -0.08902955055236816, -0.11896853893995285], [-0.7230062484741211, -0.08615995198488235, -0.18133150041103363], [-0.579567015171051, -0.05230242386460304, 0.15286679565906525], [-0.5470809936523438, 0.16996510326862335, -0.1709325909614563], [-0.09543024748563766, -0.1218421459197998, -0.0414457805454731], [-0.23864580690860748, 0.10435038059949875, 0.06000006943941116], [0.25361716747283936, 0.06524193286895752, -0.04768204689025879], [0.038596127182245255, 0.08426354825496674, -0.09044617414474487], [0.22910194098949432, 0.04840592294931412, 0.10205642133951187], [-0.25889647006988525, -0.0505506657063961, -0.20704971253871918], [0.13091033697128296, 0.11961127072572708, -0.11781134456396103], [0.1534649133682251, 0.05264822021126747, -0.02377851866185665], [0.37047913670539856, -0.019480770453810692, -0.018886426463723183], [0.09410914033651352, 0.002412182744592428, -0.16483154892921448], [-0.22031153738498688, -0.06584616005420685, 0.22102110087871552], [-0.13288144767284393, 0.06569946557283401, -0.1352635771036148], [0.15336939692497253, -0.08287189155817032, 0.011021623387932777], [0.0010254824301227927, -0.07422955334186554, 0.1454600840806961], [-0.15035223960876465, -0.08889194577932358, 0.20300835371017456], [0.04815103858709335, -0.16718803346157074, 0.3878466784954071], [0.32782915234565735, -0.32136547565460205, -0.006562378257513046], [-0.08456983417272568, 0.10399246960878372, 0.1549675613641739], [0.026507318019866943, -0.11939199268817902, 0.12557320296764374], [0.15546399354934692, 0.1771724969148636, 0.07403441518545151], [-0.07677195221185684, 0.025333156809210777, -0.012132976204156876], [0.03207334503531456, -0.1979561746120453, -0.03492213413119316], [-0.154277503490448, -0.13776326179504395, -0.2241183966398239], [-0.017717797309160233, -0.17424039542675018, -0.13311846554279327], [-0.285908043384552, -0.2258162796497345, 0.6988688111305237], [0.01083233579993248, 0.08054398000240326, 0.029781999066472054], [0.0921315923333168, -0.09484362602233887, 0.20138533413410187], [0.13298852741718292, -0.11430906504392624, 0.4610042870044708], [0.37246888875961304, -0.124501071870327, 0.03917032480239868], [-0.15899299085140228, 0.1746283769607544, 0.26441630721092224], [-0.06178915873169899, 0.03804996982216835, 0.40157821774482727], [0.39558324217796326, -0.10341440886259079, 0.04111209139227867], [0.047160036861896515, 0.01167764700949192, -0.02350747026503086], [-0.280353307723999, 0.11552850902080536, -0.17104046046733856], [-0.37172678112983704, -0.1392046958208084, 0.15104739367961884], [0.19207550585269928, -0.2185521423816681, 0.20883381366729736], [0.16376422345638275, -0.12840579450130463, 0.0705387070775032], [0.2112460732460022, 0.050842542201280594, 0.09279769659042358], [0.013348066247999668, -0.12978635728359222, 0.01090823020786047], [0.17822271585464478, 0.07863271236419678, 0.044717613607645035], [0.04731709510087967, 0.04047180339694023, 0.051074594259262085], [-0.0814879909157753, -0.08693098276853561, 0.2072175145149231]], "lstm.weight_hh_l0": [[-0.25912442803382874, 0.04671594128012657, -0.07544754445552826, -0.097476065158844, -0.0471368208527565, -0.08775482326745987, -0.04001087695360184, 0.15803033113479614, -0.010365357622504234, -0.10259212553501129, -0.134487584233284, -0.11337531358003616, 0.038226764649152756, 0.017787065356969833, -0.17101694643497467, 0.023207813501358032, 0.15628984570503235, -0.03272226080298424, -0.03440093621611595, 0.13440170884132385, 0.38879522681236267, 0.10922559350728989, 0.3113839626312256, -0.04506891965866089, -0.04264422506093979, -0.10789840668439865, 0.22222083806991577, 0.2586444020271301, -0.3361092209815979, 0.1328066885471344, 0.20491662621498108, -0.35708391666412354], [-0.18007121980190277, -0.021151747554540634, -0.17956840991973877, 0.01920749619603157, -0.040955498814582825, -0.2437117099761963, 0.39968329668045044, -0.14030855894088745, -0.10508699715137482, -0.1027529165148735, -0.4351292848587036, -0.030137429013848305, 0.16639874875545502, -0.06972209364175797, -0.26742491126060486, -0.1793486475944519, 0.1447940617799759, 0.005584468133747578, 0.05931370332837105, 0.47948890924453735, 0.13923440873622894, 0.49787458777427673, 0.3708517253398895, 0.06269475817680359, -0.45626720786094666, -0.2546256482601166, 0.3188319504261017, 0.3235645592212677, -0.5089961290359497, 0.2427486926317215, 0.023650601506233215, -0.48909953236579895], [-0.2763931155204773, -0.14987120032310486, 0.0054018935188651085, 0.173214390873909, -0.27640968561172485, -0.09372752904891968, 0.23991847038269043, 0.05542997643351555, 0.211069256067276, 0.08634032309055328, -0.005977943539619446, 0.15929986536502838, 0.001331531209871173, -0.10475382208824158, 0.1757253259420395, -0.11289788782596588, 0.1862936168909073, 0.043223634362220764, 0.2192515879869461, -0.10586564987897873, -0.17965444922447205, 0.19565175473690033, 0.03408950939774513, 0.21729154884815216, -0.3576991856098175, -0.07258378714323044, -0.11103903502225876, -0.41550377011299133, -0.07074028998613358, 0.12824982404708862, 0.15460003912448883, -0.06836758553981781], [-0.11338135600090027, -0.41118335723876953, 0.12272800505161285, 0.004341900814324617, -0.08339991420507431, -0.02017924375832081, 0.3597825765609741, -0.12869496643543243, 0.1773686408996582, 0.18128234148025513, 0.1813381463289261, -0.00548570416867733, -0.09851062297821045, -0.00041699199937283993, -0.15148869156837463, -0.2227189987897873, 0.14283998310565948, 0.03076118417084217, 0.21180173754692078, -0.20833474397659302, 0.24369846284389496, 0.14467287063598633, 0.14178644120693207, -0.00021351200120989233, -0.22345846891403198, -0.13224369287490845, -0.11116865277290344, -0.2799416482448578, 0.032860103994607925, -0.21329490840435028, 0.2018614411354065, -0.2307002693414688], [-0.1486748605966568, 0.08791552484035492, 0.10594570636749268, 0.1811043620109558, -0.09746208786964417, -0.04994778335094452, 0.15471909940242767, 0.018573394045233727, 0.10445970296859741, 0.04102369770407677, 0.00703893369063735, -0.03470778092741966, 0.08710600435733795, -0.09359396249055862, 0.1869816929101944, -0.016564587131142616, -0.008871566504240036, 0.2676932215690613, 0.011240673251450062, 0.24661943316459656, 0.17575277388095856, 0.2144899070262909, -0.02628413774073124, 0.2266232818365097, -0.032543204724788666, -0.12307772040367126, -0.19600720703601837, -0.04773000255227089, -0.025662995874881744, 0.025258170440793037, 0.06274287402629852, 0.0034936387091875076], [-1.0227503776550293, -0.03196610137820244, -0.4852210581302643, 0.6348878741264343, -0.13415619730949402, 0.24847345054149628, 0.3021851181983948, -0.2625179588794708, -0.016763197258114815, 0.18100173771381378, 0.4247490465641022, 0.13476847112178802, 0.11006458103656769, 0.3838539719581604, 0.13335172832012177, -0.313069224357605, 0.5022929906845093, -0.5024640560150146, 0.44341614842414856, 0.35670527815818787, 0.9580526947975159, -0.03290857747197151, 0.6653943657875061, -0.09794566035270691, -0.9708129167556763, -0.08336806297302246, -0.5141618847846985, -0.2514743208885193, -0.2448236346244812, -0.37595701217651367, -0.07306157052516937, -0.6091870665550232], [-0.1233331486582756, -0.24311034381389618, -0.16199292242527008, 0.23522032797336578, 0.22222484648227692, 0.17545932531356812, 0.10406637191772461, -0.28329500555992126, -0.1445763260126114, 0.06455885618925095, -0.09017620235681534, 0.08805619925260544, -0.006688987370580435, 0.16296279430389404, -0.42084231972694397, -0.24545517563819885, -0.05721108615398407, -0.23645369708538055, 0.2758970260620117, 0.19193539023399353, 0.13147887587547302, -0.055737756192684174, 0.316167950630188, 0.2556268870830536, -0.34421518445014954, -0.03459450975060463, -0.19241349399089813, 0.1354549527168274, 0.05068713054060936, 0.16449950635433197, 0.21423901617527008, -0.38771435618400574], [-0.07300202548503876, 0.11593946814537048, -0.23577651381492615, 0.05479266867041588, -0.13926517963409424, -0.05681278184056282, 0.3273460566997528, -0.0874098464846611, -0.08580468595027924, 0.10002736002206802, 0.23138199746608734, -0.09417762607336044, 0.09250762313604355, 0.14434592425823212, -0.027696877717971802, 0.03283773362636566, 0.2706220746040344, -0.10024399310350418, 0.11007747054100037, 0.05634726583957672, 0.36667221784591675, 0.21220538020133972, 0.41847676038742065, -0.0668831542134285, -0.2816859483718872, -0.19139118492603302, 0.06747696548700333, 0.051205556839704514, -0.1962222307920456, -0.11662115901708603, -0.16132110357284546, -0.33496958017349243], [0.0730176493525505, -0.27863404154777527, 0.2457476705312729, 0.26385295391082764, 0.02093789353966713, 0.16750238835811615, -0.006368000991642475, -0.1389176994562149, 0.01040029525756836, 0.18292205035686493, -0.011125976219773293, 0.025357937440276146, -0.14532886445522308, 0.09896894544363022, -0.10960785299539566, -0.16565851867198944, -0.1434754878282547, 0.0668802335858345, -0.056252822279930115, -0.07231003046035767, 0.10001038014888763, -0.07488829642534256, 0.16308921575546265, 0.05766695737838745, -0.2107967883348465, -0.01502402313053608, -0.20680534839630127, -3.5052562452619895e-05, -0.27618297934532166, 0.02983791194856167, -0.03419427201151848, 0.2948865592479706], [0.05235041677951813, 0.0015634165611118078, -0.26429280638694763, 0.1241099163889885, 0.11716306954622269, -0.1672605276107788, 0.11270890384912491, -0.09269674122333527, 0.07229289412498474, 0.052454330027103424, 0.048682618886232376, 0.12515808641910553, 0.1481620818376541, 0.14496521651744843, 0.025042304769158363, 0.11606921255588531, 0.13676632940769196, 0.11757352203130722, -0.06320901215076447, -0.16790680587291718, 0.3658561706542969, -0.12445326894521713, 0.24512529373168945, -0.26332178711891174, -0.1764935851097107, -0.07760249078273773, 0.1279209852218628, -0.0021331096068024635, -0.04604864865541458, 0.25134459137916565, 0.11235352605581284, -0.13302944600582123], [-0.237092986702919, -0.14695703983306885, 0.30769866704940796, 0.26648592948913574, -0.06256410479545593, -0.3227714002132416, 0.007517250720411539, 0.06614316254854202, 0.19495132565498352, 0.4294038414955139, -0.02757839299738407, 0.20242704451084137, 0.013635439798235893, -0.13838441669940948, -0.02522338554263115, -0.28847476840019226, 0.22246406972408295, 0.05970415100455284, 0.25108203291893005, 0.3037361800670624, -0.2691121995449066, -0.09225388616323471, -0.053694382309913635, 0.0319095179438591, -0.16004334390163422, 0.0897027924656868, -0.1451280415058136, -0.4221142530441284, -0.3151933550834656, 0.27994680404663086, 0.16703999042510986, -0.13249294459819794], [0.04714251682162285, 0.011224186979234219, 0.018119338899850845, 0.27389755845069885, -0.09420605003833771, -0.10432790219783783, 0.10056734085083008, 0.06651987135410309, -0.019732002168893814, 0.23244675993919373, 0.07767867296934128, -0.06592811644077301, -0.07753753662109375, 0.0008405808475799859, 0.14434486627578735, 0.06581306457519531, -0.1258382499217987, 0.10206037759780884, 0.10624414682388306, -0.04069312661886215, 0.13891229033470154, 0.08578295260667801, -0.12496664375066757, 0.2747831344604492, -0.012685024179518223, -0.05362644046545029, -0.03817153349518776, -0.021001586690545082, 0.051898203790187836, -0.07003123313188553, -0.14097285270690918, 0.09656081348657608], [-0.03413155674934387, 0.054700300097465515, -0.024108771234750748, -0.22040237486362457, 0.1691795289516449, -0.07546955347061157, 0.059642303735017776, -0.20920215547084808, -0.2335566133260727, 0.0703183189034462, -0.21667031943798065, -0.11957765370607376, -0.057509783655405045, 0.12171541899442673, -0.04128480702638626, 0.23407015204429626, -0.1464175134897232, 0.1582699418067932, 0.10121829807758331, 0.0105935949832201, -0.08235912024974823, 0.18360640108585358, 0.05263293534517288, -0.14510807394981384, -0.045073963701725006, 0.0745704397559166, 0.021469611674547195, -0.016154741868376732, 0.20229408144950867, 0.25293800234794617, 0.14234194159507751, 0.2474639117717743], [-0.30688610672950745, -0.14657729864120483, -0.0540008619427681, 0.024696320295333862, 0.1861039400100708, 0.037637531757354736, 0.2623036801815033, -0.03997718542814255, -0.1661844551563263, -0.02281307801604271, 0.17267246544361115, 0.13923239707946777, -0.09457854181528091, -0.09186006337404251, -0.008381165564060211, 0.03659987077116966, 0.07380605489015579, -0.03905534744262695, -0.10860197246074677, -0.08772522956132889, 0.08348839730024338, -0.1854763776063919, 0.1443861573934555, -0.07780449092388153, -0.1853143721818924, -0.1397973597049713, 0.014731881208717823, -0.1758517324924469, -0.24764162302017212, 0.1279449164867401, -0.07660821825265884, -0.08441087603569031], [-0.21398398280143738, -0.009000219404697418, -0.12111204117536545, 0.1180187240242958, 0.0170382559299469, -0.3548276126384735, 0.1891307383775711, 0.17961299419403076, 0.08687196671962738, 0.37208253145217896, 1.1855528354644775, -0.16232740879058838, 0.04054472595453262, -0.04842681810259819, 0.5803999304771423, -1.1196480989456177, 0.2891644835472107, -0.21182788908481598, 0.4143218696117401, -0.5684860944747925, 0.15079189836978912, -0.1395171582698822, 0.3811395466327667, -0.026508858427405357, -0.5563190579414368, -0.744946300983429, 0.4040941894054413, -1.0630887746810913, -0.04076606407761574, -0.3889450430870056, 0.5691706538200378, -0.46380895376205444], [-0.1580580770969391, -0.002696522744372487, -0.214646115899086, -0.03143227472901344, -0.10576940327882767, 0.3411294221878052, 0.10121649503707886, -0.02847716584801674, 0.1932060718536377, -0.13193562626838684, -0.05413045361638069, 0.052086301147937775, 0.00230005313642323, -0.15354083478450775, -0.0022538877092301846, 0.05853528529405594, -0.09703481197357178, -0.11692119389772415, 0.20140723884105682, -0.022731095552444458, 0.390872061252594, -0.06542535871267319, 0.21122972667217255, -0.17882253229618073, -0.24810168147087097, -0.1282980591058731, -0.06454161554574966, 0.030818630009889603, -0.17393215000629425, 0.07448296248912811, 0.1573324054479599, -0.1964135318994522], [-0.21745993196964264, 0.059885188937187195, 0.056774482131004333, -0.02802189067006111, -0.07280093431472778, 0.3694390654563904, -0.022280853241682053, 0.2595403492450714, 0.1533101201057434, 0.010341902263462543, 0.07745835930109024, -0.1495162695646286, 0.2433033585548401, 0.018782932311296463, -0.3446039855480194, 0.09254288673400879, -0.31817230582237244, -0.44319015741348267, 0.14352117478847504, -0.22955633699893951, 0.4409295320510864, -0.21307793259620667, 0.266598105430603, 0.011082547716796398, -0.21573247015476227, 0.16651012003421783, 0.12519530951976776, -0.1237301379442215, 0.005208879709243774, 0.061464667320251465, 0.2718476355075836, -0.2905198931694031], [-0.4317483901977539, -0.2111472338438034, 0.007440835703164339, 0.2135385423898697, -0.030953917652368546, -0.0282930675894022, 0.49134206771850586, -0.025255311280488968, 0.19423523545265198, 0.37582409381866455, 0.7532607316970825, 0.18132054805755615, 0.11531062424182892, 0.003845238359645009, -0.05689379200339317, -0.5625584721565247, 0.399112343788147, 0.2218346744775772, 0.3954232931137085, -0.024898424744606018, 0.08968740701675415, -0.03731697052717209, -0.010071514174342155, 0.14693710207939148, -0.46425557136535645, -0.4039396047592163, 0.08757581561803818, -0.663913369178772, -0.3434377908706665, -0.04023570194840431, 0.252580851316452, -0.6984316110610962], [-0.0026985048316419125, -0.12289106845855713, -0.0629909411072731, 0.13749058544635773, 0.09666948020458221, 0.10762299597263336, -0.13976728916168213, 0.001166202942840755, -0.06717869639396667, 0.1549014002084732, 0.06590501964092255, 0.1607920080423355, -0.10301027446985245, 0.17317041754722595, -0.16646228730678558, -0.13256390392780304, -0.08018642663955688, 0.029554909095168114, 0.1958344280719757, 0.0048659504391252995, -0.00663349311798811, 0.21394790709018707, 0.03759481757879257, -0.01085740327835083, -0.09387408196926117, -0.03465743735432625, 0.07817436754703522, -0.015548702329397202, -0.1375931203365326, -0.018415389582514763, 0.055618345737457275, -0.037138182669878006], [-0.3990553021430969, -0.26456746459007263, 0.10407399386167526, 0.4398764967918396, -0.12120945006608963, 0.3002507984638214, 0.4839864671230316, -0.05619725584983826, 0.38285383582115173, -0.0006414215313270688, 0.2965197265148163, 0.10814875364303589, -0.07622012495994568, 0.00498036528006196, 0.013310853391885757, -0.1322779506444931, 0.28369590640068054, 0.18785375356674194, 0.24678710103034973, -0.01207274105399847, -0.1997091919183731, 0.23477406799793243, 0.3590797185897827, 0.05555536225438118, -0.36506250500679016, -0.24442557990550995, -0.06048377603292465, -0.3660033345222473, -0.07894351333379745, -0.0938110426068306, 0.41864022612571716, 0.006096211262047291], [-0.23731301724910736, 0.0110851489007473, -0.053265977650880814, 0.08561035990715027, -0.08827752619981766, 0.04501267522573471, 0.44679519534111023, -0.14808711409568787, 0.07593415677547455, 0.04002724215388298, 0.39313605427742004, 0.20520801842212677, 0.11968326568603516, 0.004752426873892546, -0.15016543865203857, -0.7397600412368774, 0.49607789516448975, 0.18660418689250946, 0.26646295189857483, -0.14423567056655884, -0.36088600754737854, 0.20155000686645508, 0.3856179416179657, 0.4063619375228882, -0.4429091215133667, -0.4167628884315491, 0.10880322754383087, -0.41389164328575134, -0.017640991136431694, -0.22677481174468994, 0.3790811002254486, -0.326590359210968], [-0.15264897048473358, -0.09144839644432068, -0.03955821320414543, 0.1519274115562439, -0.17353664338588715, 0.12946130335330963, 0.054625362157821655, 0.016153592616319656, 0.16433550417423248, 0.2644874155521393, 0.18847057223320007, 0.1912066787481308, -0.21521645784378052, 0.10520487278699875, 0.16059401631355286, -0.21516552567481995, -0.04080555960536003, -0.08292758464813232, 0.2824435234069824, -0.04498600587248802, 0.08898922055959702, -0.029353082180023193, 0.3244114816188812, -0.0259786918759346, -0.07997225970029831, -0.2787841558456421, -0.048754628747701645, -0.023412778973579407, -0.17251303791999817, 0.12384147942066193, 0.1727016270160675, -0.129851832985878], [-0.3641588091850281, -0.18344292044639587, -0.0026623860467225313, 0.06043361499905586, -0.03088017925620079, 0.05251816287636757, 0.2244127243757248, -0.20596523582935333, -0.0726836696267128, 0.2555868327617645, 0.47113552689552307, 0.08423827588558197, 0.0731620043516159, 0.0157942995429039, -0.03080744482576847, 0.2065763622522354, 0.022934449836611748, -0.028590930625796318, -0.24764768779277802, -0.10154255479574203, -0.11935258656740189, -0.6238380074501038, 0.11668875813484192, 0.14240054786205292, -0.060777295380830765, 0.24557369947433472, -0.30792054533958435, -0.4200568199157715, 0.06335634738206863, -0.37695813179016113, 0.15750013291835785, 0.05083291232585907], [-0.1538221538066864, -0.3295198380947113, 0.06308690458536148, -0.08106409758329391, 0.1852382868528366, 0.16647367179393768, 0.2951081693172455, 0.11966158449649811, 0.28550785779953003, 0.0006074273842386901, 0.08314774185419083, 0.19679883122444153, -0.19940420985221863, -0.05173060670495033, 0.14869239926338196, 0.06333187967538834, 0.14732399582862854, 0.2600630223751068, 0.14235113561153412, -0.23061084747314453, -0.08487694710493088, -0.03916903957724571, 0.23851057887077332, -0.12731638550758362, -0.1248365044593811, 0.004947319161146879, -0.04088340327143669, -0.21659652888774872, -0.2005949169397354, -0.0774245634675026, 0.06999396532773972, -0.2818257212638855], [-0.12653762102127075, -0.13245198130607605, -0.2662304639816284, -0.01125803217291832, -0.04682930186390877, 0.15344104170799255, 0.1537112295627594, 0.09756652265787125, 0.13888385891914368, -0.06693264842033386, 0.06099075824022293, 0.048143044114112854, 0.1884019523859024, -0.003757489612326026, 0.11108770221471786, -0.11685541272163391, -0.038244131952524185, -0.08927106112241745, 0.17601974308490753, -0.0503653958439827, 0.173603817820549, 0.09452151507139206, 0.3131297528743744, -0.11178356409072876, -0.0718841403722763, -0.10773089528083801, 0.14557571709156036, -0.021196944639086723, -0.17054854333400726, -0.07398198544979095, 0.07089511305093765, -0.5565882921218872], [-0.17833839356899261, 0.020747652277350426, -0.27110156416893005, 0.025379547849297523, -0.08784671127796173, 0.160311758518219, 0.11244063824415207, 0.27623480558395386, 0.0949561819434166, -0.029441678896546364, 0.16432496905326843, -0.023967890068888664, 0.2692163586616516, 0.021705737337470055, -0.015330277383327484, -0.1583384871482849, 0.2768930196762085, 0.3833701014518738, -0.01596016064286232, 0.16353008151054382, -0.021047011017799377, 0.15126562118530273, 0.5158942341804504, 0.1547689288854599, -0.2338785082101822, 0.07200253754854202, 0.10265295207500458, -0.27089589834213257, -0.027511080726981163, -0.2694118916988373, 0.15758973360061646, -0.1605907678604126], [-0.07426460832357407, -0.28512299060821533, -0.09053416550159454, 0.19936612248420715, 0.08777157217264175, -0.08154928684234619, 0.021114474162459373, 0.12997393310070038, -0.09214265644550323, 0.22716283798217773, 0.2564343214035034, -0.019953284412622452, -0.12117411941289902, -0.07905037701129913, 0.05974561721086502, -0.3072582185268402, 0.25016966462135315, 0.034860748797655106, 0.17163987457752228, 0.08097139745950699, -0.04247617721557617, -0.16433848440647125, 0.2538590133190155, 0.10607314109802246, -0.40831810235977173, -0.21270309388637543, 0.11933031678199768, -0.05288790166378021, -0.01872081123292446, -0.22330251336097717, 0.03819925710558891, -0.21931497752666473], [-0.5324604511260986, -0.11207062751054764, 0.20105423033237457, 0.184570774435997, 0.01792125217616558, 0.015766434371471405, 0.17640268802642822, 0.05899973586201668, -0.0360725037753582, 0.13530781865119934, 0.22854095697402954, -0.12251675873994827, 0.2242356836795807, 0.034219902008771896, -0.10588124394416809, -0.24993042647838593, 0.2622953951358795, 0.07873300462961197, 0.2858924865722656, -0.019425788894295692, 0.023555662482976913, 0.04542343318462372, 0.07851991802453995, 0.28033241629600525, -0.48682552576065063, -0.28836360573768616, 0.04640737548470497, 0.008342486806213856, -0.2051064670085907, -0.15408740937709808, 0.14012065529823303, -0.3189842700958252], [-0.1374584585428238, -0.0700095072388649, -0.08771049976348877, 0.3002251982688904, 0.22666963934898376, 0.19548770785331726, 0.3625548481941223, -0.0946081131696701, -0.056538499891757965, -0.007408925797790289, 0.2153584212064743, -0.028175681829452515, 0.08951064199209213, 0.23099851608276367, 0.05735725536942482, -0.02102353423833847, 0.2565954327583313, -0.2213704138994217, 0.19252651929855347, -0.04191901907324791, 0.3073139488697052, -0.15576831996440887, 0.6516928672790527, 0.16654199361801147, -0.4112711250782013, -0.12128325551748276, -0.10921923071146011, -0.3065204620361328, 0.12847226858139038, -0.39207425713539124, 0.161521315574646, -0.23639118671417236], [-0.08906550705432892, -0.06494356691837311, -0.13975650072097778, 0.10677926242351532, -0.00926149357110262, 0.1755756437778473, 0.04810820147395134, 0.04614471271634102, 0.028267554938793182, -0.07116717100143433, 0.06955085694789886, -0.09050595015287399, -0.19176551699638367, 0.10921911895275116, -0.12908513844013214, -0.18965384364128113, 0.2514331042766571, 0.2152286171913147, 0.1726084053516388, 0.21055495738983154, -0.1105184331536293, 0.08952480554580688, 0.24220721423625946, -0.026493236422538757, -0.16357029974460602, -0.14379216730594635, 0.22570329904556274, 0.1316959261894226, -0.24723318219184875, -0.10660282522439957, 0.22706645727157593, -0.255510538816452], [-0.11932815611362457, -0.2540438175201416, -0.11123883724212646, 0.039578571915626526, -0.12133191525936127, 0.19651931524276733, 0.1126403883099556, -0.055937089025974274, 0.011854751035571098, 0.06194870546460152, 0.11247222870588303, -0.10339539498090744, 0.03406259045004845, -0.13141518831253052, 0.07942505180835724, 0.10504674166440964, 0.1460074782371521, -0.054662082344293594, -0.036077648401260376, -0.2931056320667267, -0.11458239704370499, 0.10563039034605026, 0.19836807250976562, -0.09243107587099075, 0.05659325048327446, -0.049143027514219284, 0.020116087049245834, -0.2079148143529892, 0.005404108203947544, 0.11471283435821533, -0.03901058807969093, 0.10579245537519455], [-0.5980438590049744, -0.2649044692516327, -0.5490126013755798, 0.22596077620983124, 0.13900126516819, 0.17258413136005402, 0.015738466754555702, -0.015979105606675148, -0.11486053466796875, -0.1172092854976654, 0.5485341548919678, -0.011063319630920887, 0.44652968645095825, 0.18646089732646942, 0.06605211645364761, -0.080895334482193, -0.17239177227020264, -0.1709432154893875, -0.0974876806139946, -0.36245572566986084, 0.26587778329849243, -0.411105751991272, 0.13395728170871735, -0.01473584957420826, -0.3221336305141449, -0.13855041563510895, -0.2809804677963257, -0.5101990699768066, 0.16029305756092072, -0.7000702023506165, 0.13716727495193481, -0.17767976224422455], [-0.20564639568328857, 0.04010077938437462, -0.1398390680551529, -0.05765340477228165, 0.11002718657255173, -0.03777441382408142, 0.2002163529396057, 0.11493197828531265, -0.13039013743400574, 0.11646580696105957, -0.1399078667163849, 0.08827541768550873, -0.09184131771326065, -0.0730479285120964, -0.10663982480764389, -0.0961635410785675, 0.2417360544204712, -0.013850782066583633, 0.0726226270198822, 0.04873427748680115, 0.4367550313472748, 0.11250115185976028, 0.21918043494224548, 0.008652087301015854, -0.068583644926548, -0.17588426172733307, 0.3990427851676941, 0.20443084836006165, -0.19698363542556763, 0.10871157050132751, 0.041502345353364944, -0.39877718687057495], [0.11538536846637726, 0.17166906595230103, 0.11236443370580673, 0.17256923019886017, -0.0649985745549202, 0.038797833025455475, 0.11825430393218994, 0.07527992874383926, 0.24690377712249756, -0.029493093490600586, -0.5394788980484009, 0.25342968106269836, 0.054529108107089996, -0.22142282128334045, 0.025446424260735512, 0.442997008562088, 0.06800366938114166, 0.24064476788043976, -0.023537175729870796, 0.18547376990318298, -0.08702582120895386, 0.29076600074768066, -0.028634946793317795, 0.046146195381879807, -0.09380615502595901, -0.2995600700378418, 0.13504312932491302, 0.438549667596817, -0.23879586160182953, 0.8369873762130737, 0.11545655876398087, -0.3520359396934509], [-0.186997652053833, -0.21411733329296112, -0.04769181087613106, 0.04997072368860245, -0.007631177548319101, -0.14952953159809113, 0.3055518567562103, 0.21325494349002838, 0.31513887643814087, 0.05450945347547531, 0.11300389468669891, 0.2570998966693878, -0.20290102064609528, -0.10241738706827164, -0.029867073521018028, -0.026604272425174713, 0.0014894854975864291, 0.2385183572769165, 0.3060053884983063, -0.04791249334812164, -0.3492371439933777, 0.21415969729423523, 0.11071507632732391, 0.011558378115296364, 0.08710822463035583, 0.009666144847869873, 0.1265597939491272, -0.03728611394762993, -0.07744409143924713, 0.036666080355644226, 0.26107412576675415, 0.08846217393875122], [-0.06209905073046684, 0.2878101170063019, 0.27488183975219727, 0.12942557036876678, -0.2806207537651062, 0.2587912678718567, -0.08061569929122925, 0.42903992533683777, 0.22869350016117096, -0.23248852789402008, -0.07250645011663437, 0.08588473498821259, -0.3240707218647003, -0.12346871942281723, 0.403857946395874, 0.03439505770802498, -0.09286719560623169, 0.221474751830101, 0.18277400732040405, -0.08833484351634979, -0.20371070504188538, 0.21914318203926086, 0.20147322118282318, 0.007587384898215532, 0.1749999225139618, -0.3675503134727478, 0.08244545757770538, 0.1629689335823059, -0.04814724624156952, -0.11230064928531647, 0.2771160900592804, 0.2813781797885895], [0.04179413989186287, -0.06763052195310593, 0.23485884070396423, 0.19999563694000244, -0.11742749810218811, 0.08195817470550537, -0.036891866475343704, 0.028681999072432518, 0.12141228467226028, -0.1253845989704132, 0.00510795833542943, 0.0658397376537323, 0.06538090109825134, -0.09209510684013367, 0.10429289191961288, -0.12160941958427429, 0.06037499010562897, 0.07679483294487, 0.02623327076435089, 0.21903406083583832, 0.012574912048876286, -0.06184995174407959, 0.08616606891155243, 0.16877411305904388, -0.13755036890506744, -0.21430449187755585, 0.022651221603155136, -0.03898744657635689, 0.015515509992837906, -0.001609742408618331, 0.15784090757369995, 0.09865608811378479], [0.17439204454421997, 0.4814418852329254, 0.42840951681137085, 0.5708983540534973, -0.45091694593429565, 0.7277941107749939, -0.3720731735229492, 0.35030868649482727, 0.1451195776462555, -0.17135559022426605, -0.28593432903289795, 0.23505643010139465, 0.1460518091917038, -0.5234660506248474, 0.7171396017074585, 0.46093958616256714, -0.04398444667458534, 1.2154802083969116, 0.061483293771743774, 0.653802752494812, 0.5724273324012756, 0.5405386090278625, -0.16771230101585388, -0.11291803419589996, 0.2490522265434265, 0.19954082369804382, -0.3875599503517151, 1.1137079000473022, -0.28198176622390747, -0.11104416847229004, -0.35310012102127075, 1.0958291292190552], [-0.00969020090997219, 0.3380397856235504, 0.3201758563518524, 0.25844377279281616, 0.051418986171483994, 0.5305644869804382, 0.0315956249833107, 0.12558697164058685, 0.1942049264907837, 0.17950649559497833, -0.3956975042819977, 0.20738546550273895, -0.11235665529966354, 0.073272205889225, 0.0014462426770478487, 0.27515286207199097, -0.07928349822759628, -0.1375526338815689, -0.11861947178840637, 0.6001384854316711, 0.3531406819820404, 0.3913707435131073, 0.1955382227897644, 0.035900842398405075, -0.10565963387489319, -0.16748537123203278, -0.3191460967063904, 0.6449728012084961, -0.06146460399031639, 0.012263484299182892, 0.055369652807712555, -0.2006397694349289], [-0.03752835839986801, 0.2817321717739105, -0.06693792343139648, 0.018936822190880775, -0.2123875468969345, 0.08217547833919525, 0.05826568230986595, -0.11253681033849716, -0.10231871157884598, 0.1395876705646515, -0.0402410589158535, 0.16219663619995117, 0.006272175814956427, -0.024988606572151184, 0.06090014427900314, 0.17928576469421387, 0.1402003914117813, -2.2203672415344045e-05, -0.10233769565820694, 0.023901263251900673, 0.14226539433002472, -0.04386996477842331, -0.019195588305592537, -0.14468522369861603, 0.13120445609092712, -0.2565390467643738, 0.09081624448299408, -0.04123032093048096, -0.10348430275917053, -0.03694591671228409, 0.10992980748414993, -0.11727751791477203], [-0.13521382212638855, -0.04029211401939392, 0.3069811165332794, 0.2897796630859375, -0.23819667100906372, 0.15388815104961395, 0.3321930170059204, 0.01304834894835949, 0.02772134356200695, -0.026115166023373604, -0.10098782181739807, 0.016127286478877068, 0.19319792091846466, 0.10343591868877411, 0.18961648643016815, -0.23233576118946075, 0.032972972840070724, 0.4550127685070038, 0.09081542491912842, 0.3416272699832916, -0.3055509328842163, 0.2553086578845978, -0.048875316977500916, 0.1189526617527008, -0.2878478169441223, 0.3266156017780304, -0.2881115972995758, 0.21877171099185944, -0.08738040924072266, -0.12985412776470184, 0.09337963908910751, 0.2915377914905548], [-0.03266407176852226, 0.22168463468551636, -0.20265637338161469, 0.04093622788786888, -0.15417523682117462, -0.09256806969642639, 0.2221401035785675, 0.24421687424182892, -0.05275651067495346, 0.02192014642059803, -0.07642200589179993, 0.09726123511791229, -0.2015739530324936, -0.1984143853187561, 0.13233453035354614, -0.10247738659381866, -0.15029276907444, -0.006608231924474239, 0.22037899494171143, -0.055613063275814056, -0.023462792858481407, 0.06586543470621109, -0.08085127919912338, -0.24105115234851837, 0.015757298097014427, -0.17529694736003876, 0.06924822926521301, 0.3323688507080078, -0.11939270794391632, 0.3684769868850708, 0.24613258242607117, 0.003310773754492402], [0.0827992856502533, 0.5605675578117371, 0.7223332524299622, -0.20351849496364594, 0.012381136417388916, 0.013219542801380157, 0.2566308081150055, 0.18470647931098938, 0.11668949574232101, -0.27916860580444336, -0.3983505070209503, 0.31958523392677307, 0.10098583251237869, -0.296738862991333, 0.2955208122730255, -0.09816376864910126, 0.11617802083492279, 0.9633296132087708, 0.05203685536980629, 0.19740496575832367, -0.785800039768219, 0.3319232165813446, -0.27589112520217896, 0.5058370232582092, 0.23695698380470276, -0.17105408012866974, 0.3199336528778076, 0.40422654151916504, 0.04422663524746895, 0.21810440719127655, -0.08743643015623093, 0.19823090732097626], [0.10866369307041168, -0.25217849016189575, 0.11835797876119614, 0.09340380877256393, -0.07387370616197586, -0.15828251838684082, -0.10392216593027115, 0.06893754750490189, 0.0576389916241169, 0.05714430660009384, -0.0039607142098248005, 0.11084531992673874, 0.19105635583400726, 0.13643017411231995, 0.06175768002867699, -0.22337159514427185, 0.07828854024410248, -0.05856757611036301, -0.13335759937763214, 0.13606838881969452, 0.10412885248661041, -0.012236683629453182, -0.057272229343652725, 0.1518467217683792, -0.23730948567390442, -0.0543837696313858, -0.3215331435203552, 0.04699359089136124, 0.17349600791931152, 0.0933290347456932, 0.07870437204837799, -0.10984071344137192], [0.3190629184246063, -0.029331494122743607, -0.02302398346364498, -0.10548409074544907, 0.16108044981956482, 0.012201960198581219, 0.09960775822401047, 0.1904860883951187, -0.04564906656742096, -0.16167111694812775, -0.08357841521501541, -0.0015776654472574592, -0.05220824480056763, -0.024456089362502098, -0.09463590383529663, 0.2889828681945801, -0.2179664671421051, 0.24536418914794922, -0.015119851566851139, -0.11020996421575546, -0.13640612363815308, -0.0051006353460252285, 0.15502403676509857, -0.1395423263311386, 0.2552982270717621, 0.13431993126869202, 0.2671264111995697, -0.08759400248527527, 0.18422867357730865, 0.34039556980133057, 0.09722791612148285, 0.03132006153464317], [0.0002293005964020267, -0.019429193809628487, 0.0160413458943367, 0.05809574946761131, 0.17364785075187683, -0.12828737497329712, 0.27455249428749084, 0.06823311001062393, -0.0012378919636830688, 0.11340107023715973, 0.05038154125213623, -0.10786008834838867, -0.07764882594347, 0.14716297388076782, 0.13327327370643616, -0.007967318408191204, 0.017863929271697998, 0.011211822740733624, 0.16139468550682068, -0.19789767265319824, 0.1595095843076706, 0.0007654568180441856, -0.04443049430847168, 0.0024475455284118652, 0.06381738930940628, -0.07825873047113419, -0.003125290386378765, -0.166244775056839, -0.15783247351646423, -0.06891854852437973, 0.08650336414575577, -0.16975262761116028], [0.8251975774765015, 0.8162128925323486, 0.6972078680992126, -0.21213948726654053, -0.015082919038832188, 0.22749122977256775, -0.12759943306446075, 0.3701394498348236, 0.0034299879334867, -0.3644513785839081, 0.1641005128622055, 0.42957571148872375, -0.06793681532144547, -0.3863978683948517, 0.5086600184440613, 0.25949686765670776, -0.24547772109508514, 0.8507325053215027, -0.07148076593875885, 0.23236070573329926, -0.4124979078769684, 0.2947118282318115, -0.3511115312576294, -0.13681913912296295, 0.7099217772483826, -0.5406225919723511, 0.5366042852401733, 0.2918788492679596, -0.06259744614362717, -0.1539086401462555, 0.2764994502067566, 1.0709270238876343], [-0.05453893914818764, 0.2898384630680084, -0.038011521100997925, -0.14311815798282623, 0.06423955410718918, 0.2566019296646118, -0.10603410005569458, 0.16391496360301971, -0.006586797069758177, -0.0340254083275795, -0.23663122951984406, 0.2068880796432495, -0.046971723437309265, -0.022325754165649414, 0.13862013816833496, 0.2166588008403778, 0.03150074928998947, 0.2258656769990921, -0.09267672896385193, 0.10665468126535416, 0.07088198512792587, 0.3197484016418457, -0.09927098453044891, 0.06310197710990906, -0.024480318650603294, -0.1586276888847351, 0.08729326725006104, 0.3233420252799988, -0.09688110649585724, 0.04682443290948868, 0.08527176827192307, -0.18895111978054047], [0.27350401878356934, 0.4291726350784302, 0.16831010580062866, 0.0139151057228446, 0.10227059572935104, 0.8070454001426697, -0.14155161380767822, 0.3258400857448578, 0.16306021809577942, -0.03336738049983978, -0.4353610873222351, -0.07064954191446304, 0.6633490920066833, -0.1688709557056427, -0.2718253433704376, 0.4291589558124542, -0.6154741048812866, -0.14095978438854218, -0.3038064241409302, 0.24205170571804047, 0.26991480588912964, 0.1760728657245636, 0.02857898734509945, -0.022066067904233932, 0.03247702866792679, 0.11966453492641449, 0.35904455184936523, 0.22370651364326477, -0.17896084487438202, 0.3489227890968323, 0.012540560215711594, 0.05457524210214615], [0.4200984239578247, -0.1428736448287964, 0.03505847230553627, -0.43653661012649536, 0.12495241314172745, 0.053956080228090286, 0.006966383196413517, -0.10229943692684174, 0.18279524147510529, -0.037069305777549744, 0.19177457690238953, -0.02383987419307232, -0.19905705749988556, 0.0943179801106453, -0.021345391869544983, 0.28955233097076416, 0.04852547124028206, 0.010486852377653122, 0.43437063694000244, -0.5173535346984863, -0.5123717188835144, -0.11655641347169876, -0.043594494462013245, 0.0961199477314949, 0.16578665375709534, -0.013343839906156063, 0.13027679920196533, -0.1915120631456375, -0.009403410367667675, 0.3531542122364044, 0.14291580021381378, -0.03657566383481026], [-0.1766933798789978, 0.04418323561549187, 0.054023269563913345, 0.23695434629917145, -0.1942170411348343, 0.3206491470336914, -0.013522127643227577, 0.09957153350114822, -0.012034031562507153, 0.10579852759838104, -0.1388387233018875, 0.17891748249530792, 0.013252697885036469, -0.16267409920692444, 0.011902476660907269, 0.19443516433238983, 0.09062041342258453, 0.1858968734741211, -0.12676486372947693, -0.11079438775777817, -0.0787726491689682, 0.21005162596702576, 0.1170780286192894, -0.04505567625164986, 0.07208728045225143, 0.17719683051109314, 0.04662172496318817, 0.14281140267848969, 0.04268316552042961, -0.05961967259645462, -0.11492148041725159, 0.2279895693063736], [0.19762012362480164, 0.13296537101268768, 0.2753286361694336, -0.05792222172021866, -0.09672920405864716, 0.21058323979377747, 0.03359654173254967, -0.08495453745126724, 0.21194255352020264, -0.015995929017663002, 0.050055649131536484, -0.010604710318148136, -0.17743319272994995, -0.0954662412405014, 0.009564565494656563, 0.011088768020272255, 0.09417480230331421, 0.32790809869766235, 0.139762744307518, -0.24131572246551514, -0.3497103750705719, 0.22311532497406006, 0.13654406368732452, 0.19470280408859253, 0.006842044182121754, -0.22959931194782257, -0.0786202996969223, 0.14922285079956055, -0.19408755004405975, 0.27869996428489685, 0.27633553743362427, 0.004045920912176371], [0.5067158341407776, 0.19966182112693787, 0.4966115653514862, -0.5106672644615173, 0.061562176793813705, 0.33469483256340027, -0.007941404357552528, 0.15508738160133362, 0.26061007380485535, -0.3903193473815918, 0.03302370756864548, 0.10513886064291, -0.3367200195789337, -0.15213391184806824, 0.3622928857803345, 0.22728614509105682, -0.14198043942451477, 0.2416401356458664, 0.04244498535990715, -0.2914082705974579, -0.540650486946106, 0.08218295127153397, -0.21900898218154907, -0.1082385703921318, 0.607119619846344, -0.2342921495437622, 0.08611007779836655, 0.05968419462442398, 0.13357073068618774, 0.21613095700740814, 0.21599119901657104, 0.3300705552101135], [0.29907071590423584, 0.16966111958026886, 0.05884510651230812, 0.07686325162649155, 0.04306425899267197, 0.039773985743522644, -0.014425928704440594, -0.06024101376533508, 0.011052777990698814, 0.15414723753929138, -0.21643535792827606, 0.062433332204818726, -0.1264885812997818, -0.0551430806517601, 0.1836118847131729, -0.08149518072605133, -0.04574201628565788, -0.06625206768512726, 0.19862514734268188, 0.14978589117527008, -0.0980859324336052, 0.12963972985744476, 0.20355954766273499, -0.07955716550350189, 0.09837818145751953, -0.018712621182203293, -0.0855778157711029, 0.27256345748901367, -0.2092706263065338, 0.12949968874454498, 0.0273100845515728, -0.17070917785167694], [0.12029115110635757, -0.03564653918147087, -0.22915127873420715, -0.16784992814064026, -0.16166827082633972, 0.44669753313064575, -0.25430020689964294, 0.1348070651292801, 0.2926984429359436, -0.004433122463524342, 0.06397506594657898, 0.19094648957252502, 0.09616068750619888, -0.19132326543331146, 0.2464434802532196, 0.5763891339302063, -0.13545528054237366, -0.33906665444374084, -0.0033183323685079813, -0.4210428297519684, -0.19657817482948303, -0.7692535519599915, 0.23335981369018555, -0.21390190720558167, 0.09531436860561371, -0.1677636206150055, 0.1644136607646942, -0.515552282333374, -0.18906572461128235, 0.035166412591934204, 0.2365204244852066, 0.2683833837509155], [0.11833805590867996, 0.1792413741350174, 0.23841819167137146, 0.008078698068857193, -0.2632489502429962, 0.326169490814209, 0.002357539488002658, 0.02303984761238098, 0.2499316930770874, -0.13338974118232727, -0.26576974987983704, 0.12081499397754669, -0.18323393166065216, -0.23551854491233826, 0.08661247044801712, 0.0600162036716938, 0.035047005861997604, 0.16087289154529572, -0.05596363544464111, 0.024180838838219643, -0.1155436635017395, -0.03304840624332428, -0.0724673718214035, -0.0666046291589737, 0.16000640392303467, -0.22625751793384552, -0.08640734851360321, 0.21345245838165283, -0.10644187033176422, 0.10853777080774307, 0.2571953535079956, 0.24028296768665314], [-0.02890389785170555, 0.19966010749340057, -0.1761789321899414, -0.058641426265239716, -0.27413618564605713, 0.2277480661869049, 0.23618993163108826, 0.11172255128622055, 0.2437807023525238, 0.021350637078285217, -0.08542409539222717, -0.055417757481336594, 0.13621054589748383, -0.09411491453647614, 0.08363588154315948, 0.048663634806871414, 0.014616353437304497, 0.16330759227275848, 0.21143285930156708, 0.10368462651968002, 0.21831686794757843, -0.06210925057530403, 0.12742584943771362, 0.16734559834003448, -0.15902665257453918, -0.07411830127239227, -0.03503383323550224, -0.04260653629899025, -0.11672115325927734, 0.13093595206737518, -0.0017016940983012319, -0.28093427419662476], [-0.06209185719490051, -0.17255546152591705, 0.08033310621976852, -0.06404779106378555, -0.19439257681369781, 0.2023131400346756, 0.1322450190782547, -0.05828327685594559, 0.09369786828756332, 0.10827728360891342, 0.29302170872688293, 0.10246768593788147, 0.08239249885082245, 0.1068650633096695, 0.05696387216448784, 0.2901126742362976, 0.10083511471748352, -0.22693385183811188, 0.12125714123249054, -0.44866177439689636, -0.2120562046766281, -0.38852259516716003, 0.07907205820083618, 0.022647297009825706, -0.0811476781964302, -0.09015750885009766, 0.12829941511154175, -0.2742546796798706, 0.15846143662929535, -0.061471328139305115, 0.2962689995765686, -0.015786821022629738], [0.10714377462863922, 0.056940071284770966, 0.05541465803980827, -0.11079142987728119, -0.08480346202850342, 0.07010813802480698, 0.14928728342056274, 0.19683226943016052, 0.14154177904129028, -0.05293576419353485, -0.10243554413318634, 0.2713179588317871, -0.05999036878347397, -0.2129186987876892, 0.04809068888425827, 0.026870163157582283, -0.28216102719306946, 0.5442110896110535, -0.11154819279909134, 0.08431651443243027, -0.3975028693675995, 0.22102051973342896, 0.05309551581740379, 0.039693865925073624, 0.3104466497898102, 0.11824267357587814, -0.13422973453998566, 0.26509803533554077, 0.14413277804851532, 0.09270920604467392, -0.05919048190116882, 0.19267798960208893], [-0.22993148863315582, 0.37002119421958923, 0.4540594220161438, 0.20603764057159424, -0.13412705063819885, 0.0877174437046051, 0.28225982189178467, -0.05085550248622894, 0.21088500320911407, -0.16373750567436218, -0.15078353881835938, 0.08164853602647781, 0.02772161364555359, 0.07548991590738297, 0.08140064775943756, -0.043778520077466965, 0.19129949808120728, 0.343544065952301, 0.07906302809715271, -0.002940630540251732, -0.357325941324234, 0.3924696743488312, 0.06742773205041885, 0.393409788608551, -0.1853458732366562, -0.26340556144714355, 0.08606480062007904, 0.1632361263036728, -0.08166328817605972, -0.1273971050977707, 0.16194312274456024, -0.20499233901500702], [1.1094603538513184, 0.01592283323407173, 0.18954315781593323, -0.44012075662612915, 0.084205761551857, 0.36203864216804504, 0.031943179666996, 0.058559030294418335, 0.354108601808548, -0.17150211334228516, 0.15747040510177612, -0.0015884139575064182, -0.29929617047309875, -0.09067513048648834, 0.09898481518030167, 0.4523949921131134, -0.5547530651092529, 0.02127789705991745, 0.08566655963659286, -0.26340022683143616, -0.5413431525230408, -0.38696518540382385, 0.03778844699263573, -0.320908784866333, 0.42984187602996826, 0.19923044741153717, -0.029430009424686432, 0.1206962987780571, 0.0898863822221756, -0.15753737092018127, 0.45855891704559326, 0.9464996457099915], [0.1322605162858963, 0.19280941784381866, 0.2582062780857086, -0.11087965220212936, 0.04732945188879967, 0.25598907470703125, 0.0644635409116745, 0.19501540064811707, 0.12699094414710999, -0.16324041783809662, -0.12810018658638, 0.09789691865444183, -0.10278470069169998, -0.05012967810034752, 0.34346672892570496, 0.1413278728723526, -0.20797964930534363, 0.48544514179229736, 0.14559262990951538, -0.11038381606340408, -0.39210015535354614, 0.25530770421028137, -0.024953290820121765, 0.024213260039687157, 0.19681207835674286, 0.11680013686418533, 0.08008380234241486, 0.1511954963207245, -0.08557109534740448, -0.0573045052587986, 0.015729054808616638, 0.3065778613090515], [0.20685863494873047, -0.1827375441789627, -0.06926874816417694, 1.9779205103986897e-05, -0.09978820383548737, -0.058468036353588104, 0.22608032822608948, 0.06698541343212128, 0.2135559767484665, -0.2414318472146988, -0.13325825333595276, 0.2506776750087738, -0.08475544303655624, -0.1776271015405655, -0.05666571855545044, 0.1251709908246994, 0.1712445616722107, 0.19949017465114594, -0.08850342780351639, -0.1479942500591278, -0.20553702116012573, 0.08245326578617096, 0.1274588257074356, -0.09399790316820145, 0.1974237859249115, -0.09262336790561676, 0.12772485613822937, 0.05690694972872734, -0.004490484017878771, 0.19757606089115143, 0.04891858249902725, 0.2670794129371643], [0.10974501818418503, -0.00627302099019289, -0.28250542283058167, -0.07517389208078384, -0.07814506441354752, 0.7743277549743652, -0.1464231312274933, 0.03905785083770752, 0.38154336810112, -0.31587499380111694, 0.4364074468612671, 0.018251631408929825, 0.1006600484251976, -0.07836581021547318, 0.3074813783168793, 0.5228134393692017, -0.04260200634598732, -0.2380456179380417, -0.17832446098327637, -0.39052948355674744, 0.04212493821978569, -0.2091195434331894, 0.23705197870731354, -0.0625365599989891, 0.44750532507896423, 0.19177232682704926, -0.32897141575813293, -0.11901386082172394, 0.2813947796821594, -0.3164055645465851, 0.19974146783351898, 0.26162779331207275], [-0.0760463997721672, 0.1656920611858368, 0.10893664509057999, -0.1280861794948578, 0.058006688952445984, -0.1038351058959961, 0.12885558605194092, -0.07284864783287048, 0.09325410425662994, -0.13814879953861237, -0.10389300435781479, -0.09810952842235565, 0.14067929983139038, -0.0074706124141812325, -0.07245855778455734, 0.19230888783931732, -0.16928936541080475, -0.08694200217723846, 0.09242869913578033, 0.05765179544687271, -0.16552294790744781, 0.02123437076807022, 0.0954960286617279, -0.03526558727025986, 0.09719283133745193, 0.21942465007305145, 0.13400837779045105, 0.0944347158074379, 0.23673079907894135, 0.03086201101541519, 0.0934223085641861, 0.04550616443157196], [0.1297689527273178, 0.10095953941345215, 0.11554212123155594, -0.16850849986076355, 0.09948350489139557, 0.37517815828323364, -0.05432750657200813, 0.038007136434316635, -0.01988193579018116, 0.0376909002661705, -0.05592575669288635, 0.09550759941339493, -0.008465739898383617, -0.1048109382390976, -0.04920893535017967, 0.37982699275016785, -0.1325334906578064, -0.13255159556865692, -0.09324025362730026, 0.178132101893425, -0.08230670541524887, -0.13098828494548798, 0.12937821447849274, -0.3713383376598358, 0.09319686144590378, -0.01713515818119049, 0.2083865851163864, 0.13578790426254272, -0.09953705221414566, 0.3219105899333954, 0.0005248222732916474, 0.03754265233874321], [0.053564831614494324, -0.07162030041217804, 0.1841447651386261, 0.026144787669181824, -0.053978025913238525, 0.10857006907463074, 0.17177817225456238, -0.20227767527103424, 0.09054827690124512, 0.03989323601126671, -0.00830378383398056, -0.1046091616153717, 0.1247299537062645, 0.14574874937534332, -0.19446146488189697, -0.18722350895404816, -0.0454285554587841, 0.22260834276676178, -0.045239780098199844, 0.1532210260629654, -0.1932070553302765, -0.031064234673976898, -0.09816256910562515, 0.1304473876953125, 0.06877445429563522, -0.06986469030380249, 0.06042004004120827, 0.2847793698310852, -0.1302589327096939, -0.031546808779239655, -0.14686420559883118, 0.10882745683193207], [-0.2241906076669693, -0.045715875923633575, 0.03370771184563637, 0.03928501904010773, 0.003509379690513015, -0.1569068282842636, 0.08620284497737885, 0.0873132199048996, -0.08135947585105896, 0.2014174610376358, -0.17398539185523987, -0.003980588633567095, -0.010464459657669067, 0.12464965134859085, 0.038614705204963684, -0.05576884001493454, -0.08359432965517044, 0.0701180174946785, -0.08097503334283829, 0.14047281444072723, 0.11445731669664383, 0.17978350818157196, 0.01896814815700054, 0.18886543810367584, 0.015211036428809166, 0.06046883389353752, -0.16323524713516235, -0.00035238772397860885, -0.11445672810077667, 0.03169652819633484, -0.25725993514060974, -0.05183754861354828], [0.035875435918569565, -0.1312946230173111, 0.07577141374349594, 0.010494379326701164, 0.1020815446972847, -0.01524139754474163, 0.05314712971448898, 0.019704323261976242, -0.15663552284240723, -0.060054320842027664, -0.1165686845779419, 0.030838431790471077, -0.1572345346212387, 0.05199901759624481, -0.027054868638515472, 0.08125355839729309, 0.14719609916210175, 0.03107157163321972, 0.17065227031707764, 0.004371651913970709, -0.05323033034801483, -0.1667965054512024, -0.1493007242679596, 0.012505748309195042, 0.1843012273311615, 0.027607794851064682, 0.1544559895992279, -0.16822054982185364, -0.13119246065616608, 0.08064991235733032, 0.11828797310590744, 0.17847053706645966], [0.18122264742851257, -0.1545601487159729, -0.13482221961021423, 0.015559259802103043, 0.006821181159466505, -0.5734156966209412, 0.03578132018446922, 0.1468803584575653, -0.0540248267352581, -0.19995100796222687, 0.30867913365364075, 0.2011062502861023, 0.35855403542518616, -0.07726289331912994, 0.8174566030502319, -0.02591611258685589, 0.013813834637403488, -0.16606022417545319, -0.10001927614212036, -0.11358817666769028, 0.024722781032323837, -0.07931193709373474, -0.08880201727151871, -0.2842027544975281, 0.05608818307518959, -0.16636323928833008, 0.03959876671433449, -0.27708372473716736, -0.2325909435749054, -0.04397263005375862, -0.13379737734794617, 0.5790494680404663], [-0.04049025475978851, 0.1022871881723404, 0.06478218734264374, 0.3275388479232788, 0.13678164780139923, 0.02937198057770729, -0.10061658918857574, -0.21441273391246796, 0.00676687341183424, 0.07575657218694687, -0.2002679705619812, -0.13827866315841675, 0.21853138506412506, 0.16354621946811676, -0.2685222625732422, -0.012014573439955711, 0.04952625930309296, 0.12251158058643341, -0.03955534100532532, 0.4017474055290222, 0.05470346286892891, -0.05022713169455528, 0.14043812453746796, 0.2009008526802063, -0.40525004267692566, 0.20786096155643463, -0.32512789964675903, 0.3492680490016937, -0.009267691522836685, -0.09461173415184021, 0.03366134688258171, -0.12782400846481323], [0.05036858469247818, 0.05211839824914932, -0.14118781685829163, -0.22760508954524994, 0.11304070055484772, 0.28127598762512207, -0.16404055058956146, 0.2516496777534485, 0.10177729278802872, 0.015350764617323875, 0.19461385905742645, 0.10467527061700821, -0.03771625831723213, -0.2018216848373413, 0.01722363382577896, 0.17825940251350403, 0.12118132412433624, -0.09623559564352036, 0.14366364479064941, -0.26138412952423096, -0.05962808057665825, -0.2587551474571228, 0.1433033049106598, -0.19617046415805817, 0.31307318806648254, -0.13937029242515564, 0.001115618972107768, -0.06628751009702682, 0.04497864469885826, -0.15870997309684753, 0.18240658938884735, 0.26671862602233887], [-0.08508394658565521, -0.25530269742012024, 0.15140390396118164, -0.03973601385951042, 0.011658433824777603, -0.041231270879507065, 0.01951644755899906, 0.043755073100328445, 0.2618807852268219, 0.29519668221473694, 0.15578310191631317, 0.15849453210830688, -0.10314280539751053, -0.07799924165010452, -0.016892634332180023, 0.1140706017613411, -0.017814405262470245, 0.0942649096250534, -0.0288567915558815, -0.05626063048839569, -0.16952693462371826, -0.11034633964300156, -0.0724446028470993, 0.051392197608947754, 0.028640201315283775, 0.004350134637206793, -0.1289156973361969, -0.14451618492603302, 0.0002130748616764322, -0.04620451480150223, -0.0289970263838768, -0.03370075672864914], [0.11053788661956787, -0.00501349288970232, 0.21041247248649597, 0.2268812358379364, -0.08933624625205994, 0.10167393833398819, 0.1382240504026413, -0.16510307788848877, 0.19304780662059784, 0.01132887788116932, -0.13590344786643982, -0.031522296369075775, -0.10784818232059479, 0.09549829363822937, 0.012249299325048923, 0.011197410523891449, -0.11341475695371628, -0.09990420192480087, 0.003294785739853978, -0.047679346054792404, 0.08392585068941116, -0.11113135516643524, -0.028083130717277527, 0.10426125675439835, 0.052732374519109726, 0.0077980635687708855, -0.022563423961400986, -0.11662396043539047, -0.04933610185980797, -0.07399255037307739, 0.04022122919559479, -0.1152874156832695], [-0.1626652628183365, 0.0450039803981781, 0.1954236477613449, -0.13073775172233582, 0.01817222498357296, -0.4204554259777069, -0.033879972994327545, 0.05011393874883652, -0.06550619006156921, 0.15407072007656097, 0.23963378369808197, -0.15903973579406738, -0.03564704582095146, 0.16137272119522095, 0.19159306585788727, -0.3213706910610199, 0.13315646350383759, 0.2918055057525635, 0.100486159324646, 0.03615857660770416, -0.37158435583114624, 0.05323212593793869, 0.01797509379684925, -0.06208942458033562, -0.2391016036272049, -0.042130447924137115, 0.0754675418138504, -0.2614745497703552, 0.21369436383247375, -0.21183127164840698, -0.02044982649385929, -0.11896700412034988], [0.09183752536773682, 0.0363759845495224, 0.06959712505340576, -0.0662655383348465, -0.0031280412804335356, -0.041981570422649384, 0.1362716555595398, -0.161992147564888, 0.04608675464987755, 0.13227979838848114, 0.0055767083540558815, -0.12098072469234467, 0.008390543051064014, -0.16141639649868011, 0.09359673410654068, -0.03237886354327202, -0.09418487548828125, 0.03944183513522148, -0.055550288408994675, 0.136664479970932, -0.12220153212547302, 0.11797360330820084, 0.14945665001869202, -0.12566539645195007, 0.1388271301984787, -0.09038117527961731, 0.04331572353839874, 0.18039357662200928, 0.08075938373804092, -0.07049133628606796, 0.13164128363132477, -0.09591960906982422], [-0.004191657528281212, -0.10090088099241257, 0.13516682386398315, 0.18906502425670624, -0.22969475388526917, 0.1624699831008911, -0.03796906769275665, 0.004333161748945713, 0.13154888153076172, -0.054489631205797195, 0.024522047489881516, -0.09340715408325195, 0.10924885421991348, -0.08792628347873688, -0.037476662546396255, 0.10135186463594437, -0.12645332515239716, -0.12949298322200775, -0.06528584659099579, 0.08579874038696289, 0.005264184437692165, -0.04914291575551033, -0.0229050200432539, 0.09802822768688202, -0.015706174075603485, -0.13167652487754822, 0.04527642950415611, -0.017551597207784653, 0.03235216066241264, -0.13362306356430054, -0.17220410704612732, -0.012460778467357159], [-0.21631431579589844, -0.1917179375886917, 0.016678301617503166, -0.07436299324035645, -0.10271838307380676, 0.012937456369400024, 0.10914518684148788, -0.21181677281856537, -0.06636571884155273, 0.005973719526082277, -0.0014832211891189218, 0.0448383167386055, 0.1056770384311676, 0.14492549002170563, -0.11380312591791153, 0.09682551771402359, 0.05533333122730255, -0.16434042155742645, 0.09605883061885834, 0.08990398049354553, 0.07544511556625366, 0.1260140985250473, 0.13633166253566742, -0.006452994421124458, -0.07304241508245468, -0.12445218116044998, 0.08578832447528839, 0.07962077111005783, 0.1869177520275116, 0.1312207728624344, 0.00028514544828794897, 0.07105424255132675], [0.25788214802742004, 0.16654273867607117, 0.556333065032959, -0.28515103459358215, 0.08161483705043793, -1.0096901655197144, 0.3030836284160614, 0.03746871277689934, 0.012779947370290756, -0.06856371462345123, -0.1764133721590042, -0.018852585926651955, -0.02279074676334858, 0.15820245444774628, -0.35663434863090515, -0.3621564209461212, -0.10705112665891647, 0.2827129662036896, 0.06022406369447708, 0.1418691724538803, -0.5064200758934021, 0.21700496971607208, -0.14008116722106934, 0.12834519147872925, -0.18117810785770416, -0.2822253406047821, 0.49805864691734314, 0.01521005854010582, 0.003253613132983446, 0.030239583924412727, 0.324441134929657, -0.21028806269168854], [-0.1317465752363205, -0.164267897605896, -0.2050456553697586, -0.2822461724281311, 0.16192513704299927, 0.20669271051883698, 0.09935348480939865, -0.009952789172530174, 0.13493798673152924, 0.026597026735544205, 0.04789859801530838, -0.10121867805719376, -0.07121013849973679, 0.039320871233940125, 0.21109169721603394, -0.008005364798009396, -0.14791752398014069, 0.018902810290455818, 0.001552203088067472, -0.22855715453624725, -0.07084178179502487, -0.09481373429298401, 0.09155122935771942, -0.3015613853931427, 0.22802454233169556, 0.014849976636469364, -0.022454388439655304, -0.10179617255926132, 0.24544461071491241, -0.05078386142849922, -0.08076643198728561, 0.24805304408073425], [0.02555561438202858, 0.1543656438589096, -0.1322290152311325, 0.09000840783119202, 0.07432565093040466, -0.11445746570825577, -0.0900401622056961, 0.0030603897757828236, -0.09584956616163254, 0.17152966558933258, -0.10620909929275513, 0.014287558384239674, -0.153355211019516, 0.15766319632530212, 0.060318998992443085, 0.017755474895238876, 0.0008053930359892547, -0.13971184194087982, 0.04802735894918442, 0.09654226899147034, 0.4387793242931366, 0.09809902310371399, 0.15954793989658356, 0.13152986764907837, -0.1759726107120514, -0.16350023448467255, 0.10376297682523727, 0.0801992267370224, -0.1361708641052246, 0.11189396679401398, 0.15471504628658295, -0.6877402067184448], [-0.036802709102630615, 0.2020610123872757, 0.15017502009868622, 0.26236873865127563, -0.1798878312110901, 0.07593105733394623, 0.11715570837259293, 0.3445238769054413, 0.006049753166735172, -0.061937276273965836, -0.3967697024345398, 0.040817003697156906, -0.06303446739912033, -0.16619819402694702, 0.004731548484414816, 0.23824681341648102, 0.07876713573932648, 0.00486827502027154, 0.17208948731422424, 0.4455474019050598, 0.4657553434371948, 0.3596218228340149, 0.18690453469753265, 0.16781364381313324, -0.020366106182336807, -0.20414507389068604, 0.3931956887245178, 0.5115262866020203, -0.3759169578552246, 0.19674161076545715, -0.09874922037124634, -0.15793760120868683], [-0.15259693562984467, -0.10581418871879578, -0.0729341059923172, 0.05718658119440079, 0.13908863067626953, 0.04071696475148201, 0.03586758300662041, -0.038895197212696075, 0.1751125007867813, 0.02060382254421711, -0.11814559996128082, -0.12628772854804993, -0.11251672357320786, 0.16633111238479614, 0.02318730019032955, -0.18402349948883057, -0.07184693217277527, -0.011061042547225952, 0.1894376426935196, -0.23324111104011536, 0.21709133684635162, 0.04465818032622337, -0.04438689351081848, -0.16768670082092285, 0.02941005304455757, -0.26251429319381714, 0.30050501227378845, -0.17552450299263, -0.19226202368736267, 0.2231190949678421, 0.07786975800991058, -0.17317892611026764], [-0.1567946970462799, 0.22469373047351837, -0.08818916976451874, 0.2648946940898895, -0.005204388406127691, 0.1405225396156311, -0.18860329687595367, 0.02708602137863636, -0.02853485755622387, -0.06045903265476227, -0.20290303230285645, -0.08222167938947678, 0.15682630240917206, -0.0985187292098999, -0.14561910927295685, 0.16394387185573578, 0.08472960442304611, 0.08214039355516434, -0.006618108134716749, 0.057801179587841034, 0.2884312868118286, 0.05200603976845741, 0.14049504697322845, 0.20313701033592224, 0.09152032434940338, -0.07097030431032181, -0.05951007455587387, 0.14425797760486603, -0.2435213178396225, 0.10707860440015793, -0.23409640789031982, 0.0649697408080101], [0.1034897193312645, -0.11479224264621735, -0.1849014163017273, 0.0595276765525341, -0.16948795318603516, 0.01016776729375124, -0.13841982185840607, 0.1283125877380371, -0.05716504529118538, -0.1072070375084877, 0.0900355651974678, 0.059821389615535736, 0.03254036232829094, -0.11452501267194748, 0.07672024518251419, 0.15716734528541565, -0.05553938448429108, -0.2730292081832886, -0.09607094526290894, -0.049863532185554504, 0.19544059038162231, -0.18330387771129608, 0.11878900229930878, -0.05765872448682785, 0.002420357894152403, -0.04538198933005333, 0.154531791806221, -0.10061328113079071, 0.11649731546640396, 0.02262709103524685, 0.16354484856128693, -0.009628897532820702], [0.20670954883098602, 0.12272348999977112, 0.15844491124153137, 0.22798246145248413, 0.034049615263938904, 0.023064298555254936, -0.0832875594496727, 0.1762586236000061, -0.10900638997554779, -0.11722888052463531, -0.2216779589653015, 0.03217849135398865, 0.1285889744758606, -0.02285517007112503, -0.19327881932258606, -0.07980886846780777, -0.07416507601737976, -0.16272270679473877, 0.08106770366430283, 0.19631804525852203, 0.308554470539093, 0.10167762637138367, 0.1292750984430313, 0.12399952113628387, -0.039245687425136566, 0.08475088328123093, -0.10405240952968597, 0.26096922159194946, -0.11766055971384048, 0.15083391964435577, -0.16290228068828583, 0.004747553262859583], [0.025070950388908386, 0.1323859542608261, -0.000693159643560648, -0.037845976650714874, 0.08179709315299988, 0.05098699778318405, -0.257791668176651, 0.04925961047410965, -0.12937533855438232, -0.22003044188022614, -0.03658172860741615, -0.11263816803693771, -0.15098468959331512, 0.01382331270724535, 0.008242729119956493, -0.04606190323829651, 0.12198150157928467, 0.08529029786586761, 0.03731656074523926, 0.14823231101036072, 0.2694316804409027, -0.028505990281701088, 0.21003955602645874, -0.03831867873668671, -0.16070988774299622, -0.26168715953826904, 0.08006328344345093, -0.03287087008357048, 0.0022328547202050686, 0.021623924374580383, -0.06092536821961403, -0.24463778734207153], [0.07066074758768082, -0.07336107641458511, -0.0426647774875164, -0.053992416709661484, -0.22454075515270233, 0.13714371621608734, 0.19949503242969513, -0.13280022144317627, 0.027467552572488785, -0.06613217294216156, -0.17455129325389862, 0.09806130826473236, 0.1847146600484848, 0.19308790564537048, -0.07494962960481644, -0.007197791710495949, 0.05468546226620674, 0.2106410562992096, -0.08807729929685593, 0.28678345680236816, 0.11465807259082794, 0.2600681185722351, 0.187357097864151, -0.030494624748826027, -0.04355013370513916, -0.16349677741527557, -0.09193932265043259, 0.08673036843538284, 0.07073425501585007, -0.023042233660817146, -0.19444893300533295, -0.22212280333042145], [0.027055839076638222, 0.11156076192855835, 0.03736308217048645, -0.26784542202949524, 0.008895003236830235, 0.18947751820087433, 0.07115846872329712, 0.004787620157003403, -0.1558469980955124, 0.05773384869098663, -0.034014295786619186, -0.015718476846814156, -0.11023125052452087, 0.037578973919153214, 0.19434279203414917, 0.19369912147521973, -0.0952652096748352, -0.19304046034812927, -0.09216082841157913, -0.14992527663707733, -0.2282721847295761, -0.1932201385498047, -0.10160209983587265, -0.15060603618621826, -0.024179046973586082, -0.12383077293634415, -0.07222812622785568, 0.08859232068061829, 0.03816003352403641, 0.054538287222385406, -0.04591218754649162, 0.027638031169772148], [-0.25997164845466614, 0.10908936709165573, -0.11653731018304825, 0.2529098689556122, -0.20915427803993225, 0.10169491171836853, 0.15568500757217407, -0.08535879105329514, 0.016383936628699303, -0.22080683708190918, -0.01239005196839571, 0.05250095948576927, -0.2181771844625473, -0.19188474118709564, 0.24771083891391754, -0.37159568071365356, 0.31341975927352905, 0.482463002204895, -0.1207355260848999, 0.4125361144542694, 0.04542608559131622, 0.1177288293838501, 0.16717995703220367, 0.22551262378692627, -0.2969951033592224, 0.31631407141685486, -0.41110721230506897, 0.15657788515090942, 0.21229636669158936, -0.48008981347084045, -0.1823168843984604, 0.18547572195529938], [0.10364262014627457, 0.05375855043530464, -0.17356538772583008, -0.06684917956590652, 0.08055594563484192, 0.05459969863295555, -0.03296290710568428, 0.04348680004477501, 0.11354555189609528, 0.0741577222943306, -0.10060255974531174, -0.11960555613040924, 0.028966035693883896, 0.11541371792554855, -0.16543534398078918, 0.1608148068189621, -0.16135306656360626, -0.04457150772213936, -0.06510261446237564, 0.009511629119515419, 0.04078545793890953, -0.15821205079555511, -0.03388587385416031, -0.1655416190624237, 0.011839696206152439, -0.09956911951303482, -0.09098266810178757, -0.11405488103628159, 0.11207707971334457, 0.09041624516248703, 0.1582459807395935, 0.20105957984924316], [0.11931280046701431, 0.2368430644273758, -0.0604911632835865, 0.11978519707918167, -0.1950172632932663, 0.16328047215938568, -0.11577758193016052, 0.16810975968837738, -0.04503347724676132, -0.014822478406131268, -0.19397282600402832, -0.02155056968331337, 0.046589046716690063, -0.04013784974813461, 0.0739801749587059, -0.015068584121763706, -0.014862959273159504, -0.17424510419368744, -0.0493386872112751, 0.09121515601873398, 0.1926824450492859, 0.16179217398166656, -0.12600892782211304, -0.13913577795028687, 0.010391546413302422, 0.17247553169727325, 0.04780178517103195, 0.01940060593187809, -0.1369500309228897, -0.047428473830223083, 0.15162953734397888, 0.06401478499174118], [-0.19977690279483795, 0.1919749528169632, 0.23416326940059662, 0.10292978584766388, -0.0020203175954520702, -0.3091210424900055, 0.10579696297645569, 0.12204720079898834, 0.09119819849729538, 0.008728684857487679, -0.1921834796667099, -0.014805261045694351, -0.046311914920806885, 0.03200382739305496, 0.1817367970943451, -0.46035316586494446, 0.42724117636680603, 0.13867440819740295, 0.2046869546175003, -0.009810879826545715, -0.45484915375709534, 0.1452122926712036, -0.02228427678346634, -0.025302231311798096, -0.2202695608139038, 0.17861777544021606, 0.05293753370642662, 0.31092265248298645, 0.0613168440759182, -0.24027544260025024, -0.017466256394982338, -0.25322452187538147], [0.03136012703180313, -0.1217012107372284, -0.21266503632068634, 0.06574831902980804, 0.011215751990675926, 0.051639411598443985, -0.08746355026960373, -0.06139843538403511, 0.16727392375469208, -0.044201191514730453, -0.08004514873027802, 0.011941294185817242, -0.052909210324287415, 0.099656842648983, -0.07396307587623596, 0.16761063039302826, -0.21686609089374542, -0.14606362581253052, -0.06519981473684311, 0.03871677443385124, 0.07288606464862823, -0.06438026577234268, -0.1895599216222763, -0.172075092792511, -0.08148224651813507, 0.0776377022266388, 0.16854335367679596, -0.20242120325565338, -0.0015884301392361522, -0.09163907170295715, 0.0309413094073534, 0.20155270397663116], [0.11733977496623993, -0.14366646111011505, 0.01887510158121586, 0.04256162792444229, 0.20776677131652832, -0.021547788754105568, 0.14132890105247498, -0.13771553337574005, 0.10023090988397598, -0.03745852783322334, -0.13633280992507935, -0.06916891783475876, -0.04687226191163063, -0.11545681208372116, -0.034385088831186295, -0.1385306566953659, -0.0501871220767498, 0.1749749481678009, 0.05304815247654915, -0.040775131434202194, -0.10351437330245972, -0.12559859454631805, 0.16328835487365723, -0.038808032870292664, 0.0516791045665741, 0.11337313801050186, -0.029971521347761154, -0.2573983073234558, -0.06253845989704132, 0.09398855268955231, 0.046940214931964874, 0.09449338912963867], [-0.05807513743638992, -0.10366638004779816, 0.19888830184936523, -0.09178751707077026, 0.06907515227794647, -0.14851288497447968, -0.1272793710231781, -0.018948299810290337, -0.0701291561126709, -0.10168206691741943, -0.1235126182436943, 0.25066378712654114, -0.23065321147441864, -0.2554960250854492, 0.20021124184131622, -0.09764091670513153, 0.22342634201049805, 0.3081051707267761, -0.05216353386640549, 0.16113941371440887, -0.3051713705062866, 0.11871769279241562, 0.026480283588171005, -0.11860057711601257, -0.1241723969578743, -0.04924082010984421, -0.3734244108200073, 0.08805429935455322, 0.17838458716869354, -0.19070754945278168, -0.09962350875139236, -0.06115252152085304], [-0.16860835254192352, -0.09840454906225204, -0.23234722018241882, -0.13291054964065552, -0.01669001393020153, -0.24202290177345276, 0.09786432236433029, 0.0087916674092412, -0.12427716702222824, 0.12273382395505905, -0.25581446290016174, 0.04595406726002693, 0.0014835360925644636, 0.014143122360110283, -0.30372604727745056, -0.157974511384964, 0.163788840174675, -0.11662120372056961, -0.0587683767080307, 0.07027827203273773, 0.2979523241519928, -0.08049888163805008, 0.08905409276485443, -0.2673874497413635, -0.17232808470726013, -0.2548750340938568, 0.5630246996879578, 0.21834732592105865, -0.37424802780151367, 0.20593030750751495, -0.015090285800397396, -0.5264250636100769], [-0.16684743762016296, 0.47219520807266235, 0.18688248097896576, 0.19942453503608704, -0.204127699136734, -0.4352000653743744, 0.39166000485420227, -0.07346069812774658, -0.1856473982334137, -0.1543039083480835, -0.7585756182670593, 0.13946910202503204, -0.030701998621225357, -0.09667519479990005, 0.01629931852221489, -0.6122126579284668, 0.5835063457489014, 0.38735994696617126, 0.1446964293718338, 0.33591538667678833, -0.056446623057127, 0.6752761602401733, 0.4343036711215973, 0.2661345899105072, -0.06619661301374435, -0.3351745903491974, 0.29933667182922363, 0.622250497341156, -0.5873361229896545, 0.10138469189405441, -0.08259712159633636, -0.9449230432510376], [-0.15119154751300812, -0.3528895378112793, -0.04776003584265709, 0.04450719803571701, 0.00710671953856945, -0.1187940165400505, 0.04150504991412163, -0.042894601821899414, 0.041474394500255585, 0.04706637188792229, 0.09791213274002075, -0.02275564707815647, 0.020784802734851837, 0.07918338477611542, 0.05728472024202347, -0.12488256394863129, 0.05208845064043999, 0.06966832280158997, 0.1647896021604538, -0.079768106341362, -0.23875343799591064, 0.13665440678596497, 0.029340364038944244, -0.09321677684783936, -0.2071826457977295, -0.20782966911792755, -0.047841090708971024, -0.5606541037559509, -0.22073666751384735, 0.16539913415908813, 0.2794186472892761, 0.2913508713245392], [-0.048486560583114624, -0.3632451891899109, -0.12807627022266388, 0.125999316573143, -0.12471634894609451, 0.04860924184322357, 0.23923024535179138, -0.06296352297067642, 0.26200249791145325, 0.1444637030363083, 0.06798506528139114, 0.024059956893324852, -0.14528046548366547, 0.08282589912414551, 0.09384571760892868, -0.049138158559799194, -0.055148571729660034, -0.04735039174556732, 0.030080202966928482, -0.04744443669915199, 0.14930814504623413, 0.21386998891830444, 0.3662373721599579, 0.14033648371696472, -0.21118399500846863, -0.3775157034397125, -0.15413111448287964, -0.16807174682617188, -0.26107263565063477, 0.108657605946064, 0.24456405639648438, -0.25473225116729736], [-0.1915263533592224, 0.12045381963253021, 0.24918559193611145, 0.2541058361530304, -0.05369731783866882, -2.318616498087067e-05, 0.012179655022919178, -0.02839118055999279, 0.016716115176677704, 0.22404354810714722, -0.09427206963300705, -0.03326445072889328, 0.12678201496601105, -0.09870117157697678, 0.07554899156093597, -0.2528631091117859, 0.10741806030273438, 0.23446719348430634, 0.25627198815345764, 0.09888708591461182, -0.0443323515355587, 0.015459654852747917, -0.009402256458997726, 0.2383926808834076, -0.06372277438640594, -0.19564899802207947, -0.013972815126180649, 0.14108608663082123, 0.009230149909853935, -0.1128031462430954, 0.018876926973462105, 0.046252962201833725], [-0.9213570356369019, 0.31322550773620605, -0.6770486831665039, 0.2518060803413391, -0.07826747000217438, 0.7238776683807373, 0.22444289922714233, -0.007553674280643463, 0.42906609177589417, 0.09486258774995804, -0.2384057641029358, 0.12843142449855804, -0.23209211230278015, -0.03470282629132271, 0.008715891279280186, 0.19381582736968994, 0.565284013748169, -0.09255611151456833, 0.7495180368423462, -0.07250678539276123, 0.46009984612464905, -0.12647922337055206, 0.5669565796852112, 0.02637631632387638, -0.5575476884841919, -0.03347752243280411, -0.24916525185108185, -0.002737099537625909, -0.3507234752178192, 0.11845512688159943, 0.3184399902820587, -0.26128196716308594], [-0.07154534012079239, 0.17955254018306732, 0.12066029757261276, 0.10308654606342316, -0.014501936733722687, 0.030415350571274757, -0.07638473808765411, -0.26181578636169434, 0.15238401293754578, 0.25099098682403564, -0.17279969155788422, -0.10847602039575577, 0.011673149652779102, 0.23904947936534882, -0.42349472641944885, -0.08084866404533386, 0.026784375309944153, -0.5070284605026245, 0.25672805309295654, 0.10079429298639297, 0.1225660890340805, 0.16916830837726593, 0.3361356258392334, 0.1509166657924652, -0.2624068856239319, -0.10172902047634125, -0.007144073024392128, 0.33307257294654846, -0.16515031456947327, 0.07121951133012772, 0.05905921384692192, -0.5430886745452881], [-0.11272232979536057, -0.19247208535671234, -0.24907001852989197, 0.09415342658758163, -0.1934451013803482, -0.02161671407520771, 0.37998247146606445, 0.010438009165227413, -0.09920549392700195, -0.036337822675704956, 0.13089974224567413, -0.09810199588537216, -0.002217194763943553, 0.1508335918188095, 0.17304778099060059, -0.3180089294910431, 0.29208827018737793, -0.13826704025268555, -0.1275852769613266, -0.06218873709440231, 0.19916659593582153, 0.1708313524723053, 0.2740330100059509, -0.08396856486797333, -0.16089800000190735, -0.165742427110672, -0.035450007766485214, -0.028444455936551094, -0.19117240607738495, 0.04938588663935661, 0.052154939621686935, -0.3751388192176819], [0.10611176490783691, -0.03494304418563843, 0.12968352437019348, 0.10069187730550766, -0.18038716912269592, 0.10320325195789337, -0.011057604104280472, -0.10605236887931824, 0.09807343780994415, 0.0860096663236618, -0.1591947078704834, 0.058284562081098557, -0.12485791742801666, 0.053820863366127014, 0.12705953419208527, -0.20539036393165588, 0.14809353649616241, 0.23506328463554382, 0.15622806549072266, 0.29199206829071045, -0.025370202958583832, 0.18012003600597382, -0.09985589236021042, 0.19268694519996643, -0.12755875289440155, 0.07823102176189423, -0.19444170594215393, 0.13708144426345825, -0.13227930665016174, -0.06894738227128983, 0.14491136372089386, 0.3038959801197052], [-0.1924363523721695, -0.024168847128748894, -0.2607615888118744, -0.12345542758703232, 0.012207533232867718, -0.019743284210562706, 0.20570668578147888, -0.09090165793895721, -0.02523442544043064, -0.1276763528585434, 0.04270154982805252, -0.17850540578365326, 0.007796694058924913, 0.12671470642089844, -0.06685172766447067, -0.005539559759199619, 0.08335918188095093, 0.3655783236026764, -0.019545627757906914, 0.09028835594654083, 0.19244296848773956, 0.04233574867248535, 0.2368212193250656, -0.09431154280900955, -0.23591811954975128, -0.18148957192897797, 0.34953346848487854, 0.1273476779460907, -0.20773911476135254, 0.22587959468364716, 0.04609750211238861, -0.24610097706317902], [-0.4364253878593445, -0.054319050163030624, 0.17550481855869293, 0.0511038601398468, -0.06145020201802254, -0.575395941734314, 0.12872299551963806, -0.24519678950309753, 0.07861503213644028, 0.11894954741001129, 0.11847683787345886, 0.24135278165340424, 0.022323431447148323, 0.08900117129087448, 0.5336695313453674, -0.32583755254745483, 0.32633593678474426, 0.17436149716377258, -0.012701945379376411, -0.008070559240877628, -0.3070574700832367, 0.10320029407739639, 0.13121958076953888, 0.06864963471889496, -0.1505100280046463, -0.252169132232666, -0.17771883308887482, -0.3854299783706665, -0.08926578611135483, -0.0778752788901329, 0.021112678572535515, -0.03983026742935181], [-0.14793351292610168, -0.09678509831428528, 0.05673396959900856, 0.09149423241615295, -0.1073877215385437, -0.011264754459261894, -0.08556418865919113, -0.11500953137874603, -0.03486288711428642, 0.1659361869096756, -0.01575074903666973, -0.05223234370350838, 0.09641344100236893, 0.12271663546562195, 0.14752697944641113, -0.03352310135960579, -0.03391589969396591, -0.08836404979228973, -0.2186303734779358, 0.2242133766412735, 0.1807442009449005, 0.1509905308485031, -0.15673774480819702, 0.15563355386257172, -0.08786634355783463, -0.07797835767269135, -0.023515677079558372, 0.026776069775223732, -0.1837012618780136, -0.13190452754497528, 0.06313446164131165, 0.06564923375844955], [0.3044094741344452, 0.03240613639354706, -0.02080848626792431, -0.20147542655467987, 0.01041981391608715, 0.13477723300457, 0.16824132204055786, -0.10647907108068466, 0.08471839129924774, -0.11356481909751892, 0.04573991522192955, 0.16578800976276398, -0.14345985651016235, 0.01819872297346592, 0.08386247605085373, 0.08755944669246674, -0.19986620545387268, -0.10062684118747711, 0.10601280629634857, -0.012582088820636272, -0.2830103933811188, -0.011391819454729557, -0.07495108991861343, -0.4001270830631256, 0.17325539886951447, -0.0899721160531044, -0.0019267175812274218, -0.01919073425233364, 0.07798060029745102, 0.21786577999591827, -0.06405145674943924, 0.2897334396839142], [-0.052958894520998, -0.16253791749477386, -0.1680341213941574, -0.12967349588871002, 0.16324031352996826, -0.20787537097930908, 0.2490214705467224, -0.15292173624038696, 0.08823021501302719, -0.046990275382995605, -0.06703410297632217, 0.004003365058451891, -0.15466132760047913, -0.12030548602342606, 0.008353888057172298, -0.29845258593559265, 0.35367661714553833, 0.08631349354982376, 0.0870312973856926, -0.14375729858875275, 0.1750105321407318, 0.07382339984178543, 0.16230769455432892, -0.23471438884735107, -0.013454371131956577, -0.1251409649848938, -0.16332855820655823, -0.006564262323081493, 0.058405280113220215, -0.0018647453980520368, -0.1417762190103531, -0.10701877623796463], [-0.7625678181648254, -0.5628708600997925, -0.5997664928436279, 0.3941623568534851, -0.2892531454563141, 0.5304887890815735, 0.0956530049443245, -0.12911689281463623, 0.14244800806045532, 0.08648600429296494, 1.3544728755950928, 0.2173529714345932, -0.3999049961566925, -0.0944724753499031, 0.776307225227356, -0.22175011038780212, 0.314877986907959, 0.30456212162971497, 0.3191935420036316, -0.4585064947605133, 0.2288358360528946, -0.29386451840400696, 0.584746241569519, -0.4742887020111084, -0.2755088210105896, 0.15372487902641296, -0.6425460577011108, -0.2980313003063202, 0.04259785637259483, -0.7241824865341187, 0.121732696890831, 0.39802658557891846], [0.07656839489936829, -0.013079223223030567, -0.025368034839630127, -0.007858962751924992, 0.03127824142575264, 0.2367340326309204, -0.1568148285150528, -0.12902140617370605, 0.1376895308494568, 0.06282515823841095, -0.1973196119070053, 0.08530955016613007, 0.1305188536643982, 0.19739273190498352, -0.009936200454831123, -0.06708736717700958, -0.006555553991347551, 0.239713653922081, -0.06528851389884949, 0.35219424962997437, 0.324940949678421, 0.04839576780796051, 0.27770113945007324, 0.07058613747358322, -0.2081076055765152, 0.05682005733251572, 0.011937165632843971, 0.09294750541448593, -0.10322992503643036, -0.009870394133031368, 0.10372059047222137, -0.5127624273300171], [-0.07032186537981033, 0.6116350889205933, 0.14773774147033691, 0.06756599992513657, -0.03972994163632393, 0.4404331147670746, -0.3188613951206207, 0.3442429304122925, 0.06697122752666473, 0.14248394966125488, -0.25600874423980713, -0.1261623501777649, 0.5976108908653259, -0.010005124844610691, -0.45046913623809814, 0.1403535157442093, -0.19833947718143463, -0.5898206830024719, 0.029903369024395943, 0.12473956495523453, 0.7948328256607056, 0.09515668451786041, 0.1834595501422882, 0.024566879495978355, -0.06876594573259354, -0.01299290917813778, 0.4665003716945648, 0.20893017947673798, -0.20351926982402802, 0.22905835509300232, 0.08276204764842987, -0.6029527187347412], [-0.3576822280883789, -0.5364190936088562, -0.0839294046163559, -0.08994263410568237, 0.07152636349201202, -0.020161136984825134, 0.4693962335586548, 0.027312956750392914, 0.20300261676311493, 0.14218248426914215, 0.5986231565475464, -0.045655734837055206, -0.30907121300697327, 0.0036437767557799816, 0.16334417462348938, -0.367093950510025, 0.4803111255168915, 0.3116568326950073, 0.43236079812049866, -0.23072904348373413, -0.4909728765487671, 0.08604217320680618, -0.1032317578792572, -0.11803112179040909, -0.40506646037101746, -0.3195129632949829, 0.15270264446735382, -0.8414871096611023, -0.0069157131947577, -0.21116872131824493, 0.6076883673667908, -0.40758979320526123], [-0.09823586791753769, -0.03472619131207466, 0.07408644258975983, 0.09211619943380356, 0.06112770736217499, 0.203663170337677, 0.10740102082490921, -0.11910587549209595, 0.1212722584605217, -0.060509759932756424, 0.06469768285751343, 0.06829454004764557, -0.07611371576786041, 0.18532972037792206, 0.009139207191765308, -0.13020676374435425, 0.005033506546169519, 0.039186742156744, 0.11299562454223633, 0.04991888999938965, 0.11365500837564468, 0.28742706775665283, 0.03488418832421303, 0.0870472863316536, -0.21664896607398987, -0.04301510006189346, -0.07097452133893967, -0.04489731416106224, 0.1981809139251709, 0.16808556020259857, -0.12802430987358093, -0.18921396136283875], [-0.22638386487960815, 0.042021557688713074, 0.05354024097323418, 0.5007333755493164, 0.04097447916865349, 0.18084482848644257, 0.1787729561328888, -0.00804503820836544, 0.2547065019607544, -0.07167685031890869, 0.18391184508800507, 0.0622442327439785, 0.1012357845902443, 0.12845119833946228, -0.0020164642482995987, -0.13704480230808258, 0.25254613161087036, 0.0934855043888092, 0.16788631677627563, -0.005839435383677483, 0.08863139152526855, 0.06181049346923828, 0.4163362383842468, 0.005577310919761658, -0.5306057929992676, -0.08525470644235611, -0.22600612044334412, -0.06838614493608475, -0.3101367652416229, -0.05735499784350395, 0.30401113629341125, -0.3088762164115906], [-0.11213454604148865, -0.045113541185855865, 0.028498783707618713, 0.13719573616981506, -0.024497687816619873, 0.09498559683561325, 0.43265387415885925, 0.09430962800979614, 0.15910430252552032, 0.2310514748096466, 0.6259121298789978, 0.31292369961738586, -0.21265579760074615, -0.21206995844841003, 0.29800140857696533, -0.3337298333644867, 0.19900093972682953, 0.2651037275791168, 0.2511022686958313, -0.246050626039505, -0.22816705703735352, -0.0488312691450119, 0.19907596707344055, -0.135383740067482, -0.3390031158924103, -0.399998277425766, -0.1909571886062622, -0.5802570581436157, -0.15891532599925995, -0.5757204294204712, 0.5287676453590393, -0.24126344919204712], [0.0526684895157814, -0.17660163342952728, 0.08793419599533081, 0.19329828023910522, -0.05806112661957741, 0.09589190036058426, 0.20546181499958038, -0.08629931509494781, 0.27752232551574707, 0.1530865579843521, 0.2701612710952759, 0.09891314804553986, -0.1017177402973175, -0.03907948359847069, -0.016918281093239784, -0.04275332763791084, 0.20110683143138885, -0.11588345468044281, 0.31983333826065063, -0.12861797213554382, 0.05832746624946594, 0.004790596663951874, 0.06657751649618149, -0.03595130145549774, -0.28024551272392273, -0.3096671998500824, -0.016546225175261497, -0.09863641113042831, -0.24226632714271545, -0.09223534911870956, 0.41738027334213257, -0.21778346598148346], [0.0707828626036644, 0.2036057561635971, -0.1717039793729782, 0.007943418808281422, -0.020333588123321533, 0.12624099850654602, -0.23585370182991028, 0.09117011725902557, 0.07843715697526932, -0.26676130294799805, 0.2236160784959793, 0.07245924323797226, 0.22542837262153625, 0.021000277251005173, 0.011108644306659698, 0.5104380249977112, -0.05780351907014847, -0.5621783137321472, -0.16459958255290985, -0.08763527870178223, 0.12655600905418396, -0.6839455366134644, 0.4802904725074768, -0.35116392374038696, -0.08278442174196243, -0.07406799495220184, -0.09066309779882431, -0.42329421639442444, 0.11240117251873016, -0.1423310786485672, 0.42637205123901367, 0.03251582011580467], [0.10945214331150055, -0.060388240963220596, -0.10830330103635788, -0.03662348911166191, -0.17011046409606934, -0.07307378947734833, 0.02027805522084236, 0.010989170521497726, 0.26220276951789856, -0.1472594141960144, -0.04806433245539665, 0.19279013574123383, -0.11186651140451431, -0.007447557058185339, 0.14784210920333862, -0.1430833786725998, 0.06616759300231934, 0.32183027267456055, 0.0031264706049114466, -0.0035975202918052673, 0.10943291336297989, 0.18424540758132935, 0.394202321767807, -0.2250296026468277, -0.2255893051624298, -0.3087555170059204, -0.12287294119596481, 0.029466086998581886, -0.1873098611831665, -0.06133162975311279, 0.23511336743831635, 0.03859997168183327], [-0.15628725290298462, 0.14166317880153656, -0.25626885890960693, 0.09365535527467728, -0.11944513767957687, 0.22080938518047333, 0.1950981318950653, -0.003065908094868064, 0.2054232656955719, -0.022102106362581253, -0.028023121878504753, -0.1889859437942505, 0.2373664528131485, 0.08700326085090637, -0.053969014436006546, -0.011497663334012032, 0.2354564368724823, -0.03328961133956909, 0.11611711978912354, 0.13797596096992493, 0.39366140961647034, 0.004291555378586054, 0.33701246976852417, 0.010963065549731255, -0.19483593106269836, -0.1682237684726715, -0.008973648771643639, 0.05735207721590996, -0.035155538469552994, 0.14027908444404602, -0.004403240513056517, -0.6498956680297852], [-0.09191792458295822, -0.02688100002706051, -0.14881594479084015, -0.0019578791689127684, 0.16350136697292328, -0.05635163187980652, 0.08599114418029785, -0.10384287685155869, -0.14385874569416046, -0.274840384721756, 0.20875659584999084, 0.03884856775403023, -0.02637072093784809, 0.22229909896850586, -0.1985628753900528, -0.14740797877311707, -0.00775896105915308, 0.11616821587085724, -0.17206010222434998, 0.15814854204654694, 0.11728176474571228, -0.02400140091776848, 0.16562065482139587, 0.13967764377593994, -0.1183834969997406, 0.07293106615543365, -0.22653865814208984, -0.3122764825820923, 0.14751335978507996, -0.3019290268421173, -0.06446661800146103, 0.1354248821735382], [-0.14714983105659485, -0.22402630746364594, -0.18253515660762787, 0.08185110241174698, -0.08778862655162811, -0.015516218729317188, 0.24691517651081085, -0.0970580130815506, 0.19749568402767181, 0.13941149413585663, -0.14918355643749237, 0.03883631154894829, 0.12299837172031403, 0.14852836728096008, 0.1272791624069214, -0.04567859321832657, 0.10688570886850357, 0.17676185071468353, 0.07456212490797043, -0.0921994149684906, -0.143974170088768, 0.05896429345011711, 0.3213973641395569, -0.10388852655887604, -0.28489404916763306, 0.10390979796648026, 0.060473017394542694, -0.025305986404418945, -0.2138548344373703, 0.030220502987504005, -0.1427801251411438, -0.20762953162193298], [-0.3335539400577545, 0.18893539905548096, -0.023980412632226944, 0.1793372929096222, -0.06601350754499435, -0.06294871866703033, 0.44477328658103943, 0.029624054208397865, 0.08905761688947678, 0.10855553299188614, -0.02847043238580227, 0.1550058126449585, 0.21469473838806152, 0.08835968375205994, 0.09743819385766983, -0.48015296459198, 0.42024126648902893, 0.39836570620536804, 0.35822150111198425, -0.022703275084495544, -0.2719680070877075, 0.2714095413684845, 0.007335694041103125, 0.6177220344543457, -0.49536383152008057, -0.2896496057510376, 0.13034175336360931, 0.08286746591329575, -0.3630978465080261, -0.36635562777519226, 0.12056368589401245, -0.2385500818490982], [0.22410832345485687, -0.0737050250172615, -0.35005924105644226, -0.20075808465480804, 0.014306167140603065, 0.03751412779092789, 0.08369851112365723, 0.007260877173393965, -0.10478603094816208, -0.12261075526475906, 0.5443732142448425, -0.08854297548532486, -0.27266791462898254, 0.08380631357431412, -0.059111837297677994, -0.02013062871992588, -0.042229048907756805, -0.6133675575256348, 0.17431333661079407, -0.32132598757743835, 0.05622214451432228, -0.2169785052537918, 0.2575221359729767, -0.47427862882614136, -0.12862829864025116, 0.14012573659420013, 0.10906283557415009, -0.25343993306159973, -0.1082732304930687, -0.21302229166030884, 0.30532753467559814, -0.1841021180152893], [0.09735102206468582, 0.21709522604942322, -0.12465912848711014, -0.146775484085083, -0.02815767005085945, 0.020886437967419624, 0.11897386610507965, 0.2117147445678711, -0.038079146295785904, 0.12056133896112442, -0.08668956905603409, 0.14299185574054718, -0.32108157873153687, -0.07218216359615326, -0.022476762533187866, -0.05241243913769722, -0.016828350722789764, 0.03596137464046478, 0.23754969239234924, -0.031153235584497452, 0.1795259714126587, 0.08466264605522156, 0.2656722962856293, -0.05135851353406906, -0.21022877097129822, -0.2789606750011444, -0.007140220608562231, -0.03058469295501709, -0.1800430566072464, -0.11454861611127853, 0.028035681694746017, -0.08591577410697937], [-0.03109249658882618, -0.17957893013954163, 0.06737623363733292, -0.1392652541399002, -0.06909944862127304, 0.1183381900191307, 0.18335558474063873, 0.18578271567821503, 0.183720663189888, -0.18688035011291504, 0.09279458224773407, -0.10544861108064651, 0.08107317239046097, 0.0729563757777214, 0.016705213114619255, -0.008277864195406437, 0.22850462794303894, 0.05733158811926842, 0.10610805451869965, -0.11093753576278687, 0.08759459108114243, 0.10584809631109238, 0.25550326704978943, -0.18598327040672302, -0.23144997656345367, -0.2165796011686325, -0.048691973090171814, 0.0020076571963727474, -0.046868789941072464, 0.18252816796302795, -0.06257287412881851, 0.04337812587618828], [-0.4802950620651245, -0.2508919835090637, -0.5936399698257446, 0.17131756246089935, -0.11236926168203354, 0.6386817097663879, -0.2796919345855713, -0.14786092936992645, 0.21200112998485565, 0.10054443031549454, 0.3795941472053528, -0.26847004890441895, 0.47087016701698303, 0.16772975027561188, -0.3161155879497528, 0.1879640817642212, -0.5248979926109314, -0.5298260450363159, -0.05348609387874603, -0.22460594773292542, 0.45912379026412964, -0.48593655228614807, 0.18578003346920013, -0.4538792371749878, -0.48240602016448975, 0.1311894804239273, 0.2597081661224365, -0.5579326152801514, 0.09626191109418869, -0.1368381232023239, 0.09383486211299896, -0.021167321130633354]], "lstm.bias_ih_l0": [-0.01956282928586006, -0.07350718230009079, 0.1616371124982834, 0.012523899786174297, 0.08673736453056335, 0.10109684616327286, 0.06933951377868652, -0.11930374056100845, -0.002811879152432084, 0.1578146070241928, -0.02974124252796173, -0.05465496703982353, 0.03143886476755142, 0.029475998133420944, 0.38148924708366394, 0.032502431422472, 0.0727919414639473, 0.08681046217679977, 0.05115051567554474, 0.3582684099674225, 0.2659783661365509, 0.0929563120007515, -0.17339561879634857, 0.009750857017934322, 0.13059744238853455, 0.2456033080816269, 0.015292542055249214, 0.09374218434095383, 0.05980696156620979, 0.18969781696796417, 0.07278037071228027, -0.005722920410335064, -0.09281959384679794, 0.0718613788485527, -0.002720859833061695, 0.02767419070005417, 0.05679323524236679, 0.04540032893419266, 0.18401387333869934, -0.06486830115318298, 0.17674115300178528, -0.02264256961643696, 0.15095748007297516, 0.052743323147296906, 0.10924167186021805, 0.028258025646209717, 0.21670067310333252, 0.06045284494757652, -0.14334377646446228, 0.052640438079833984, -0.10344810783863068, 0.021524986252188683, 0.28206801414489746, 0.07637594640254974, 0.27627742290496826, -0.004680108278989792, 0.21268101036548615, -0.03454720601439476, -0.07922134548425674, 0.08413989096879959, 0.10333240032196045, -0.041311945766210556, 0.1592177152633667, 0.06449992954730988, 0.04124314337968826, 0.13063876330852509, 0.09959433972835541, 0.15744374692440033, 0.06335494667291641, 0.015900351107120514, 0.1405564546585083, 0.10047386586666107, 0.085595041513443, -0.10861387103796005, -0.08109107613563538, 0.07693145424127579, -0.005433263257145882, 0.028235219419002533, 0.1903344988822937, -0.12479991465806961, -0.010115962475538254, 0.020213112235069275, 0.18357861042022705, 0.02237001620233059, 0.06331156194210052, 0.14032980799674988, 0.09247159212827682, -0.14379656314849854, -0.11694732308387756, -0.01107021514326334, -0.12900441884994507, 0.043943699449300766, -0.05396424978971481, 0.1043379008769989, -0.03816624730825424, 0.15022942423820496, 0.07929180562496185, 0.22657503187656403, -0.06888145953416824, 0.2079058140516281, 0.2284056395292282, 0.26097404956817627, 0.17399926483631134, 0.034233130514621735, -0.04860012233257294, -0.09787081927061081, -0.017626235261559486, -0.031077196821570396, -0.15669171512126923, -0.11590955406427383, 0.31369099020957947, 0.15895496308803558, 0.230124369263649, 0.061913859099149704, 0.061475154012441635, 0.019177747890353203, 0.1469748318195343, 0.053353410214185715, 0.16966408491134644, -0.039064135402441025, -0.1034320741891861, 0.06626977771520615, 0.0751926526427269, 0.09534195810556412, 0.11872527003288269, -0.008508690632879734, 0.21911242604255676, 0.17597919702529907], "lstm.bias_hh_l0": [0.04501434415578842, 0.07284614443778992, 0.20664340257644653, 0.20966391265392303, -0.0530908927321434, 0.06300701200962067, 0.036685384809970856, 0.15822631120681763, 0.10143939405679703, -0.15808966755867004, 0.20573557913303375, 0.12490491569042206, 0.039492201060056686, -0.04695799946784973, 0.3901386260986328, 0.22856110334396362, 0.23565705120563507, 0.07783250510692596, 0.14426617324352264, 0.07650253921747208, 0.2074802666902542, -0.021980971097946167, -0.2365550994873047, 0.03563742712140083, -0.03605761379003525, 0.08344677090644836, 0.14367352426052094, 0.17580431699752808, -0.09584522247314453, 0.039742063730955124, 0.162745401263237, 0.13056081533432007, -0.0447959341108799, 0.21846957504749298, 0.12162529677152634, 0.09981399029493332, -0.022292543202638626, 0.1062687560915947, 0.10009323060512543, -0.05005862936377525, 0.12424565851688385, 0.16135762631893158, -0.020489145070314407, 0.0663541704416275, 0.11952085793018341, 0.08252306282520294, 0.14059016108512878, 0.14947448670864105, 0.20154933631420135, 