{"lstm.weight_ih_l0": [[0.07780569046735764, 0.045729365199804306, 0.008866631425917149], [0.14377830922603607, -0.1039888933300972, -0.1683894842863083], [0.26336508989334106, -0.0623595155775547, 0.11403734236955643], [0.08432133495807648, -0.04766823351383209, 0.09354177117347717], [0.18200545012950897, -0.17921987175941467, 0.26938673853874207], [0.000977795571088791, -0.06793343275785446, 0.19485192000865936], [-0.001706536510027945, -0.13267365097999573, -0.09423720836639404], [0.008413302712142467, 0.05622538924217224, -0.14203587174415588], [-0.044601522386074066, -0.07582727074623108, -0.04273500666022301], [0.011624551378190517, -0.09080873429775238, 0.06219220533967018], [0.2968400716781616, -0.110353022813797, -0.030828041955828667], [-0.020829595625400543, -0.07537366449832916, 0.013867811299860477], [0.3268672227859497, -0.21767188608646393, 0.22998405992984772], [0.17824509739875793, 0.041350506246089935, -0.12968704104423523], [-0.04938711225986481, -0.2576678991317749, 0.2145431935787201], [-0.06141837686300278, 0.00878057163208723, 0.0898858979344368], [0.04077640548348427, -0.04508237540721893, 0.12385406345129013], [0.2344275414943695, 0.0019519703928381205, 0.023554246872663498], [-0.0064686560072004795, -0.08034652471542358, -0.0569392666220665], [0.038103844970464706, 0.06003618985414505, -0.008983674459159374], [-0.23162032663822174, -0.0856824517250061, -0.03886877000331879], [-0.1618025302886963, -0.098904550075531, 0.0867302194237709], [-0.09548576921224594, 0.03277678042650223, 0.054191477596759796], [0.06915731728076935, -0.18298901617527008, 0.07846274971961975], [0.2933764159679413, -0.013758178800344467, -0.057559676468372345], [-0.11136175692081451, -0.07463568449020386, -0.0196483563631773], [-0.010752879083156586, 0.0746937170624733, 0.09233146160840988], [-0.21649710834026337, -0.0812845379114151, -0.03451644256711006], [0.12468243390321732, -0.06584158539772034, 0.10719200223684311], [0.12667222321033478, -0.11446694284677505, 0.2174590677022934], [-0.027050839737057686, 0.01627434976398945, 0.11169940233230591], [-0.2360592633485794, -0.009513553231954575, 0.11084580421447754], [-0.15240275859832764, -0.21473272144794464, 0.38184189796447754], [-0.07560048252344131, -0.11755713820457458, 0.04267946630716324], [-0.27538758516311646, -0.08071961998939514, 0.04776732996106148], [-0.11791708320379257, 0.1281815469264984, 0.29162800312042236], [0.16882257163524628, -0.04094228520989418, 0.04360948130488396], [0.21062737703323364, -0.015775548294186592, -0.03280562907457352], [-0.046653226017951965, -0.03972462937235832, -0.07072174549102783], [-0.1374429613351822, 0.005392716731876135, 0.09197701513767242], [0.02249913662672043, -0.11036576330661774, -0.02828645147383213], [0.05372275784611702, -0.1520761102437973, 0.03704235702753067], [-0.30945444107055664, -0.09597747772932053, 0.05609830468893051], [0.22218731045722961, -0.06021483615040779, 0.11536618322134018], [-0.026583051308989525, -0.07577437907457352, 0.08271179348230362], [-0.10841874778270721, -0.1740032136440277, 0.2075655311346054], [-0.026679424569010735, 0.016724254935979843, -0.011679861694574356], [0.16100627183914185, 0.08353646099567413, 0.12302645295858383], [-0.05354299023747444, -0.09999819099903107, 0.00028374677640385926], [-0.015079631470143795, 0.07566570490598679, 0.18194417655467987], [-0.0916317030787468, -0.11560699343681335, -0.08563560992479324], [-0.03788703680038452, -0.20326651632785797, 0.05461103469133377], [0.04847931116819382, 0.038148581981658936, -0.060518696904182434], [-0.06972633302211761, -0.033500101417303085, 0.04694268852472305], [-0.017883485183119774, -0.06758881360292435, -0.05685723200440407], [-0.10519173741340637, -0.21820612251758575, 0.11529891192913055], [-0.20180141925811768, -0.037950921803712845, 0.2925754189491272], [0.11845240741968155, 0.00045199503074400127, 0.21108780801296234], [0.12347366660833359, 0.024292675778269768, -0.0708862692117691], [0.06591407209634781, -0.10316154360771179, 0.1293521523475647], [0.3590288758277893, 0.07796506583690643, 0.03648274019360542], [-0.00870550237596035, 0.020728779956698418, 0.014744076877832413], [0.037415191531181335, -0.09252974390983582, 0.2291240245103836], [-0.061868250370025635, -0.05766119435429573, 0.05902772396802902], [0.04909719154238701, -0.23328587412834167, 0.2581343352794647], [0.40645286440849304, -0.07430344820022583, 0.055110134184360504], [0.07850990444421768, 0.06727597862482071, 0.11036170274019241], [0.15853174030780792, -0.21856102347373962, 0.30027472972869873], [-0.12260937690734863, -0.05658005177974701, -0.0037507321685552597], [0.2928194999694824, -0.3704995810985565, 0.28606370091438293], [0.14945605397224426, -0.11120873689651489, -0.03338699787855148], [-0.27947884798049927, -0.11625497043132782, 0.15925580263137817], [0.11575733870267868, 0.04879511520266533, 0.12256868183612823], [-0.1179138720035553, -0.09851806610822678, -0.09677881002426147], [-0.06179530546069145, -0.15139001607894897, -0.052735503762960434], [-0.17738591134548187, 0.0028020080644637346, 0.26134413480758667], [0.16817864775657654, -0.02493605948984623, 0.1023150309920311], [0.017904918640851974, -0.13129782676696777, 0.038992784917354584], [-0.03257063031196594, -0.12995374202728271, 0.06272726505994797], [0.16818852722644806, -0.20655521750450134, 0.14118896424770355], [0.10141810029745102, 0.007983227260410786, -0.10401610285043716], [-0.16836202144622803, -0.016292866319417953, -0.09657151252031326], [-0.02483285963535309, 0.0012345279101282358, -0.07235278189182281], [-0.00046375475358217955, 0.020638488233089447, -0.05702512338757515], [0.07130162417888641, 0.09956563264131546, 0.10218815505504608], [-0.09876015782356262, -0.22954411804676056, 0.1630907505750656], [0.01006152480840683, -0.09311667084693909, 0.14503313601016998], [-0.021801477298140526, 0.014856415800750256, 0.056772664189338684], [0.011389498598873615, 0.0031343603041023016, 0.12637269496917725], [-0.010753667913377285, -0.09139934182167053, 0.1424126923084259], [0.17378512024879456, 0.0016019188333302736, -0.001413896563462913], [0.12677016854286194, -0.04275624081492424, 0.13994179666042328], [0.20763619244098663, 0.0806497260928154, 0.29643478989601135], [0.10759957134723663, -0.09692983329296112, 0.08836840838193893], [-0.1577199250459671, -0.1326984316110611, -0.03735562041401863], [0.172615185379982, -0.0319325216114521, -0.04009564220905304], [0.09359985589981079, 0.12729865312576294, 0.02917909435927868], [-0.14477220177650452, 0.20204105973243713, 0.03836441412568092], [0.0063415877521038055, 0.064533531665802, -0.05131855607032776], [-0.07102525979280472, 0.16810135543346405, 0.010482113808393478], [0.2794785499572754, 0.10181829333305359, -0.05427822470664978], [-0.12795495986938477, -0.19995155930519104, 0.16838504374027252], [-0.0881463810801506, -0.05253014340996742, -0.16980960965156555], [0.10012476146221161, 0.14491601288318634, -0.008035361766815186], [-0.022379957139492035, -0.05488700419664383, -0.11019746214151382], [0.0305350199341774, -0.02852649614214897, -0.09425109624862671], [0.1747552752494812, 0.045823514461517334, -0.010672543197870255], [0.11504552513360977, -0.06957171857357025, -0.1121492013335228], [0.0011189967626705766, 0.12670232355594635, -0.13292565941810608], [0.17012250423431396, 0.037088487297296524, 0.020203806459903717], [0.22954446077346802, 0.07372666150331497, -0.09906244277954102], [-0.007432754151523113, 0.2818315923213959, -0.12803713977336884], [-0.004734850022941828, 0.11031784862279892, -0.1262223720550537], [0.29644158482551575, 0.18741457164287567, 0.11267009377479553], [-0.10820412635803223, 0.0036587791983038187, 0.022011009976267815], [0.017018606886267662, -0.07566610723733902, 0.038812387734651566], [-0.25863945484161377, -0.009205305017530918, 0.04484603926539421], [-0.44720539450645447, 0.10114041715860367, 0.05597226321697235], [-0.09039093554019928, 0.05662776529788971, -0.09668979048728943], [0.27478617429733276, -0.07883236557245255, 0.0494159571826458], [0.25036728382110596, -0.020891759544610977, -0.011677089147269726], [0.03916313499212265, -0.04616672918200493, 0.06723388284444809], [0.0808827131986618, 0.11231290549039841, -0.062092144042253494], [-0.29022443294525146, -0.02304956316947937, -0.010518024675548077], [0.08770958334207535, 0.01044809352606535, -0.07966034859418869], [0.34859827160835266, 0.05407304689288139, 0.04995131492614746], [0.18383096158504486, 0.08937560766935349, -0.04116247966885567], [-0.5800721645355225, 0.07693403214216232, 0.039679691195487976], [0.057427387684583664, 0.05916899815201759, -0.04911765828728676], [-0.012198560871183872, -0.01539173536002636, -0.11317494511604309], [-0.2805011570453644, 0.12862129509449005, -0.08809413760900497], [-0.12497202306985855, 0.17584781348705292, 0.036487922072410583], [0.1292881816625595, 0.07952478528022766, 0.030087705701589584], [0.3559648394584656, 0.09660366177558899, -0.03512619435787201], [-0.016863679513335228, -0.0026279352605342865, -0.08834464102983475], [-0.06796738505363464, -0.0073545859195292, -0.06064465641975403], [0.10620550811290741, -0.11005011200904846, 0.08784978836774826], [0.10803228616714478, 0.005146825220435858, -0.10591543465852737], [-0.16220049560070038, -0.04717610403895378, 0.10752114653587341], [0.1227126494050026, -0.008213371969759464, 0.07318152487277985], [-0.04899921268224716, -0.046492502093315125, -0.028844695538282394], [0.030936678871512413, -0.04076342284679413, 0.04919219762086868], [-0.19084636867046356, -0.0074745966121554375, 0.01629527658224106], [0.1464325487613678, 0.058066487312316895, 0.08295997977256775], [-0.19488045573234558, 0.04783322662115097, 0.09814947098493576], [0.06732635200023651, -0.08925612270832062, 0.1778595745563507], [-0.05278643220663071, 0.08154388517141342, -0.04744356498122215], [-0.05345078185200691, 0.09237547218799591, 0.1075776144862175], [0.015289048664271832, 0.00822303257882595, -0.10551339387893677], [-0.119078129529953, -0.026720385998487473, -0.009697375819087029], [-0.16655515134334564, -0.023864440619945526, 0.07494565099477768], [-0.0952148362994194, -0.07529576122760773, 0.01590118743479252], [-0.13448838889598846, 0.04703320935368538, 0.1863115280866623], [0.06047550216317177, 0.048537760972976685, 0.1354191154241562], [-0.09534565359354019, 0.0011834516189992428, 0.006733022630214691], [-0.038151681423187256, -0.009079838171601295, 0.0662180483341217], [0.35178354382514954, 0.11449147015810013, -0.020966196432709694], [-0.24807879328727722, 0.1510407030582428, -0.060883935540914536], [0.015477017499506474, 0.20460478961467743, -0.07605569809675217], [0.08565714955329895, -0.011897576041519642, -0.03699122369289398], [0.018665531650185585, 0.299169659614563, -0.0008807317935861647], [0.36019766330718994, 0.19766250252723694, 0.040095005184412], [0.19732660055160522, -0.0064100343734025955, 0.06774337589740753], [0.3182653784751892, 0.574066162109375, -0.36956045031547546], [0.10851864516735077, 0.018503524363040924, -0.035437557846307755], [0.06738036870956421, 0.27785927057266235, 0.0032369305845350027], [0.07058297097682953, 0.10939496755599976, -0.03354361653327942], [-0.32799652218818665, -0.04592416435480118, -0.0019424137426540256], [0.06173557788133621, 0.12524458765983582, 0.11212746798992157], [-0.10325372219085693, -0.09851952642202377, 0.03168361634016037], [-0.12582620978355408, -0.1787036657333374, -0.08013880252838135], [-0.1114502102136612, 0.455471396446228, -0.17693230509757996], [0.0883655771613121, -0.08571680635213852, 0.032905373722314835], [-0.055029187351465225, 0.14304284751415253, -0.06902778893709183], [0.10393477976322174, 0.07381515949964523, 0.06428462266921997], [-0.07617124170064926, -0.06436610966920853, -0.09212474524974823], [0.03356105461716652, 0.014830552972853184, 0.06851803511381149], [-0.05398615077137947, -0.07021518051624298, -0.00341031514108181], [0.05915254354476929, -0.01567889004945755, -0.007178119849413633], [0.026012897491455078, 0.19423499703407288, -0.06925028562545776], [0.37911370396614075, 0.06360070407390594, -0.05104926973581314], [-0.034791987389326096, 0.199430450797081, -0.10667117685079575], [-0.19878165423870087, 0.0006172668654471636, -0.021838504821062088], [-0.07022634893655777, 0.007728911470621824, -0.08861915022134781], [0.11531002074480057, 0.12438184022903442, 0.04433627054095268], [0.06655564904212952, 0.15465444326400757, 0.039798688143491745], [0.04704194515943527, 0.07439917325973511, -0.046179722994565964], [-0.14400315284729004, 0.058820027858018875, 0.010994553565979004], [-0.02908782847225666, 0.19710780680179596, 0.17365986108779907], [0.1248810887336731, 0.11366575211286545, 0.039922960102558136], [-0.20116332173347473, 0.04926413670182228, -0.05751468241214752], [0.20722565054893494, -0.020120445638895035, 0.0384470671415329], [0.10085607320070267, 0.012047022581100464, -0.026753244921565056], [-0.1547480672597885, -0.09470387548208237, -0.02092319168150425], [-0.29298630356788635, -0.0837111696600914, 0.056010130792856216], [0.4674968123435974, 0.01055295579135418, -0.011614547111093998], [0.10716146975755692, 0.08198363333940506, -0.09201904386281967], [-0.14038313925266266, -0.03494291380047798, 0.09165270626544952], [0.060094818472862244, 0.0405438058078289, -0.02490066923201084], [0.012810240499675274, 0.06825000792741776, 0.09022538363933563], [-0.23109550774097443, 0.013273701071739197, 0.05800016596913338], [0.2160375714302063, -0.03816980496048927, -0.0411372035741806], [-0.25940588116645813, -0.00728421239182353, -0.009726610034704208], [0.16509564220905304, 0.023619526997208595, 0.03966711834073067], [0.05048327147960663, 0.08755457401275635, 0.02744317799806595], [-0.19056011736392975, -0.051521044224500656, -0.0269908607006073], [-0.0316036231815815, 0.014211663044989109, 0.04347638413310051], [-0.09128037840127945, 0.006439007353037596, 0.03388889133930206], [-0.33244332671165466, -0.02135576866567135, -0.06754492968320847], [-0.39818331599235535, -0.043032240122556686, -0.062086254358291626], [-0.08588232100009918, -0.015960806980729103, 0.03603625297546387], [-0.08332619816064835, 0.03407268226146698, -0.1189967542886734], [0.25014275312423706, -0.07676900178194046, -0.053649306297302246], [0.03637511655688286, 0.08404127508401871, 0.014977135695517063], [0.03128017112612724, 0.04007825255393982, -0.03396463021636009], [-0.09644731134176254, 0.06348583102226257, -0.13746826350688934], [0.17712798714637756, -0.003692236263304949, -0.045209240168333054], [0.05668233335018158, -0.016267919912934303, -0.054860055446624756], [-0.35153910517692566, -0.042339738458395004, -0.04868752136826515], [-0.20753927528858185, -0.029786713421344757, 0.061148300766944885], [0.2515539526939392, -0.0020576263777911663, -0.010560168884694576], [-0.4859157204627991, 0.011417697183787823, -0.05274118483066559], [-0.10093197971582413, 0.08855535835027695, -0.11562459915876389], [-0.2247733175754547, -0.02420833893120289, 0.13832968473434448], [-0.03784974664449692, 0.1349462866783142, -0.0432378351688385], [-0.18362174928188324, 0.04211697354912758, 0.004624626133590937], [-0.4008427560329437, 0.04248591884970665, 0.025754181668162346], [-0.1914077252149582, 0.108249731361866, -0.1656206250190735], [0.025611087679862976, 0.03390086814761162, -0.060599733144044876], [-0.2682029902935028, 0.041285816580057144, -0.08386420458555222], [0.3203725218772888, -0.04496319964528084, -0.048018623143434525], [-0.006806550081819296, 0.005270474590361118, 0.02765396423637867], [-0.06774495542049408, 0.038752831518650055, -0.07140878587961197], [-0.01598070003092289, 0.04018642380833626, 0.022165197879076004], [0.0820997953414917, -0.040655553340911865, 0.09196557849645615], [-0.2995254099369049, 0.04243263602256775, 0.034086570143699646], [0.20970411598682404, -0.047454092651605606, 0.0022736459504812956], [-0.031918965280056, 0.0011807458940893412, -0.10384999215602875], [0.23054392635822296, 0.01584242843091488, 0.06843914091587067], [0.12038912624120712, 0.08129721134901047, -0.1300818920135498], [-0.06374845653772354, -0.047880932688713074, 0.06893616169691086], [0.1098453551530838, -0.028842519968748093, 0.13712500035762787], [-0.10317476093769073, -0.04090113937854767, 0.08319666981697083], [-0.016208678483963013, 0.07334782928228378, -0.04035886377096176], [0.17782533168792725, 0.0368480309844017, 0.022588571533560753], [-0.04669303447008133, -0.08561529219150543, 0.0021005403250455856], [0.1286296844482422, -0.02485065534710884, -0.07888111472129822], [0.051039014011621475, 0.039574939757585526, 0.009447726421058178], [-0.05594399943947792, 0.08729056268930435, -0.1931029111146927], [0.28603649139404297, -0.05002789944410324, -0.05815395712852478], [-0.16051310300827026, -0.07626985013484955, 0.09448050707578659], [-0.01330676767975092, -0.015708575025200844, 0.07833898067474365], [-0.27449050545692444, 0.09937191009521484, -0.0048339455388486385], [0.3479384481906891, -0.045092176645994186, -0.08459586650133133], [-0.06403447687625885, 0.09710797667503357, -0.09413117915391922], [0.11798311024904251, -0.03975283354520798, 0.029260806739330292], [-0.009247097186744213, 0.0318865142762661, 0.06558321416378021], [-0.04894879087805748, 0.10824377089738846, -0.0628715455532074], [0.09848279505968094, -0.05989808961749077, -0.05208646506071091], [0.0801234170794487, -0.06467001140117645, -0.00038509335718117654], [-0.0984664037823677, 0.018957696855068207, 0.1274016797542572], [0.09617704153060913, 0.02266230806708336, -0.10748478770256042], [0.10309939831495285, 0.06657315045595169, 0.012609237805008888], [0.1523631364107132, 0.036698389798402786, -0.04507030174136162], [-0.24382781982421875, -0.039395518600940704, 0.09300914406776428], [0.1644507795572281, -0.07032115757465363, -0.07632757723331451], [-0.1779453456401825, -0.07548870146274567, 0.08528262376785278], [0.049517564475536346, -0.029622182250022888, -0.028556764125823975], [0.14073632657527924, -0.09024721384048462, -0.0476839505136013], [0.022682389244437218, 0.10268401354551315, -0.0518406480550766], [-0.2751835882663727, -0.07395345717668533, -0.06889519095420837], [0.02960430085659027, -0.008553912863135338, 0.012378528714179993], [0.011708262376487255, -0.03517783805727959, 0.1323944479227066], [0.15279968082904816, 0.051461901515722275, 0.03502356633543968], [-0.31260988116264343, 0.02652798220515251, -0.07798716425895691], [-0.08672680705785751, 0.06473121792078018, -0.08993358910083771], [-0.14089155197143555, 0.0750042200088501, -0.10879281908273697], [0.13602450489997864, -0.009688664227724075, -0.036736927926540375], [0.23211976885795593, -0.03554781526327133, -0.10039546340703964], [-0.017560049891471863, 0.07622557133436203, -0.054419465363025665], [-0.40743735432624817, -0.05340411514043808, -0.05045247822999954], [-0.05777067691087723, 0.08952876180410385, -0.07027577608823776], [0.2327188104391098, -0.018001947551965714, 0.005454612895846367], [-0.6377321481704712, 0.012826621532440186, 0.05550453066825867], [0.054600540548563004, 0.03897089883685112, -0.2161937654018402], [0.1195778101682663, 0.0030152867548167706, -0.14938321709632874], [-0.06588698923587799, -0.06587079167366028, -0.04914985969662666], [0.2511426508426666, -0.005090187303721905, -0.0676688700914383], [0.058151014149188995, -0.09042751044034958, 0.07742764055728912], [0.02907528355717659, 0.052999451756477356, -0.0598052516579628], [0.005301580298691988, -0.137612983584404, 0.019556114450097084], [-0.2248377799987793, 0.05770266801118851, 0.09775855392217636], [0.15724635124206543, -0.14535242319107056, 0.16015954315662384], [-0.11934453248977661, -0.16932407021522522, 0.11537272483110428], [0.014574378728866577, -0.03754318505525589, -0.14261981844902039], [-0.04810428246855736, -0.08484841883182526, -0.025046929717063904], [-0.11456866562366486, -0.08594247698783875, -0.06780955195426941], [-0.035814233124256134, -0.05739175155758858, 0.12861371040344238], [0.16974490880966187, -0.06269613653421402, 0.09544838964939117], [-0.07633588463068008, 0.006786079611629248, 0.0350908488035202], [0.10979917645454407, -0.11366312205791473, 0.24116651713848114], [0.09105651825666428, -0.08370230346918106, -0.051509492099285126], [-0.08468710631132126, -0.2651163637638092, 0.17571428418159485], [0.16360384225845337, 0.03890511393547058, 0.12530307471752167], [-0.07434774190187454, -0.008712912909686565, 0.04645548015832901], [0.08646957576274872, -0.10004816949367523, 0.08838719874620438], [-0.15456335246562958, 0.027170294895768166, 0.057816032320261], [-0.02924821898341179, 0.020800640806555748, 0.011511427350342274], [-0.11631438881158829, -0.011918280273675919, -0.0675693079829216], [-0.2588818371295929, -0.07305615395307541, 0.14675123989582062], [0.005200919695198536, -0.016548866406083107, -0.04653684049844742], [0.07708840072154999, -0.12587785720825195, 0.11577171832323074], [0.17306658625602722, -0.0588814876973629, 0.07480573654174805], [-0.061522580683231354, -0.014521713368594646, -0.08918879926204681], [0.025680283084511757, -0.09424181282520294, 0.1620115488767624], [-0.2892851233482361, -0.09034615755081177, -0.057776451110839844], [0.2609110474586487, -0.1079791784286499, 0.036524999886751175], [-0.027019845321774483, -0.186789870262146, 0.1986212581396103], [0.0001323122123721987, 0.0892639085650444, 0.013795820064842701], [-0.42698773741722107, -0.06616330146789551, 0.1928819715976715], [0.17947553098201752, -0.12486842274665833, 0.3323017656803131], [-0.08790845423936844, 0.03180034086108208, -0.03543570637702942], [-0.25599128007888794, -0.018694298341870308, -0.07672622054815292], [0.0009608655236661434, 0.009693644940853119, 0.06783748418092728], [0.16467492282390594, 0.05211568623781204, 0.0010216146474704146], [0.23485404253005981, 0.016118815168738365, -0.04985692724585533], [-0.07540935277938843, 0.06343282759189606, -0.04831933602690697], [-0.01831435039639473, -0.041390225291252136, -0.09406981617212296], [0.03657877817749977, -0.06825220584869385, 0.08121659606695175], [-0.13108155131340027, -0.3239894211292267, 0.019219929352402687], [-0.16786803305149078, -0.12092149257659912, -0.031004194170236588], [0.2081509530544281, -0.1939975768327713, 0.1873474270105362], [-0.021534286439418793, -0.0338231697678566, -0.08060353249311447], [0.0018813001224771142, -0.25356897711753845, 0.14254726469516754], [-0.01684022881090641, 0.03507519140839577, 0.07478026300668716], [0.09806983172893524, 0.03761417791247368, 0.10081297904253006], [-0.11433219909667969, -0.03147335723042488, 0.040861085057258606], [-0.025265131145715714, -0.051047638058662415, 0.2967298626899719], [-0.1126982569694519, 0.0485713966190815, -0.07676294445991516], [-0.07214637100696564, -0.1090235561132431, 0.20314058661460876], [-0.0982542634010315, -0.06850427389144897, 0.03084936924278736], [-0.01940932497382164, -0.1740015149116516, -0.08115129917860031], [0.0437384769320488, -0.007234205026179552, 0.028760047629475594], [-0.11024846136569977, -0.24617308378219604, 0.13992421329021454], [-0.032470714300870895, 0.09741239249706268, 0.1406174898147583], [0.043850768357515335, -0.09034397453069687, 0.1893061250448227], [0.026809383183717728, -0.025579050183296204, -0.023387253284454346], [0.13039197027683258, -0.1801716834306717, 0.16066734492778778], [0.2402094155550003, 0.009988990612328053, 0.0140707241371274], [-0.08032602071762085, -0.01209904346615076, 0.018875572830438614], [-0.11296457797288895, -0.03978085145354271, 0.22993096709251404], [-0.12761782109737396, -0.06899458914995193, 0.07545026391744614], [0.031398482620716095, -0.16566047072410583, 0.1766599714756012], [0.23877349495887756, -0.0747298076748848, 0.007142160087823868], [0.1895163208246231, -0.09328899532556534, -0.07953260093927383], [0.17729976773262024, -0.06882655620574951, 0.3370267450809479], [-0.054115552455186844, -0.00021096142882015556, -0.08933769911527634], [0.08750253915786743, -0.36256143450737, 0.40221473574638367], [0.12327636778354645, 0.03786985203623772, 0.09677309542894363], [-0.20684142410755157, -0.05428211763501167, 0.04287482053041458], [-0.004916495177894831, 0.013425812125205994, 0.18033970892429352], [-0.11235100030899048, -0.11703477054834366, -0.0717928558588028], [-0.02967197820544243, -0.23912368714809418, -0.12895290553569794], [0.007141599431633949, -0.03161818906664848, 0.33263829350471497], [0.008372860960662365, -0.13841965794563293, 0.06626957654953003], [0.07110956311225891, -0.08365317434072495, 0.1434270739555359], [0.030614618211984634, -0.035721175372600555, 0.016050728037953377], [0.1999325007200241, -0.13528917729854584, 0.21706564724445343], [0.1759580671787262, -0.055762022733688354, 0.035632409155368805], [-0.11166111379861832, 0.00789773277938366, -0.06155289709568024], [-0.07330745458602905, -0.044393111020326614, 0.004946477711200714], [-0.11474695056676865, -0.12056504189968109, 0.09150591492652893], [0.049935225397348404, 0.04924498870968819, 0.15577483177185059], [0.049841370433568954, -0.07707145810127258, 0.20826612412929535], [-0.0789935365319252, -0.015003558248281479, 0.23231759667396545], [-0.042194753885269165, -0.05137248709797859, -0.028356876224279404], [0.13555465638637543, -0.027927139773964882, 0.06207174435257912], [0.11806018650531769, -0.10569191724061966, 0.02567370794713497], [0.03211235627532005, 0.011577949859201908, 0.02371968887746334], [0.02911951392889023, -0.08833861351013184, 0.07276789098978043], [0.09882679581642151, 0.024780454114079475, 0.24235203862190247], [0.052117668092250824, 0.023682814091444016, -0.016877315938472748], [-0.054551634937524796, -0.14249859750270844, -0.07209302484989166], [-0.09856443107128143, -0.05345285311341286, 0.016565727069973946]], "lstm.weight_hh_l0": [[0.008752490393817425, 0.21707837283611298, 0.10868799686431885, -0.13674533367156982, -0.15118296444416046, 0.08168799430131912, -0.1563374102115631, -0.10494043678045273, -0.09976141154766083, -0.15510691702365875, 0.08170492202043533, -0.09706950187683105, -0.12734189629554749, -0.031342197209596634, -0.06240858882665634, 0.10934555530548096, 0.06562268733978271, -0.09891587495803833, 0.10856179147958755, 0.0032704556360840797, -0.15218745172023773, -0.1778142750263214, 0.12684132158756256, -0.1278456449508667, -0.005459411069750786, 0.07878770679235458, -0.09476430714130402, 0.23827481269836426, -0.04888736829161644, -0.08304601907730103, -0.20993617177009583, 0.30882054567337036, -0.13632866740226746, 0.06235266476869583, 0.14618517458438873, -0.13384921848773956, -0.11232810467481613, -0.1271979659795761, 0.08229535073041916, 0.04507574066519737, 0.05569205805659294, -0.17285670340061188, 0.08937276899814606, -0.10573582351207733, -0.032876331359148026, -0.014411683194339275, -0.13617576658725739, -0.22383376955986023, 0.1699841320514679, 0.025082644075155258, 0.09751669317483902, -0.17676571011543274, -0.023217540234327316, 0.05135340988636017, -0.04473760724067688, -0.10773160308599472, -0.23110301792621613, -0.15611766278743744, 0.0032613826915621758, -0.008578572422266006, -0.14929163455963135, -0.04968074709177017, -0.17902272939682007, -0.13360469043254852, 0.0393914133310318, -0.09090285003185272, 0.08903545886278152, -0.0008999110432341695, -0.07178858667612076, 0.1510295867919922, 0.024378662928938866, -0.11705178022384644, 0.10805807262659073, -0.07966259121894836, 0.11310574412345886, -0.08958063274621964, 0.04990828037261963, -0.07388614863157272, 0.05436927452683449, -0.02975868061184883, 0.09291055053472519, 0.03477497771382332, -0.20108363032341003, -0.017441459000110626, -0.1641455441713333, 0.11246728897094727, -0.01662033051252365, -0.08341796696186066, -0.10124629735946655, -0.10163143277168274, 0.004439240787178278, -0.01900177262723446, -0.19996286928653717, 0.07829079777002335, 0.11471602320671082, -0.01802210323512554], [0.1221095621585846, 0.15893417596817017, -0.1898879110813141, 0.03655898571014404, 0.0805673748254776, 0.04525125026702881, 0.07869558781385422, -0.213316410779953, -0.11543755978345871, 0.037784505635499954, -0.1080322116613388, 0.04571521282196045, -0.12951061129570007, 0.12173346430063248, 0.13255329430103302, -0.1259722262620926, -0.1604997217655182, -0.1401435285806656, -0.0683121532201767, 0.05762524530291557, 0.028000032529234886, 0.05036905035376549, 0.13718049228191376, 0.07936083525419235, 0.13239264488220215, 0.1014418825507164, -0.15806208550930023, -0.19107180833816528, 0.2417040318250656, -0.9344339966773987, 0.055806826800107956, -0.16441118717193604, -0.057990916073322296, -0.22971884906291962, -0.09988183528184891, 0.08392754197120667, 0.24546608328819275, 0.0006981489132158458, -0.017140118405222893, 0.07181891798973083, 0.08136238902807236, 0.17163419723510742, 0.09314234554767609, -0.31253647804260254, 0.06935782730579376, 0.0900445505976677, 0.2224101424217224, -0.05330835282802582, -0.0663483515381813, -0.11042153090238571, -0.01324266567826271, 0.09072563797235489, -0.1254223883152008, 0.05508693307638168, 0.03482639789581299, 0.11262150853872299, 0.08106692135334015, 0.30893459916114807, 0.0693090409040451, -0.09028175473213196, 0.06673546135425568, 0.009416935965418816, -0.2509895861148834, 0.007530155126005411, 0.039707623422145844, -0.012916495092213154, 0.09016051143407822, 0.27187010645866394, -0.1266414225101471, -0.09304604679346085, 0.002174913417547941, 0.18364392220973969, -0.4394497275352478, -0.0027926070615649223, -0.0824560672044754, -0.32304060459136963, 0.15796500444412231, 0.08235695213079453, -0.09319331496953964, -0.07303125411272049, 0.18893301486968994, 0.07437343895435333, -0.13163039088249207, -0.045491524040699005, 0.015507200732827187, 0.1545594334602356, 0.2801835834980011, 0.1640390157699585, 0.05506253242492676, 0.12170986831188202, 0.09219140559434891, -0.2854432165622711, -0.027960415929555893, 0.17457476258277893, -0.038794223219156265, 0.06515799462795258], [0.09109027683734894, 0.02699313685297966, -0.0696101114153862, 0.0011751705314964056, -0.15707992017269135, 0.041435036808252335, -0.0541989766061306, 0.02981477603316307, -0.0011138231493532658, 0.14932195842266083, -0.023439452052116394, -0.031542107462882996, -0.040062591433525085, -0.034362539649009705, -0.270827978849411, -0.0588054321706295, -0.06581789255142212, -0.06668023020029068, 0.1066511869430542, -0.035215362906455994, 0.0007871366105973721, 0.027503661811351776, 0.04828430712223053, -0.17656609416007996, 0.12919770181179047, -0.02333305962383747, -0.1315118819475174, -0.004935603588819504, 0.07069535553455353, -0.4981350302696228, -0.21793578565120697, -0.015218508429825306, -0.011451576836407185, -0.07626322656869888, 0.01366726215928793, -0.026311766356229782, -0.06808476150035858, -0.1161724179983139, 0.06340561807155609, 0.09419075399637222, -0.016607454046607018, -0.11684247851371765, 0.039145443588495255, -0.2500724792480469, 0.12641364336013794, -0.07844184339046478, 0.022463755682110786, 0.035920388996601105, 0.07460074871778488, 0.006675790995359421, 0.04350058361887932, -0.1002754345536232, -0.10060974955558777, 0.12145954370498657, -0.10356729477643967, -0.04608692601323128, -0.09751395136117935, 0.1570778638124466, -0.0063710445538163185, 0.016907503828406334, -0.23532958328723907, 0.10629969090223312, -0.11041510105133057, 0.04460158571600914, 0.015768850222229958, -0.2823728919029236, 0.11816593259572983, 0.06861789524555206, -0.0742158591747284, 0.08276592195034027, 0.047790639102458954, -0.10400157421827316, -0.04089381545782089, 0.011058351956307888, 0.04831342399120331, -0.2452436238527298, 0.09989255666732788, -0.0705735981464386, 0.01567467674612999, 0.11179196834564209, -0.02972852811217308, -0.1586938351392746, -0.09461299329996109, -0.15471802651882172, -0.2778230905532837, 0.14399512112140656, 0.08186119794845581, -0.01580004394054413, -0.04319505766034126, 0.05095653235912323, -0.0001237270626006648, -0.136221781373024, -0.032423682510852814, 0.10464915633201599, 0.08763781934976578, -0.011832000687718391], [0.015151215717196465, 0.0930553674697876, 0.029131021350622177, 0.026377063244581223, -0.09100469201803207, 0.02217155136168003, -0.02627737820148468, 0.025977224111557007, 0.05323469638824463, 0.00807544682174921, -0.034654222428798676, 0.031591806560754776, -0.10312093049287796, -0.06248147413134575, -0.10212941467761993, 0.00479075638577342, -0.11076337099075317, -0.14922800660133362, -0.11269013583660126, 0.11437327414751053, -0.08251484483480453, -0.21461643278598785, 0.10824136435985565, -0.2632664442062378, 0.15581820905208588, -0.12168969213962555, 0.07803671061992645, -0.012653272598981857, 0.11791206151247025, 0.00223193084821105, -0.16156671941280365, 0.03756343945860863, 0.10440178960561752, 0.05549931526184082, 0.04793019965291023, -0.026105312630534172, -0.01564963348209858, -0.14294052124023438, -0.12113786488771439, 0.12294316291809082, -0.007882460951805115, -0.10185573995113373, 0.18223503232002258, -0.021053584292531013, -0.10942848771810532, -0.12093260139226913, 0.0016538741765543818, 0.08695609867572784, 0.022992564365267754, -0.0039893887005746365, 0.1195412427186966, 0.10876864194869995, 0.08890537172555923, -0.05788106471300125, -0.11009854078292847, -0.15209142863750458, -0.16302166879177094, 0.022226855158805847, -0.07670263946056366, -0.06581728160381317, -0.06904298067092896, 0.06885892152786255, -0.11608308553695679, 0.010153306648135185, -0.03192707896232605, -0.21719589829444885, 0.19420143961906433, 0.11017113924026489, -0.016171112656593323, 0.12811948359012604, 0.0395706482231617, 0.06537994742393494, 0.06045365333557129, -0.054332345724105835, 0.046054061502218246, -0.04054375737905502, 0.029543351382017136, -0.026434116065502167, -0.027433594688773155, 0.14121809601783752, -0.050858285278081894, -0.1239490807056427, -0.045594722032547, -0.1387883424758911, -0.018130291253328323, 0.11599434167146683, -0.03829510137438774, -0.11137175559997559, -0.14465557038784027, -0.08856064081192017, 0.11435062438249588, 0.02984161302447319, -0.02532617747783661, 0.07161486148834229, 0.06377730518579483, 0.07507337629795074], [0.024713020771741867, 0.4210578203201294, 0.25348618626594543, 0.044084250926971436, 0.05427190288901329, -0.2505083978176117, -0.26227009296417236, -0.07512266933917999, 0.12081706523895264, 0.06580722332000732, 0.03362181410193443, 0.019134869799017906, -0.19625036418437958, -0.1763015240430832, -0.6973026990890503, 0.19289246201515198, -0.177968367934227, -0.14120712876319885, 0.002605956979095936, -0.05699492245912552, -0.1262810081243515, -0.3641641139984131, -0.016471633687615395, -0.3392479121685028, 0.18120598793029785, -0.08711747080087662, -0.1650797575712204, 0.04841412231326103, 0.015583191066980362, -0.1127363070845604, -0.364274799823761, 0.07571569830179214, -0.031104395166039467, -0.15877369046211243, 0.09437073022127151, -0.32153257727622986, -0.2273438572883606, -0.1511802077293396, 0.08849182724952698, 0.054652247577905655, -0.17957042157649994, -0.28025686740875244, 0.23687081038951874, -0.2395264208316803, 0.048520080745220184, -0.20346465706825256, -0.11209142208099365, -0.3172253668308258, 0.2444094717502594, 0.09414675086736679, 0.15547747910022736, -0.42801541090011597, -0.12447023391723633, 0.013800247572362423, -0.09441524744033813, -0.2733452022075653, -0.40674835443496704, -0.0538143552839756, 0.2309303730726242, -0.12999437749385834, -0.2615605890750885, -0.1310419887304306, -0.3576986789703369, 0.054858624935150146, -0.060054704546928406, -0.3130822777748108, 0.12857794761657715, 0.0637100413441658, 0.10196319967508316, -0.20632630586624146, -0.09345255047082901, 0.034479036927223206, 0.03888840228319168, -0.1445387601852417, 0.12421254068613052, -0.16016706824302673, -0.025763776153326035, -0.22816097736358643, 0.04943898320198059, 0.32233256101608276, -0.11046701669692993, -0.11666505038738251, -0.12791995704174042, -0.22105252742767334, -0.20326180756092072, 0.21620075404644012, -0.1989552527666092, -0.19436250627040863, -0.0944136306643486, -0.03405064716935158, -0.025113070383667946, -0.20253413915634155, -0.140773743391037, 0.21713338792324066, 0.12576033174991608, 0.11006617546081543], [-0.02672223374247551, 0.1234305277466774, -0.02520589902997017, 0.12477919459342957, -0.015806514769792557, -0.019760029390454292, -0.12127625197172165, -0.017360836267471313, -0.11447874456644058, 0.2402445673942566, -0.19690437614917755, 0.07676844298839569, 0.25758683681488037, -0.21195022761821747, -0.3127713203430176, 0.032849956303834915, -0.1452902853488922, -0.41173943877220154, 0.15790344774723053, -0.19359558820724487, 0.019635826349258423, -0.04059609770774841, -0.022157201543450356, -0.40732696652412415, 0.13358856737613678, -0.12015394866466522, -0.26100265979766846, 0.062471795827150345, 0.3011070787906647, -0.633689820766449, -0.28703561425209045, 0.16658657789230347, -0.07830476760864258, 0.030291995033621788, -0.154524028301239, -0.3293883800506592, -0.11146843433380127, -0.4547767639160156, 0.19087642431259155, 0.17332857847213745, -0.25346481800079346, -0.28580242395401, 0.30325764417648315, -0.39433032274246216, 0.19916196167469025, -0.17272353172302246, 0.11867018789052963, -0.04541509225964546, 0.18925970792770386, 0.17276819050312042, 0.08325733989477158, -0.31450504064559937, 0.1337500363588333, 0.06071976199746132, 0.06300325691699982, -0.2656746506690979, -0.3393423855304718, 0.16498667001724243, -0.00840028002858162, 0.020149847492575645, -0.2619066536426544, 0.07177544385194778, -0.1523772031068802, 0.11259990185499191, 0.14118923246860504, -0.4593726098537445, 0.3546186089515686, -0.03923894837498665, -0.10490167886018753, 0.023128261789679527, 0.18130218982696533, -0.05953501909971237, -0.036097653210163116, 0.06144003942608833, 0.11927404999732971, -0.3340839147567749, 0.1848757565021515, -0.1508719027042389, -0.2603450119495392, -0.04548132047057152, 0.20499452948570251, -0.05165077745914459, -0.2957228720188141, -0.3547891080379486, -0.3133234679698944, 0.2110597789287567, -0.013173920102417469, -0.1876935511827469, -0.298997163772583, -0.14243416488170624, 0.23072731494903564, -0.22078880667686462, -0.20722682774066925, 0.20035307109355927, 0.07309144735336304, 0.11219444870948792], [-0.010163185186684132, -0.15184427797794342, -0.12157930433750153, 0.022813107818365097, 0.044822387397289276, 0.04432212561368942, -0.0643613263964653, 0.031196849420666695, -0.0016808202490210533, 0.2162909358739853, -0.004644795320928097, 0.07541559636592865, -0.10943275690078735, 0.027542399242520332, 0.0328073650598526, -0.09626733511686325, -0.02639733999967575, 0.022000499069690704, -0.04558168351650238, 0.03278281167149544, 0.09927405416965485, -0.004886011593043804, -0.04984639957547188, 0.04021833837032318, -0.043673135340213776, 0.0039465236477553844, -0.0770421251654625, -0.03189750015735626, -0.061095163226127625, 0.0583830326795578, 0.014852884225547314, 0.04497729241847992, 0.1407109647989273, -0.023041455075144768, 0.05725529417395592, -0.05425289645791054, 0.08896054327487946, 0.06538984924554825, 0.0385994054377079, -0.0634705051779747, 0.03724139556288719, 0.04483141005039215, -0.1012100949883461, -0.06329506635665894, 0.10840509831905365, 0.073780357837677, 0.03919076547026634, 0.028911840170621872, 0.048584215342998505, 0.027314443141222, 0.004284167196601629, 0.036211829632520676, -0.022570138797163963, 0.0007155986386351287, 0.11518077552318573, -0.04493007808923721, -0.05988866090774536, 0.07688921689987183, 0.10616862773895264, -0.07633385807275772, -0.07859597355127335, -0.03669148311018944, 0.03714342787861824, -0.06103777140378952, 0.016576388850808144, 0.004241542425006628, -0.07496993988752365, -0.04280765727162361, -0.13138553500175476, 0.13021303713321686, 0.05451825261116028, 0.10945270955562592, 0.034162674099206924, 0.027587128803133965, -0.14357773959636688, 0.11661858856678009, -0.08555877208709717, 0.042018622159957886, -0.07314714044332504, 0.07881684601306915, 0.021665718406438828, 0.0030889310874044895, 0.12370294332504272, -0.060888003557920456, 0.024509673938155174, -0.12204081565141678, 0.07124273478984833, 0.06056508421897888, 0.07422670722007751, -0.0941820964217186, -0.0722283124923706, -0.13721077144145966, -0.059322159737348557, -0.051952511072158813, -0.0481133796274662, -0.04088565707206726], [-0.016124362125992775, 0.014071227051317692, -0.1372486799955368, 0.028724897652864456, 0.10598801076412201, -0.303165078163147, 0.10179893672466278, -0.05450747162103653, -0.11126098036766052, 0.026480702683329582, 0.08258799463510513, -0.07768839597702026, -0.05799052491784096, 0.13723066449165344, -0.18644492328166962, -0.1330624520778656, -0.13096320629119873, 0.15841616690158844, 0.06708280742168427, 0.001498672878369689, 0.06446147710084915, -0.010936356149613857, -0.08782622218132019, 0.12208954989910126, 0.0947132334113121, 0.008482558652758598, -0.06495044380426407, -0.021151654422283173, -0.039444707334041595, -0.0245529618114233, 0.017974156886339188, -0.051351163536310196, 0.16297399997711182, -0.14870190620422363, 0.05185001343488693, 0.003200019244104624, 0.23319111764431, 0.09228299558162689, 0.11685456335544586, 0.07771094143390656, -0.056011416018009186, -0.0176930520683527, 0.08511196821928024, -0.22657665610313416, 0.08857166767120361, 0.022844213992357254, -0.046835433691740036, 0.019055986776947975, -0.023073134943842888, -0.054392147809267044, -0.06821613758802414, -0.1367492526769638, -0.0022745823953300714, 0.02614489383995533, 0.030936511233448982, 0.26167726516723633, 0.04837377741932869, 0.017717814072966576, 0.009720172733068466, 0.05452515929937363, 0.03360794484615326, 0.11332100629806519, -0.09889303147792816, 0.04402864724397659, 0.14131632447242737, 0.06701073050498962, 0.005404088646173477, 0.17140242457389832, -0.0795125961303711, -0.03706904128193855, -0.09698465466499329, -0.09285558760166168, -0.05113861337304115, 0.03364862501621246, -0.14329716563224792, -0.20059551298618317, 0.0936330035328865, 0.016729308292269707, -0.06755837798118591, -0.008688036352396011, -0.0029022698290646076, -0.10653267800807953, 0.015608088113367558, -0.1208280548453331, 0.009927120991051197, 0.2948167026042938, 0.10701188445091248, 0.0809401348233223, 0.09909863024950027, -0.05709845572710037, -0.07051651924848557, -0.0268416628241539, 0.09634336084127426, -0.003271761815994978, -0.006970751564949751, 0.030252184718847275], [0.04729297757148743, 0.06620986759662628, 0.16315963864326477, -0.09319650381803513, -0.020919395610690117, 0.008337823674082756, -0.06891924887895584, -0.018685011193156242, 0.0025986216496676207, -0.048444200307130814, 0.0225527361035347, 0.07178211212158203, -0.05468030273914337, 0.033739302307367325, 0.04537879303097725, -0.04953467845916748, -0.04609060287475586, 0.08828043192625046, 0.030418461188673973, -0.06972629576921463, -0.033563852310180664, -0.011932781897485256, 0.071546770632267, 0.005874978378415108, 0.037021856755018234, -0.06200867146253586, 0.08541206270456314, 0.07914372533559799, 0.0737835168838501, 0.11334788799285889, -0.04280385002493858, 0.02612125128507614, 0.0420171283185482, -0.1254212111234665, 0.05678270012140274, 0.03250932693481445, 0.02856948971748352, -0.06952525675296783, -0.059068720787763596, -0.03573044762015343, 0.0503196083009243, -0.05174844339489937, -0.06543023139238358, 0.06920115649700165, 0.04425596445798874, 0.08459524810314178, 0.023524288088083267, -0.12237870693206787, 0.08083435893058777, 0.0700753852725029, 0.010752788744866848, 0.1257999837398529, -0.12660907208919525, 0.08310315757989883, 0.08397506177425385, 0.10419586300849915, -0.015533489175140858, 0.03337782621383667, 0.10983570665121078, 0.004877446219325066, 0.10909115523099899, -0.11963959783315659, -0.04500112682580948, 0.0207707230001688, 0.1175023689866066, -0.08096062391996384, -0.05457749217748642, -0.0749300941824913, -0.19812306761741638, 0.08137653023004532, -0.06324116140604019, -0.07874758541584015, 0.08754429221153259, -0.05519874766469002, 0.011414734646677971, 0.02770569734275341, 0.08047399669885635, -0.06341157853603363, 0.07033971697092056, 0.052946075797080994, -0.030947862192988396, -0.03129056468605995, -0.07118630409240723, -0.0046453955583274364, -0.035719405859708786, -0.0918852835893631, -0.048308365046978, -0.060638949275016785, -0.04137101024389267, -0.020120617002248764, -0.0874815285205841, 0.07043040543794632, -0.13638775050640106, -0.07145167142152786, 0.14769096672534943, -0.07263694703578949], [0.09423275291919708, 0.16946636140346527, 0.21691477298736572, 0.0016451970441266894, -0.06739576905965805, -0.0808977261185646, -0.040333036333322525, -0.035776250064373016, 0.02455245889723301, 0.04034603014588356, -0.03194889798760414, -0.1150745376944542, -0.27290019392967224, 0.08115007728338242, 0.04517709091305733, -0.06926680356264114, 0.016037601977586746, -0.03928316757082939, 0.14250758290290833, 0.028182880952954292, 0.031519483774900436, -0.13304705917835236, 0.016278864815831184, -0.15230236947536469, 0.11183840781450272, -0.05865694209933281, -0.1147865280508995, 0.0440714955329895, 0.09914327412843704, -0.02010246552526951, -0.13800932466983795, 0.010805201716721058, -0.0809677466750145, 0.037789445370435715, 0.060082342475652695, -0.0377509742975235, 0.015103141777217388, -0.1082407608628273, -0.07386022806167603, -0.03580731526017189, -0.03717832267284393, -0.06093643978238106, 0.21241958439350128, 0.12189160287380219, 0.06393354386091232, -0.01815211959183216, -0.13009990751743317, -0.14538811147212982, 0.1662088930606842, 0.0820840373635292, 0.03701592609286308, 0.05484440177679062, -0.08782064914703369, 0.09265535324811935, 0.046474456787109375, -0.1297767162322998, -0.2307240515947342, -0.034378744661808014, 0.03730131313204765, 0.13100871443748474, -0.1646922379732132, -0.03706790879368782, -0.3019525110721588, -0.03157476335763931, 0.005102716386318207, -0.0507318489253521, 0.048585548996925354, 0.019411137327551842, -0.18764670193195343, 0.15555340051651, -0.04426010325551033, 0.15437519550323486, 0.22672279179096222, 0.05018382519483566, 0.07519177347421646, -0.13442043960094452, 0.030988777056336403, -0.09867090731859207, 0.06044057384133339, 0.28237414360046387, 0.09541065245866776, -0.09338411688804626, -0.09286337345838547, -0.07253673672676086, -0.08713749796152115, -0.02902938425540924, 0.07381738722324371, -0.09718985855579376, -0.06084192544221878, 0.03956962004303932, 0.05073569342494011, 0.06862892955541611, -0.1628803163766861, -0.03595150262117386, 0.11088945716619492, -0.030391857028007507], [-0.03921809047460556, 0.12574060261249542, 0.020282993093132973, 0.09072335064411163, -0.04349422827363014, 0.054444827139377594, 0.04242013767361641, -0.00721373176202178, 0.045590922236442566, -0.007992197759449482, -0.01023449469357729, -0.031184997409582138, -0.12313384562730789, -0.003466931404545903, -0.1513742059469223, 0.08103801310062408, 0.0032596371602267027, 0.03702244162559509, 0.013258811086416245, -0.06620718538761139, 0.060993701219558716, -0.15441304445266724, -0.01659564860165119, -0.13948392868041992, 0.08019194006919861, 0.06145983934402466, -0.10516119748353958, 0.06380952894687653, 0.09454265981912613, 0.015378589741885662, -0.12495910376310349, -0.06199828162789345, 0.043883729726076126, -0.023688904941082, 0.022430425509810448, -0.01988394372165203, -0.14203837513923645, -0.10560856014490128, 0.06419883668422699, 0.08744847774505615, -0.06317437440156937, -0.08981817960739136, 0.1848604679107666, -0.07878715544939041, 0.0919094905257225, 0.03786459192633629, 0.03649543970823288, 0.009787354618310928, 0.1279890537261963, 0.07200675457715988, 0.07541526854038239, -0.04994354024529457, 0.004006003495305777, 0.045263126492500305, -0.041630592197179794, -0.1052471473813057, -0.18537452816963196, 0.09139186143875122, 0.005034268368035555, -0.04305052012205124, -0.11166839301586151, 0.01600554771721363, -0.13504068553447723, 0.11083117127418518, -0.04666080325841904, -0.15882687270641327, 0.019170820713043213, 0.08665254712104797, 0.04029279202222824, 0.0158484298735857, 0.047318100929260254, 0.16124020516872406, 0.02946431003510952, 0.00012434800737537444, -0.021745936945080757, 0.012555104680359364, 0.14914697408676147, -0.10329873859882355, -0.06424394249916077, 0.08742664754390717, -0.0828443169593811, 0.07636597007513046, -0.056621141731739044, -0.1725863814353943, -0.061455536633729935, 0.07685573399066925, 0.11016826331615448, -0.12257908284664154, -0.11904169619083405, -0.17629434168338776, 0.05312333256006241, 0.016778938472270966, -0.06396236270666122, 0.11356319487094879, 0.12123449891805649, 0.054906222969293594], [0.04641515389084816, 0.14664572477340698, 0.15139725804328918, 0.11644469946622849, -0.06532657146453857, -0.11330919712781906, 0.08488855510950089, 0.002112872200086713, -0.008102508261799812, -0.07952582091093063, 0.016471868380904198, 0.024236543104052544, -0.09326653182506561, -0.09349267184734344, -0.11745573580265045, 0.10086566209793091, -0.0036609137896448374, -0.09834927320480347, -0.06464934349060059, 0.009471775032579899, 0.0816970020532608, 0.019953714683651924, 0.00881566945463419, -0.026594888418912888, -0.03460857644677162, -0.007467524614185095, 0.016912125051021576, 0.06345822662115097, -0.04625149816274643, 0.1511206030845642, -0.14519070088863373, -0.04840007424354553, -0.038871221244335175, -0.0475853830575943, -0.10479551553726196, -0.10535983741283417, -0.07912879437208176, -0.07860293239355087, 0.10393090546131134, -0.12864069640636444, 0.08022386580705643, 0.05972878262400627, -0.011928034014999866, 0.0341196246445179, 0.12993454933166504, -0.07544336467981339, -0.12767623364925385, -0.08322002738714218, 0.06433282792568207, -0.038720179349184036, 0.04490841552615166, 0.04976428300142288, 0.040694814175367355, -0.039340220391750336, 0.12233472615480423, -0.1615854650735855, -0.06290841102600098, 0.08776452392339706, -0.08587998896837234, 0.012776765041053295, -0.035478800535202026, 0.08563823997974396, -0.02124742977321148, 0.05853169783949852, -0.06412463635206223, -0.15754194557666779, 0.04906370863318443, -0.0013567248824983835, 0.060229137539863586, 0.002055308548733592, 0.032639242708683014, 0.11194632947444916, 0.16217321157455444, -0.026890601962804794, 0.012129048816859722, 0.13813428580760956, 0.1252996176481247, -0.19420944154262543, -0.10254824906587601, 0.0897601768374443, 0.07287116348743439, 0.15760819613933563, -0.013122303411364555, -0.15741193294525146, -0.06805378198623657, -0.1745385080575943, -0.07213682681322098, -0.10826434195041656, -0.1356162428855896, -0.11961530894041061, -0.017606612294912338, -0.07910221070051193, -0.13063107430934906, 0.025857770815491676, 0.02543354220688343, 0.005992470309138298], [-0.1854671686887741, 0.19861021637916565, 0.35046517848968506, 0.021265631541609764, -0.03791012242436409, -0.05559264123439789, -0.3416503667831421, -0.17305225133895874, -0.050070349127054214, 0.3402225077152252, -0.2876077890396118, -0.005583876743912697, -0.47575950622558594, 0.04897969961166382, 0.33167368173599243, -0.10084063559770584, 0.4729710817337036, -0.1861422210931778, -0.1639280617237091, -0.08151105046272278, -0.1668323576450348, -0.1892232745885849, -0.09577285498380661, -0.3680404722690582, 0.08518359065055847, 0.177994504570961, -0.25714758038520813, 0.4053785502910614, 0.277397096157074, -0.868133544921875, -0.32405123114585876, 0.4417627155780792, -0.31068703532218933, -0.2651093900203705, -0.021705666556954384, -0.47037574648857117, 0.2558021545410156, 0.16392241418361664, 0.3370247185230255, 0.3202301263809204, -0.597068190574646, -0.20298582315444946, 0.31035226583480835, -0.38896867632865906, 0.0704241693019867, 0.11422841250896454, -0.023135697469115257, -0.2714730203151703, 0.2320955991744995, 0.12613435089588165, 0.1518748253583908, -0.08605781942605972, -0.005698384717106819, 0.17589886486530304, -0.10111135989427567, 0.23930972814559937, -0.5703820586204529, 0.14470355212688446, 0.29846134781837463, -0.13151204586029053, -0.45579999685287476, 0.05529738962650299, 0.03532320261001587, -0.11008481681346893, -0.08891206234693527, -0.22494010627269745, 0.14857834577560425, 0.38587912917137146, -0.34781497716903687, 0.5609680414199829, 0.15492570400238037, -0.06172503903508186, -0.11363207548856735, -0.06989073008298874, 0.025276033207774162, -0.8553987145423889, 0.37216275930404663, 0.39055168628692627, 0.25198566913604736, 0.0560036227107048, 0.1512882560491562, -0.3453296720981598, -0.37787479162216187, -0.5754066705703735, -0.3914245367050171, 0.4355560541152954, -0.15723800659179688, -0.11006926000118256, 0.021669361740350723, 0.10706311464309692, -0.13463044166564941, 0.12432591617107391, -0.4074198007583618, 0.39779239892959595, 0.4634370803833008, -0.05191751569509506], [0.019834358245134354, 0.06819633394479752, 0.02759477123618126, -0.04930553585290909, -0.07039062678813934, 0.06920985877513885, 0.08446402847766876, 0.010319055058062077, -0.008519071154296398, -0.03071180358529091, -0.05785984545946121, 0.04678155481815338, -0.17112207412719727, 0.10465044528245926, -0.08148466795682907, -0.04206317290663719, -0.024270597845315933, 0.07338607311248779, 0.09160743653774261, -0.08915823698043823, 0.04656071588397026, -0.13023535907268524, 0.027018317952752113, 0.060841064900159836, -0.040052395313978195, 0.03516039624810219, -0.08939594775438309, -0.049405526369810104, -0.06565017998218536, 0.2018449455499649, -0.070087730884552, -0.023086998611688614, 0.059844836592674255, 0.06774160265922546, -0.05724964663386345, 0.0727136880159378, 0.1260073333978653, 0.05371681600809097, 0.024530312046408653, 0.022409401834011078, 0.09019407629966736, -0.026354394853115082, 0.04042568802833557, 0.07743225246667862, -0.06139214709401131, 0.049811411648988724, -0.1385713815689087, 0.10863418132066727, -0.0411357618868351, -0.016089878976345062, -0.030477426946163177, 0.047423023730516434, -0.06379624456167221, 0.09917811304330826, 0.05049968883395195, -0.027371305972337723, 0.020814260467886925, 0.0202154703438282, -0.04302757978439331, -0.08542327582836151, -0.0698062926530838, 0.010368859395384789, 0.031862303614616394, -0.04951697587966919, -0.058866824954748154, 0.014917409047484398, -0.07705477625131607, -0.020313458517193794, -0.06027882173657417, 0.0006639127968810499, 0.07659789174795151, 0.059117648750543594, 0.049792975187301636, 0.03128683194518089, 0.04682600125670433, 0.04770273715257645, 0.06627295911312103, -0.08055005222558975, 0.03127964958548546, 0.016620561480522156, 0.016657797619700432, 0.13615739345550537, -0.09521888196468353, 0.03174332156777382, 0.02935369871556759, -0.06050574779510498, 0.05980190262198448, -0.07258337736129761, 0.030657388269901276, -0.11054737120866776, -0.076789990067482, 0.07314255833625793, 0.03673535957932472, 0.09371810406446457, 0.12232289463281631, -0.03882927447557449], [0.055168312042951584, 0.23344841599464417, 0.2541734278202057, -0.30797696113586426, -0.45930251479148865, 0.17990756034851074, -0.19575010240077972, -0.22116521000862122, 0.06816552579402924, 0.23526723682880402, -0.11888226121664047, -0.15684498846530914, -0.1441911906003952, -0.030561167746782303, -0.02165231481194496, 0.2010257989168167, 0.33717018365859985, -0.2773885726928711, 0.1526985764503479, -0.08756595104932785, 0.0074505992233753204, -0.17161816358566284, 0.09164272993803024, -0.37165096402168274, 0.0634450614452362, -0.034255750477313995, -0.23967964947223663, 0.2388700395822525, 0.07268188148736954, -0.2289576679468155, -0.5262818932533264, 0.38495272397994995, -0.5494794845581055, -0.12161847203969955, -0.05340786650776863, -0.38577505946159363, -0.2886940836906433, -0.1945478469133377, 0.010292915627360344, 0.07773681730031967, -0.21376916766166687, -0.2023138850927353, 0.1399357169866562, -0.2624336779117584, 0.14771701395511627, 0.058025192469358444, -0.18550166487693787, -0.15646375715732574, 0.2761859893798828, 0.017522277310490608, 0.09900040924549103, -0.2830967307090759, 0.0075793638825416565, 0.2511223256587982, -0.09031546860933304, -0.24111105501651764, -0.5687491297721863, -0.032561227679252625, 0.15308769047260284, -0.059562962502241135, -0.41721847653388977, 0.09153185784816742, -0.45058825612068176, 0.2183607965707779, 0.028121257200837135, -0.39279648661613464, 0.41864708065986633, 0.24612091481685638, -0.44407743215560913, 0.05615128204226494, 0.04967138543725014, -0.1392926722764969, 0.012690405361354351, 0.061162445694208145, 0.1904589682817459, -0.24500970542430878, 0.46946558356285095, -0.29205232858657837, 0.1364928036928177, -0.04883068427443504, -0.21010957658290863, -0.2498263567686081, -0.1711748242378235, -0.29216858744621277, -0.37232986092567444, 0.1601260006427765, -0.05962252989411354, -0.3184010088443756, 0.0817749947309494, -0.051230672746896744, 0.20125560462474823, 0.2284809798002243, -0.6306922435760498, -0.0028177225030958652, 0.3045678734779358, 0.19822046160697937], [0.153542160987854, 0.22690525650978088, -0.01137433759868145, -0.09519152343273163, -0.07704254984855652, -0.3967466950416565, -0.1560857892036438, -0.07514850795269012, -0.013269277289509773, -0.020741678774356842, -0.08396699279546738, -0.011714878492057323, -0.7410308718681335, -0.013447721488773823, 0.5542560815811157, 0.0967874750494957, -0.17641465365886688, -0.08999860286712646, -0.04843387007713318, -0.09634580463171005, -0.053767792880535126, -0.2877628207206726, 0.16162109375, -0.2390674352645874, -0.015310467220842838, -0.00254334625788033, 0.04692261293530464, -0.04725285992026329, 0.17969129979610443, 0.0521911084651947, -0.367843896150589, -0.006742228753864765, 0.13753455877304077, 0.08699559420347214, -0.001418007188476622, 0.012930914759635925, 0.09329371899366379, -0.16482537984848022, 0.0012777091469615698, 0.15367138385772705, 0.030352424830198288, 0.52059006690979, -0.19274473190307617, -0.16121171414852142, -0.13472628593444824, 0.08097761869430542, 0.1752772480249405, -0.08279255777597427, 0.023551851511001587, 0.09245945513248444, -0.05065607279539108, -0.3980163037776947, 0.047583214938640594, -0.36329665780067444, -0.023813767358660698, 0.44694259762763977, -0.05963829532265663, 0.1280135214328766, -0.05662018433213234, -0.018003541976213455, -0.03370911628007889, -0.04126185551285744, -0.4281522035598755, 0.21084319055080414, 0.15481114387512207, 0.07145293056964874, 0.24840538203716278, 0.17118726670742035, -0.02264413796365261, 0.2658421993255615, -0.08770004659891129, 0.1490701287984848, 0.057932961732149124, 0.043872758746147156, 0.07462675124406815, -0.09267690032720566, 0.4008626341819763, -0.23893997073173523, -0.2046303153038025, 0.026767704635858536, -0.13954128324985504, -0.048513107001781464, 0.05257808044552803, -0.020280618220567703, -0.17534124851226807, 0.43633729219436646, 0.10495536774396896, -0.009571063332259655, -0.16094031929969788, 0.1711062490940094, -0.08295700699090958, -0.008637170307338238, -0.16501906514167786, 0.013771398924291134, -0.046322982758283615, 0.11217760294675827], [0.0768856406211853, 0.34900718927383423, -0.02864186093211174, -0.021799715235829353, -0.09051419049501419, -0.1189875528216362, -0.2169189453125, -0.06463856995105743, 0.03557518124580383, 0.2465740144252777, -0.16255423426628113, 0.11849984526634216, -0.2644149363040924, -0.13681234419345856, -0.1221902146935463, 0.11433720588684082, 0.10844655334949493, -0.12874703109264374, -0.13114483654499054, 0.018283769488334656, -0.08296019583940506, -0.042994242161512375, 0.09189564734697342, -0.173692986369133, 0.19434566795825958, -0.11506364494562149, -0.09611397236585617, -0.11311782896518707, 0.17483209073543549, -0.3777835965156555, -0.3018399775028229, 0.07159645110368729, 0.015918424353003502, -0.00782347284257412, -0.0543515719473362, -0.23223870992660522, -0.14658410847187042, -0.22255653142929077, 0.08487007766962051, 0.11930949985980988, -0.12296885251998901, -0.11674190312623978, 0.13563816249370575, -0.3177618980407715, -0.0011922307312488556, 0.05104938894510269, -0.08668901771306992, -0.08819035440683365, -0.013224245049059391, 0.16609837114810944, 0.1363270878791809, -0.14081433415412903, 0.07471250742673874, -0.05470560863614082, 0.013988769613206387, -0.19967252016067505, -0.21089710295200348, 0.09948781132698059, -0.004474329762160778, -0.19426801800727844, -0.3853508234024048, 0.03200330585241318, -0.17772679030895233, 0.04483719915151596, 0.005911100655794144, -0.19742000102996826, 0.15899240970611572, 0.053695086389780045, -0.168615460395813, 0.01789107359945774, 0.004622934851795435, 0.09009762853384018, -0.1165364682674408, -0.14357121288776398, 0.01268042717128992, -0.1958872228860855, 0.14105679094791412, -0.14556603133678436, 0.036981210112571716, 0.05337487533688545, 0.05706077069044113, -0.20122820138931274, -0.07213173806667328, -0.07405225932598114, -0.16460682451725006, 0.0413961298763752, 0.1421668827533722, -0.19155360758304596, -0.11860950291156769, 0.1352364420890808, 0.08823496103286743, -0.1666536182165146, -0.06930377334356308, 0.05682943016290665, 0.16817091405391693, 0.2024053931236267], [0.07850293070077896, 0.115363709628582, 0.09800045192241669, -0.1136019378900528, -0.021451210603117943, -0.03082566149532795, -0.11218758672475815, 0.03997137397527695, -0.014043574221432209, -0.10913319885730743, 0.05554937943816185, -0.0772750973701477, -0.058203671127557755, -0.08953003585338593, -0.11683028936386108, -0.04937529191374779, 0.03919662535190582, 0.11681768298149109, 0.027406791225075722, 0.11146639287471771, -0.10766258835792542, -0.1515313684940338, 0.11960047483444214, -0.07873092591762543, -0.017904529348015785, 0.05953308194875717, 0.015890557318925858, 0.1762116402387619, -0.15985937416553497, 0.1913086622953415, -0.1518041491508484, 0.15671570599079132, -0.004856172017753124, -0.03726772591471672, 0.028952058404684067, -0.10633391886949539, -0.10117121040821075, -0.13843774795532227, -0.1297389566898346, 0.14335718750953674, -0.05066520348191261, -0.1976998895406723, 0.23324094712734222, 0.08918934315443039, -0.06734930723905563, -0.12006567418575287, -0.0039140405133366585, 0.008030644617974758, 0.015440516173839569, -0.005749858915805817, 0.09112963080406189, -0.06447947770357132, 0.07076721638441086, -0.03737200051546097, -0.14695045351982117, -0.13434284925460815, -0.06971780955791473, -0.026878422126173973, 0.034334663301706314, 0.02700207009911537, -0.18747998774051666, -0.039792779833078384, -0.08764483034610748, 0.020211176946759224, 0.0680210217833519, -0.18282537162303925, 0.10167103260755539, 0.013268597424030304, 0.03383924067020416, 0.09630591422319412, -0.10364077985286713, 0.011267962865531445, 0.03500852733850479, -0.040532153099775314, 0.06133078783750534, -0.07548809796571732, 0.15721800923347473, -0.17512956261634827, 0.02874086983501911, -0.017678245902061462, -0.007696946617215872, -0.14052186906337738, -0.024681175127625465, -0.14621803164482117, -0.0894748717546463, 0.2233571708202362, -0.004113174043595791, -0.18530063331127167, -0.0552484355866909, -0.08319603651762009, 0.024217328056693077, 0.10537853837013245, -0.08871057629585266, 0.10940317064523697, 0.23226623237133026, 0.0666431188583374], [-0.009290727786719799, 0.11823242902755737, 0.10508682578802109, -0.02842719666659832, -0.04623186215758324, 0.038698386400938034, -0.09831187129020691, -0.008545493707060814, -0.017516855150461197, 0.039086636155843735, 0.05967294052243233, -0.05383773520588875, -0.053546540439128876, 0.01096506230533123, -0.1643066704273224, 0.030299952253699303, -0.00763850100338459, -0.017548447474837303, 0.01137535274028778, 0.04654957354068756, -0.06880315393209457, -0.08012692630290985, 0.04359670728445053, -0.04616257920861244, -0.061954300850629807, -0.021677661687135696, -0.004377824254333973, -0.022062042728066444, 0.027429332956671715, -0.05894242227077484, -0.18835589289665222, 0.03491046652197838, 0.04887523129582405, 0.02879386395215988, -0.026157544925808907, -0.209697425365448, -0.012098797596991062, -0.0993867889046669, -0.06882710754871368, -0.008062954992055893, -0.07877287268638611, -0.09683969616889954, -0.0318688303232193, 0.07108957320451736, 0.0468972846865654, 0.042637377977371216, -0.10193422436714172, 0.04405854642391205, 0.009222764521837234, -0.029777375981211662, -0.03787687048316002, -0.025993941351771355, -0.01779860630631447, 0.07302892953157425, 0.0180293507874012, -0.1395893394947052, -0.1419713795185089, -0.07832745462656021, 0.027516977861523628, 0.07854092121124268, -0.11659762263298035, -0.005664522759616375, -0.11638319492340088, -0.029881371185183525, -0.048376668244600296, -0.2462635189294815, 0.1648351401090622, 0.15365339815616608, 0.07410332560539246, -0.2196539044380188, 0.11307744681835175, -0.0026663236785680056, 0.09185861051082611, 0.015676790848374367, 0.05851702764630318, -0.0372709184885025, 0.0650695338845253, -0.09645240753889084, -0.09311918914318085, 0.03349975124001503, -0.0067826746962964535, -0.013208423741161823, 0.007007294800132513, -0.06457481533288956, -0.015170564875006676, -0.011926797218620777, -0.06456206738948822, -0.1015205979347229, -0.0858142301440239, -0.12170825153589249, -0.023740220814943314, 0.015161789953708649, -0.07971198111772537, -0.08813890814781189, -0.12809641659259796, 0.00817837193608284], [-0.10301550477743149, -0.17186397314071655, -0.03247739002108574, -0.14350907504558563, 0.05914099141955376, 0.027537139132618904, -0.05066865682601929, -0.0982414186000824, 0.021201608702540398, 0.03328192979097366, 0.08670928329229355, 0.07005654275417328, 0.03896043822169304, -0.100542813539505, -0.006341470871120691, -0.053312718868255615, -0.025042349472641945, 0.010540672577917576, 0.05254879593849182, 0.057584136724472046, 0.05637713149189949, -0.0029241079464554787, 0.0375826358795166, 0.04983901232481003, -0.06882200390100479, 0.0699826180934906, 0.047274962067604065, 0.048147737979888916, 0.01447669044137001, -0.05222487077116966, 0.029224995523691177, -0.03183605521917343, -0.05479278042912483, 0.08530529588460922, 0.06257922947406769, -0.038457855582237244, 0.08085735887289047, 0.020149964839220047, -0.03789565712213516, -0.060719676315784454, 0.0570777952671051, 0.03600776568055153, 0.1029600277543068, -0.11268172413110733, 0.048066891729831696, -0.03273961320519447, -0.07585921883583069, 0.005445761606097221, 0.12809187173843384, 0.049351662397384644, 0.011417940258979797, -0.14439956843852997, -0.12218333035707474, 0.04962984845042229, -0.09821086376905441, 0.0006763137062080204, -0.11914697289466858, 0.0026833030860871077, -0.08037308603525162, 0.017786256968975067, -0.024931911379098892, -0.012226798571646214, -0.1432965248823166, -0.06510212272405624, 0.044678520411252975, 0.06553366035223007, -0.11130484938621521, 0.12120380997657776, 0.18374119699001312, -0.05199521780014038, -0.03274159133434296, -0.05352291464805603, 0.0368550606071949, 0.005375351756811142, -0.07641283422708511, -0.008239961229264736, 0.025960326194763184, -0.10959909111261368, -0.02247803658246994, 0.16116777062416077, 0.02384013682603836, 0.03176405280828476, -0.06660905480384827, -0.11621346324682236, -0.02256667986512184, 0.0846199169754982, -0.14895862340927124, -0.001014468725770712, 0.03231540322303772, 0.07430240511894226, -0.03215482458472252, 0.09550011157989502, 0.006516525987535715, 0.07721777260303497, -0.05375836044549942, -0.01967248134315014], [0.0002282530622323975, -0.12352976202964783, 0.20320110023021698, -0.09972025454044342, 0.05525146424770355, 0.0947568416595459, -0.026583239436149597, -0.01931658200919628, -0.06298457831144333, 0.0067064035683870316, 0.12215892225503922, 0.03670678660273552, 0.016811680048704147, -0.0697583332657814, -0.15334071218967438, -0.033681102097034454, 0.0793299749493599, 0.04838213697075844, 0.05517584830522537, -0.12805362045764923, -0.07460722327232361, -0.03989167883992195, 0.008528117090463638, -0.03216784447431564, 0.04687444120645523, 0.026794558390975, -0.010934064164757729, 0.12096063047647476, 0.0184139683842659, 0.17112384736537933, -0.12380493432283401, 0.009787086397409439, 0.02189727872610092, 0.08471429347991943, 0.03662359341979027, 0.016138732433319092, 0.06449035555124283, -0.024846818298101425, -0.015857744961977005, 0.0351724848151207, 0.046602629125118256, 0.05776240676641464, -0.03456982597708702, 0.1024574264883995, 0.05734749510884285, 0.058012284338474274, 0.020533494651317596, -0.0809488594532013, 0.05354282632470131, -0.057077642530202866, 0.03884095698595047, 0.03658324480056763, -0.042149901390075684, 0.09690725058317184, -0.0754462331533432, -0.0771632120013237, -0.0463908314704895, 0.03358399122953415, 0.014680642634630203, -0.07344646006822586, 0.05502841994166374, -0.0929548516869545, -0.11911320686340332, 0.02779787965118885, -0.07980677485466003, 0.052008457481861115, 0.012536685913801193, 0.0847754031419754, 0.16398954391479492, -0.025333672761917114, 0.07625843584537506, -0.0871887281537056, 0.04591617360711098, 0.03684992343187332, 0.001148006645962596, 0.03743017464876175, -0.04957931861281395, -0.07229369133710861, 0.08718634396791458, 0.04737914726138115, -0.04537111893296242, -0.07177867740392685, 0.016338985413312912, 0.038149308413267136, 0.07728665322065353, -0.03496251255273819, -0.006856854539364576, 0.003213630523532629, 0.06210187077522278, 0.07348670065402985, -0.10971099138259888, 0.04095149040222168, -0.09526681154966354, 0.0059784213081002235, 0.0121124517172575, -0.09544870257377625], [0.14417287707328796, 0.1386764645576477, 0.14822541177272797, -0.0759558156132698, -0.12897056341171265, 0.18762044608592987, 0.06716261059045792, 0.10900502651929855, 0.10314053297042847, 0.1816689819097519, -0.015382456593215466, 0.0011798363411799073, 0.03261107951402664, -0.058627139776945114, 0.19624517858028412, -0.05572494491934776, 0.18958301842212677, -0.2373970001935959, 0.03730202093720436, -0.010043829679489136, 0.039135340601205826, 0.0630854144692421, 0.1865037977695465, -0.38234344124794006, 0.04723600298166275, -0.09171809256076813, -0.1430772989988327, -0.04891947656869888, 0.21061119437217712, -0.38469502329826355, -0.2614831030368805, -0.0005151776713319123, -0.18558403849601746, -0.04785992577672005, 0.019612297415733337, 0.12300572544336319, 0.07241909950971603, -0.1636282056570053, 0.007812233176082373, 0.149954155087471, -0.18684841692447662, 0.06776503473520279, 0.062155261635780334, 0.01009485311806202, 0.10192447900772095, 0.2074485868215561, 0.1592004895210266, -0.17008090019226074, 0.008970185182988644, 0.012380545027554035, 0.030455365777015686, 0.1313716620206833, 0.08361021429300308, -0.06944891810417175, 0.026002829894423485, -0.021825581789016724, -0.1617661714553833, 0.1548696607351303, 0.01118061225861311, 0.11854462325572968, -0.2047724425792694, -0.018826672807335854, -0.3553503751754761, 0.1381814181804657, 0.20236589014530182, -0.06958720833063126, 0.07083694636821747, -0.05197882279753685, -0.22371122241020203, 0.13361679017543793, 0.07989204674959183, 0.30275461077690125, -0.002126777544617653, -0.09536075592041016, 0.1461137980222702, -0.2801067531108856, 0.25360214710235596, 0.11231783032417297, -0.10262293368577957, -0.13088281452655792, 0.22061634063720703, -0.09087958931922913, -0.15644337236881256, -0.23704686760902405, -0.19703413546085358, -0.3151584565639496, 0.21719038486480713, 0.07751201838254929, 0.004991552326828241, 0.10316811501979828, -0.0672563835978508, -0.010746000334620476, -0.31580427289009094, -0.0041287546046078205, -0.16130490601062775, 0.14265845715999603], [-0.1191268265247345, 0.010810780338943005, 0.12942399084568024, -0.1404561698436737, 0.02595156617462635, -0.02948678657412529, -0.0677887573838234, -0.07559844106435776, 0.07385467737913132, -0.030267097055912018, 0.11364675313234329, 0.0026773205026984215, 0.017468364909291267, 0.03568853810429573, -0.18173818290233612, -0.011595330201089382, 0.09134825319051743, -0.04752413183450699, 0.033891886472702026, -0.035714615136384964, -0.098515585064888, -0.038937341421842575, -0.02759508602321148, -0.021382804960012436, 0.07306281477212906, 0.10077130794525146, -0.07825280725955963, 0.10125058889389038, -0.06000448018312454, 0.0042060362175107, -0.1659674346446991, 0.10187552869319916, 0.17963601648807526, -0.07756994664669037, -0.021224968135356903, 0.011839143931865692, 0.044187165796756744, -0.1306568682193756, 0.029093550518155098, -0.0865514725446701, 0.12037120759487152, 0.13230083882808685, -0.1465315967798233, -0.037921756505966187, -0.047467734664678574, 0.0477069616317749, -0.0621897429227829, -0.10408984869718552, 0.13093741238117218, 0.06439510732889175, -0.05173875391483307, 0.054765619337558746, 0.003707186784595251, 0.024490905925631523, 0.0822339802980423, -0.01760154590010643, -0.02288546971976757, -0.0933912992477417, 0.07203851640224457, 0.01947736367583275, 0.01463284995406866, -0.08126122504472733, -0.03949257731437683, -0.11058668792247772, -0.12382308393716812, 0.0597623847424984, -0.015392987988889217, 0.08231377601623535, 0.05393946170806885, 0.002824501832947135, -0.1172378808259964, 0.11683730036020279, -0.06634528189897537, -0.06238759681582451, 0.09489086270332336, 0.04915432259440422, -0.005113125778734684, -0.08366426825523376, 0.0982905775308609, -0.0743047446012497, -0.016199784353375435, -0.03372779116034508, 0.03664958104491234, -0.018342040479183197, -0.12383130192756653, 0.02177574299275875, -0.06626828014850616, -0.007160933688282967, -0.0015961471945047379, -0.08029507845640182, -0.0840219259262085, 0.05399082228541374, 0.039552152156829834, 0.048575323075056076, 0.04724796116352081, -0.1231444850564003], [-0.04181806370615959, 0.11369851976633072, 0.18091103434562683, -0.1893695443868637, -0.006491734646260738, 0.08806578814983368, 0.011089052073657513, 0.20658455789089203, 0.06582216173410416, -0.22492772340774536, 0.036239225417375565, 0.02662757970392704, -0.41265854239463806, -0.040099237114191055, -0.22596164047718048, 0.050126560032367706, -0.10686331987380981, -0.0775018185377121, 0.19673767685890198, -0.05738258734345436, -0.07704426348209381, -0.1053197979927063, -0.08861341327428818, -0.1554415076971054, 0.13918980956077576, -0.14501315355300903, 0.037579815834760666, 0.16085878014564514, -0.33919787406921387, 0.3487074077129364, -0.10255502164363861, 0.2880297601222992, -0.22659055888652802, 0.003288180800154805, -0.04038643464446068, -0.07928474992513657, -0.09837142378091812, -0.171810582280159, -0.11437992006540298, -0.02641555294394493, -0.061274535953998566, -0.12556125223636627, -0.007347669918090105, 0.34202319383621216, -0.04060128703713417, -0.14251092076301575, -0.235561802983284, -0.1776876449584961, 0.17663316428661346, 0.062365684658288956, -0.03751799091696739, 0.005429416429251432, 0.140521839261055, 0.030849961563944817, -0.11860035359859467, -0.20663043856620789, -0.14520709216594696, -0.3082447350025177, 0.1329832822084427, 0.0633600503206253, -0.06698944419622421, -0.18677784502506256, -0.1465100198984146, 0.030356058850884438, -0.20900040864944458, -0.10392245650291443, 0.00042727720574475825, -0.07359781861305237, -0.006775500252842903, 0.06615672260522842, -0.032038670033216476, -0.10437999665737152, 0.271507203578949, 0.06201554089784622, 0.13955609500408173, 0.11179229617118835, -0.0816313847899437, -0.16979095339775085, 0.19513830542564392, 0.15750448405742645, -0.03683505952358246, 0.04882284626364708, -0.15093353390693665, -0.02781069278717041, -0.02819494716823101, -0.15566350519657135, -0.11153750121593475, -0.0327218733727932, -0.022398820146918297, -0.05389534682035446, -0.14310264587402344, 0.2115657776594162, -0.1744978427886963, -0.10649186372756958, 0.2085617184638977, -0.07414428144693375], [-0.09882209450006485, -0.051179010421037674, 0.248460054397583, 0.02408505789935589, 0.09520365297794342, 0.007915006019175053, -0.014837339520454407, 0.029677391052246094, -0.05117723345756531, 0.09177691489458084, 0.06762617081403732, -0.05769322067499161, -0.29696863889694214, -0.0005589019856415689, 0.05483309552073479, 0.04591187462210655, 0.31952252984046936, -0.06985210627317429, 0.07148031890392303, -0.1664280742406845, -0.05483658239245415, -0.06457662582397461, -0.006812485866248608, -0.09417887777090073, 0.05222003534436226, -0.003585029626265168, 0.013029566965997219, -0.004404421895742416, -0.13826869428157806, 0.2518664300441742, -0.20075634121894836, -0.018106551840901375, -0.19799482822418213, -0.06264839321374893, -0.1542750597000122, -0.0721227377653122, -0.014234330505132675, -0.14726778864860535, 0.15283505618572235, 0.047404199838638306, 0.06900134682655334, 0.2506258189678192, -0.19438882172107697, 0.10478666424751282, -0.027161257341504097, 0.1389404982328415, -0.12140098959207535, -0.2457815259695053, 0.026107219979166985, 0.10798775404691696, -0.0771770104765892, 0.11974561959505081, 0.16938631236553192, 0.05376172438263893, 0.03795729577541351, 0.17320188879966736, -0.1437777280807495, 0.013736219145357609, 0.13889697194099426, 0.08491680026054382, -0.05491712689399719, 0.00204343325458467, -0.053681306540966034, -0.07171212881803513, 0.005940598901361227, 0.14681097865104675, 0.06560372561216354, -0.18086759746074677, 0.2638556957244873, 0.1502579003572464, -0.04839756712317467, 0.25372302532196045, 0.10772179067134857, 0.10115587711334229, 0.15008090436458588, 0.21275532245635986, -0.072200708091259, 0.1022990420460701, 0.006230370607227087, -0.07730431109666824, 0.0959354043006897, 0.029718535020947456, -0.14363965392112732, 0.10638965666294098, 0.03431680426001549, -0.1087382510304451, -0.0013984692050144076, -0.02158268168568611, -0.043619945645332336, -0.0848344936966896, 0.069362573325634, -0.005393046885728836, -0.20834966003894806, -0.10379858314990997, -0.052846528589725494, -0.0744091346859932], [-0.12042269855737686, 0.1702410727739334, -0.03900207579135895, -0.08393421024084091, 0.030263006687164307, 0.020524270832538605, 0.00336468406021595, -0.10837098956108093, -0.11441958695650101, -0.11618083715438843, -0.08666016161441803, -0.1442970633506775, 0.04010971263051033, 0.12523077428340912, 0.015235057100653648, -0.06018492951989174, -0.0889875590801239, 0.022324537858366966, 0.11210569739341736, 0.025123555213212967, -0.0034338003024458885, -0.17484082281589508, 0.009011571295559406, -0.07563091814517975, -0.016241172328591347, 0.04738027974963188, -0.06814046204090118, -0.007504083216190338, -0.022120585665106773, -0.042500559240579605, -0.03297599032521248, 0.08932031691074371, 0.03878413140773773, -0.11369961500167847, -0.008243169635534286, 0.016479650512337685, 0.009430153295397758, 0.007569801528006792, -0.04290725663304329, -0.036514632403850555, 0.0037733949720859528, 0.04097926616668701, -0.09048276394605637, -0.12223301082849503, 0.04854873940348625, 0.05673757568001747, -0.11713200807571411, 0.03087628073990345, 0.09555910527706146, 0.038017284125089645, -0.022770632058382034, -0.015115453861653805, -0.014756325632333755, 0.02332659810781479, 0.08933013677597046, 0.010304461233317852, -0.10870856791734695, 0.08471281081438065, 0.11230866611003876, 0.07296118140220642, 0.011159675195813179, -0.08138489723205566, -0.021724602207541466, -0.07140331715345383, 0.04429561272263527, -0.08360358327627182, 0.08455094695091248, -0.11555223166942596, 0.036850109696388245, -0.11936671286821365, 0.04274855926632881, -0.21604272723197937, -0.07023291289806366, 0.0345894955098629, 0.03528803586959839, -0.08757399767637253, 0.05624185875058174, -0.19756463170051575, 0.038249801844358444, 0.027627890929579735, 0.12224765866994858, 0.00234207627363503, -0.005960819777101278, -0.15979915857315063, -0.09956882148981094, 0.015202119015157223, -0.09505339711904526, 0.03496670350432396, -0.01402138639241457, -0.09820693731307983, 0.11882893741130829, 0.041253555566072464, -0.15366247296333313, 0.07348273694515228, 0.06028115376830101, 0.043537478893995285], [0.059576861560344696, -0.003277540672570467, 0.13873089849948883, -0.04146640747785568, -0.13461624085903168, 0.07575740665197372, 0.05109625309705734, -0.007831445895135403, -0.07212276756763458, -0.03237070515751839, 0.06282716989517212, 0.08027440309524536, -0.1560988575220108, -0.012303018011152744, 0.05591551959514618, 0.024470634758472443, 0.03443358093500137, -0.017974067479372025, 0.0611761249601841, 0.004041706677526236, 0.012442492879927158, 0.0074455225840210915, 0.055481333285570145, -0.16602055728435516, 0.10558447986841202, 0.055652257055044174, -0.03364172950387001, 0.16507691144943237, 0.06196212396025658, 0.0665932148694992, -0.03502244874835014, 0.15423794090747833, -0.051092855632305145, -0.021889857947826385, 0.030431073158979416, 0.034876979887485504, -0.052457187324762344, 0.025332557037472725, -0.005792225245386362, 0.10161583125591278, -0.17663627862930298, -0.05400562658905983, 0.12205181270837784, 0.024402877315878868, -0.13927724957466125, -0.13222786784172058, -0.017137560993433, -0.05094139650464058, 0.06764785200357437, 0.06422550976276398, 0.07141955941915512, -0.011271408759057522, -0.035821717232465744, -0.10200484842061996, 0.03651655465364456, -0.044265154749155045, -0.08364034444093704, -0.09395083039999008, 0.1334148794412613, -0.11607576161623001, -0.027644140645861626, -0.13193877041339874, -0.07136133313179016, 0.11400796473026276, 0.18223941326141357, -0.023186013102531433, -0.017290905117988586, 0.007035968825221062, 0.01188044622540474, -0.03694884851574898, -0.0975574478507042, -0.048004113137722015, 0.14313766360282898, 0.011132863350212574, 0.1423327475786209, -0.14899112284183502, 0.09487085789442062, -0.13620087504386902, 0.09876614809036255, 0.003849384840577841, 0.2004581242799759, -0.11626186966896057, -0.1759083867073059, -0.1014811173081398, -0.037867285311222076, -0.010886863805353642, -0.07000256329774857, -0.10377416759729385, 0.06608342379331589, 0.11979133635759354, -0.01815129444003105, 0.046203963458538055, -0.04161522909998894, 0.038461118936538696, 0.17090795934200287, 0.03390220180153847], [-0.07967456430196762, 0.02213650941848755, 0.17228378355503082, -0.06339675933122635, -0.003448269795626402, 0.08247953653335571, -0.09748496115207672, 0.15293338894844055, 0.06994463503360748, 0.029713837429881096, 0.0037656882777810097, -0.05067054554820061, 0.18843026459217072, -0.0061079044826328754, 0.06662893295288086, 0.09865999966859818, 0.1396942138671875, -0.19217436015605927, -0.03753595054149628, -0.13263355195522308, -0.06296169012784958, -0.06999784708023071, 0.02243221551179886, -0.018645213916897774, 0.0575878731906414, -0.09321179986000061, -0.16467896103858948, 0.042793016880750656, 0.02224857173860073, -0.09840613603591919, -0.12514854967594147, 0.009932086803019047, 0.027697892859578133, 0.01941031590104103, 0.04813645780086517, -0.12161338329315186, -0.16154301166534424, -0.23939518630504608, 0.08482570201158524, -0.09449530392885208, -0.042353205382823944, 0.04528249800205231, 0.09910605847835541, -0.03301568701863289, 0.14910949766635895, 0.06104607880115509, -0.009640706703066826, -0.03331487998366356, -0.039965465664863586, 0.09524833410978317, -0.06048228591680527, -0.041724029928445816, 0.16555316746234894, 0.005266185384243727, 0.07710197567939758, -0.02511560171842575, 0.06390053033828735, 0.14131474494934082, -0.034691717475652695, -0.06767270714044571, -0.12477423995733261, 0.09416767209768295, -0.09510908275842667, 0.023002926260232925, -0.10741609334945679, 0.011068332940340042, 0.08331982791423798, -0.07421933859586716, 0.04484802484512329, 0.06658120453357697, 0.16425669193267822, 0.10889700800180435, 0.13103583455085754, 0.03560764342546463, -0.08581164479255676, 0.10184432566165924, 0.07399347424507141, 0.006970727350562811, 0.013803656212985516, 0.06440994143486023, -0.07600399106740952, 0.14476583898067474, -0.045623939484357834, -0.0878157913684845, -0.18008635938167572, -0.14540621638298035, -0.05411388725042343, 0.06822537630796432, -0.08902937173843384, -0.059131816029548645, 0.08746412396430969, -0.009784126654267311, -0.048340845853090286, 0.04800039157271385, -0.15554586052894592, 0.10045210272073746], [-0.037018369883298874, -0.038746461272239685, 0.23121488094329834, -0.07472603023052216, -0.22625401616096497, 0.12130670249462128, 0.028700079768896103, 0.08468235284090042, -0.03843460604548454, 0.1356051117181778, -0.12757554650306702, 0.0033142336178570986, 0.11334551125764847, 0.043561626225709915, -0.1055101752281189, -0.006621238309890032, 0.2361634522676468, 0.011786182411015034, 0.04472816362977028, -0.15538030862808228, -0.030814748257398605, 0.03427394479513168, 0.13046914339065552, -0.3048436641693115, -0.052875127643346786, -0.024705370888113976, 0.01643364131450653, 0.20106346905231476, -0.060668278485536575, 0.07930975407361984, -0.2986912131309509, 0.21355685591697693, -0.083217553794384, 0.04678744077682495, 0.04574638977646828, -0.22499650716781616, -0.25358957052230835, -0.08281446993350983, 0.13418258726596832, 0.0018750480376183987, -0.2330956608057022, -0.07029189169406891, 0.1299293041229248, -0.016954613849520683, 0.010732068680226803, 0.037602365016937256, -0.06674574315547943, -0.27768319845199585, 0.03445589169859886, 0.2575249671936035, 0.1380181908607483, 0.00048618801520206034, -0.059427108615636826, 0.050218142569065094, -0.12133147567510605, -0.20952393114566803, -0.31586384773254395, -0.007426002528518438, 0.0509030781686306, 0.11393918097019196, -0.19449666142463684, 0.04523855820298195, -0.20121179521083832, 0.0913093164563179, -0.17674905061721802, -0.17198705673217773, 0.20105989277362823, -0.17631739377975464, 0.06375399976968765, 0.1617204248905182, 0.11712570488452911, 0.06376694142818451, 0.11663439124822617, -0.02809407003223896, 0.255953848361969, 0.0010854107094928622, 0.10886705666780472, -0.09450756013393402, -0.03598976135253906, -0.1822458654642105, 0.01407088153064251, -0.13521549105644226, -0.08791284263134003, -0.14335830509662628, -0.31439176201820374, -0.08694049715995789, -0.0999407097697258, -0.14500655233860016, -0.08250419795513153, -0.22724121809005737, -0.10953649878501892, 0.15394361317157745, -0.3736437261104584, 0.010794943198561668, 0.10650493204593658, 0.13038980960845947], [0.12190388888120651, 0.46339529752731323, 0.342857301235199, -0.3885471820831299, -0.26037096977233887, 0.20480120182037354, -0.1726304441690445, -0.151516854763031, -0.005701141431927681, -0.1175200343132019, -0.06917421519756317, -0.041172873228788376, -0.5965043306350708, 0.013498267158865929, -0.24333056807518005, 0.14414112269878387, 0.20845550298690796, 0.030835891142487526, 0.11052059382200241, 0.11887581646442413, -0.10600802302360535, -0.5783048272132874, 0.044050734490156174, -0.4381139278411865, 0.16407285630702972, -0.04788265749812126, -0.0782216340303421, 0.19428403675556183, 0.024042263627052307, 0.18704354763031006, -0.3482799530029297, 0.2450520396232605, -0.20449817180633545, 0.0424177348613739, 0.026293333619832993, -0.21356679499149323, -0.13937057554721832, -0.07646187394857407, -0.12804900109767914, 0.27398717403411865, -0.21116778254508972, -0.16633333265781403, 0.5530937910079956, 0.06967896968126297, -0.1780080944299698, -0.11148380488157272, -0.41257476806640625, -0.19409768283367157, 0.46744367480278015, -0.05405871942639351, 0.27786800265312195, -0.3144271671772003, -0.1339690238237381, -0.0363762266933918, -0.2403186559677124, -0.2064688801765442, -0.37000203132629395, -0.06147313117980957, 0.08560127764940262, -0.13212211430072784, -0.2963167428970337, -0.21998754143714905, -0.49979129433631897, 0.06115170940756798, 0.19271564483642578, -0.40968093276023865, 0.09876473993062973, 0.46981802582740784, -0.23568902909755707, 0.18304020166397095, -0.14937692880630493, -0.09217473119497299, 0.2179359644651413, -0.021462421864271164, 0.26147207617759705, -0.4874128997325897, 0.0056062419898808, -0.2451435923576355, 0.11714662611484528, 0.4628716707229614, 0.11453287303447723, -0.2743096351623535, -0.38855892419815063, -0.3862251937389374, -0.2145254760980606, 0.24605455994606018, -0.14821438491344452, -0.15190929174423218, 0.026991188526153564, -0.0339350551366806, -0.11371169984340668, 0.2260274738073349, -0.493879497051239, 0.12359152734279633, 0.3765295445919037, 0.03329871594905853], [-0.09304535388946533, -0.039445698261260986, -0.004002406727522612, -0.17043493688106537, 0.05738511681556702, -0.16727399826049805, 0.05169396102428436, 0.10365947335958481, 0.10468945652246475, -0.21881940960884094, 0.0917665958404541, -0.13164646923542023, -0.013580534607172012, 0.09246606379747391, -0.03209485858678818, -0.08119135349988937, -0.043869759887456894, 0.1276048719882965, 0.12293432652950287, -0.03978843241930008, -0.0018314995104447007, -0.09256505966186523, -0.0759710967540741, -0.038722068071365356, 0.0025178291834890842, -0.13962611556053162, -0.04199427366256714, 0.19968707859516144, -0.32090234756469727, 0.14596399664878845, -0.131190225481987, 0.10285352170467377, 0.11635581403970718, 0.13123369216918945, 0.07828401774168015, -0.2086714804172516, -0.04192380607128143, 0.00024577995645813644, -0.0653267502784729, -0.03576233237981796, -0.029966244474053383, -0.05910954996943474, -0.013888251036405563, 0.19131110608577728, -0.22199754416942596, -0.16370916366577148, -0.2387247532606125, 0.05787207558751106, 0.12131708115339279, -0.023098379373550415, -0.06057477369904518, -0.20385673642158508, -0.05417025089263916, 0.07392029464244843, -0.06650034338235855, -0.15215611457824707, -0.1555294543504715, -0.1755201667547226, -0.0013794401893392205, 0.07888288795948029, -0.02184092067182064, -0.24231500923633575, -0.06709462404251099, -0.030707938596606255, 0.08897705376148224, -0.014997287653386593, 0.005871238652616739, -0.16917462646961212, 0.14067262411117554, -0.03812200203537941, -0.0619252510368824, -0.046958815306425095, 0.13223063945770264, -0.05515136942267418, 0.11864054948091507, -0.0003390400670468807, -0.0778668075799942, -0.10500223934650421, 0.23838019371032715, 0.0462542325258255, 0.04287105053663254, 0.06461513042449951, -0.06296566873788834, -0.021905720233917236, -0.11099976301193237, -0.03334483504295349, -0.20021884143352509, -0.13777755200862885, -0.014344173483550549, -0.1233379915356636, -0.14753268659114838, 0.0649382621049881, 0.0007833134732209146, 0.06668084859848022, 0.11885304749011993, -0.01995953731238842], [-0.06923864036798477, 0.021407300606369972, 0.22025525569915771, -0.12585394084453583, -0.1622542291879654, 0.12691134214401245, -0.02080214023590088, 0.17449350655078888, -0.04392578825354576, 0.17848268151283264, -0.009913369081914425, -0.006433343980461359, -0.03363076224923134, -0.12488478422164917, -0.039366018027067184, 0.10227328538894653, 0.15464165806770325, -0.21742130815982819, 0.037370216101408005, -0.08955543488264084, 0.02172732725739479, 0.03701895475387573, 0.0982578843832016, -0.06097903475165367, 0.08038172870874405, -0.011343266814947128, -0.1274053156375885, 0.03539659455418587, 0.17364534735679626, -0.11915258318185806, -0.20315103232860565, 0.07160241901874542, -0.011800757609307766, 0.042131803929805756, 0.1084711030125618, -0.10137935727834702, -0.06636657565832138, -0.07584940642118454, 0.026369590312242508, 0.001459835795685649, -0.059264667332172394, -0.014823253266513348, -0.06767496466636658, 0.06431194394826889, 0.0006694003823213279, -0.03783150762319565, 0.0011040541576221585, -0.14592821896076202, 0.014236187562346458, 0.08905332535505295, 0.10619887709617615, 0.02645721472799778, 0.11922166496515274, 0.07542308419942856, -0.008771385066211224, -0.03571358695626259, -0.12476585805416107, -0.10632320493459702, -0.05117413029074669, 0.06462619453668594, -0.09836940467357635, -0.08571002632379532, -0.028742672875523567, 0.0708676427602768, -0.10623645037412643, -0.0808597132563591, 0.14074234664440155, 0.07647619396448135, 0.043465353548526764, 0.16336043179035187, 0.1434144675731659, -0.06711820513010025, 0.3385692536830902, -0.020513804629445076, 0.187801331281662, 0.1305561363697052, 0.0449431948363781, -0.04606712982058525, -0.19162105023860931, -0.13107448816299438, -0.10380781441926956, -0.057307831943035126, -0.014876037836074829, -0.05769025534391403, -0.06995663046836853, -0.21874593198299408, 0.018603473901748657, -0.13215835392475128, -0.18841694295406342, -0.17727738618850708, 0.16884058713912964, 0.16411344707012177, -0.20039750635623932, -0.06530920416116714, -0.14642168581485748, 0.20076397061347961], [0.07064767181873322, 0.20099680125713348, 0.08078806102275848, -0.06402256339788437, -0.3063417971134186, -0.09265927225351334, -0.24890239536762238, 0.09843230992555618, 0.14429634809494019, 0.3234718441963196, -0.23494476079940796, -0.05000700801610947, -0.04766262695193291, -0.09194411337375641, -0.18961718678474426, 0.08683650195598602, 0.14330382645130157, -0.3898976743221283, 0.037255700677633286, -0.1269742101430893, -0.08169957250356674, -0.008555465377867222, -0.06017352640628815, -0.5907896161079407, -0.10639846324920654, -0.11549579352140427, -0.13751398026943207, -0.1303761601448059, 0.32006320357322693, -0.5488888025283813, -0.5499159097671509, 0.0533473826944828, 0.2417748123407364, 0.0398469902575016, -0.039623260498046875, -0.22557584941387177, -0.2397967278957367, -0.3581402897834778, 0.15338538587093353, 0.10169333964586258, -0.24912099540233612, -0.09045753628015518, 0.27903059124946594, -0.20721422135829926, 0.03819989413022995, -0.0023873550817370415, 0.22566449642181396, -0.2636914551258087, -0.018463972955942154, 0.3599059581756592, 0.23150688409805298, -0.5337439179420471, 0.015481770038604736, -0.0689133033156395, 0.01079552061855793, 0.22312219440937042, -0.4797203838825226, 0.16246066987514496, 0.16550561785697937, 0.004438119474798441, -0.413608580827713, 0.2889532446861267, -0.42242756485939026, 0.17370280623435974, -0.10597755014896393, -0.5434476733207703, 0.3303886950016022, 0.9347752332687378, -0.25237223505973816, -0.3531113266944885, 0.30912068486213684, 0.19938525557518005, 0.14753752946853638, -0.06888981908559799, 0.2455866038799286, -0.9233161211013794, 0.4513903856277466, 0.10297704488039017, -0.1696625053882599, -0.07906004786491394, 0.019184963777661324, -0.18036261200904846, 0.22862999141216278, -0.5120363831520081, -0.4347560703754425, 0.29635629057884216, 0.22437132894992828, -0.13352294266223907, -0.11156162619590759, 0.11191291362047195, 0.0882035568356514, 0.3673710823059082, -0.09255698323249817, -0.035417262464761734, 0.07432443648576736, 0.13083025813102722], [-0.02372806891798973, 0.1899002194404602, -0.021503997966647148, -0.009908578358590603, -0.01133825071156025, 0.07825368642807007, -0.07782547175884247, -0.06275349110364914, -0.10870497673749924, 0.10050055384635925, -0.07609184831380844, 0.051418229937553406, 0.07176503539085388, 0.02524057775735855, 0.0009566339431330562, 0.09559540450572968, 0.06828998774290085, -0.04760183021426201, -0.06882716715335846, 0.07297079265117645, -0.03563296049833298, -0.08468171209096909, -0.04841092601418495, 0.07139452546834946, 0.004183636512607336, 0.021595630794763565, -0.09960692375898361, 0.04128411039710045, 0.08284755051136017, -0.008291286416351795, -0.07415029406547546, 0.0019475739682093263, -0.0952923372387886, -0.08990239351987839, -0.034336578100919724, -0.054157357662916183, -0.060190413147211075, -0.07690796256065369, 0.005453168414533138, -0.08315307646989822, 0.017363253980875015, 0.0198573749512434, -0.06649532169103622, -0.05464746803045273, 0.08647357672452927, -0.00574235524982214, -0.112772636115551, -0.09290269017219543, 0.06276882439851761, 0.04679591581225395, -0.11694012582302094, -0.042692892253398895, -0.02409587800502777, -0.07091771066188812, 0.10450498759746552, 0.04984693601727486, -0.036571893841028214, 0.0030846025329083204, -0.008615550585091114, -0.07792253792285919, -0.06267137825489044, -0.006871428340673447, 0.08063096553087234, -0.05842249095439911, 0.0373917855322361, -0.12290310859680176, 0.028639335185289383, -0.180711567401886, -0.04000847041606903, 0.1525421291589737, -0.023829810321331024, -0.053360722959041595, 0.0482354573905468, 0.044921763241291046, 0.03110884316265583, 0.04392314702272415, 0.0965135395526886, -0.09515129029750824, -0.0006958887097425759, -0.01947888731956482, 0.01737959310412407, 0.0213521309196949, -0.03104056790471077, 0.039218779653310776, -0.14510756731033325, -0.113884836435318, -0.034909043461084366, -0.13352836668491364, -0.0038736704736948013, 0.05936471000313759, 0.08393765985965729, -0.023885315284132957, -0.10454663634300232, 0.07910903543233871, -0.07129127532243729, -0.04234690964221954], [0.11485722661018372, -0.0793537124991417, 0.03362293541431427, -0.1128600612282753, -0.0704934224486351, -0.035010892897844315, -0.08245979994535446, -0.10841329395771027, -0.00984620675444603, 0.11963619291782379, -0.04091013967990875, 0.00877113826572895, 0.0032670758664608, -0.059049274772405624, 0.10729233175516129, 0.06364312767982483, -0.05382280424237251, 0.12568116188049316, -0.10516247153282166, 0.08993450552225113, 0.00405182084068656, -0.08896458894014359, 0.07296686619520187, 0.012460011057555676, -0.047212790697813034, 0.06455810368061066, -0.040618378669023514, -0.02593153715133667, 0.03471136838197708, 0.05105544999241829, 0.004100265447050333, 0.0646200180053711, 0.12089128792285919, 0.13999584317207336, 0.01740690879523754, 0.011054201051592827, -0.07301633805036545, 0.08598223328590393, 0.0282243974506855, -0.08060281723737717, -0.05762108415365219, 0.012666119262576103, -0.04370030388236046, 0.10793643444776535, 0.008596095256507397, 0.09912005811929703, -0.10697111487388611, 0.08982644975185394, -0.00200358172878623, 0.07962823659181595, 0.04835422709584236, 0.07226622849702835, -0.052227217704057693, -0.027425166219472885, -0.05114779248833656, -0.1350919008255005, 0.12807823717594147, 0.006463677156716585, -0.07547566294670105, 0.09055417776107788, -0.06132248044013977, -0.00034174995380453765, -0.042964786291122437, 0.03418632596731186, 0.013896222226321697, -0.07644745707511902, 0.01925073377788067, 0.10987137258052826, -0.12442541867494583, 0.12559062242507935, 0.062073979526758194, 0.03724829480051994, 0.05920442193746567, -0.061330247670412064, 0.08562573045492172, 0.04535078629851341, -0.009495365433394909, -0.022691722959280014, -0.10439478605985641, 0.01753299869596958, -0.09538771212100983, -0.06712616980075836, -0.040974486619234085, -0.051070068031549454, 0.0034135268069803715, 0.03939184546470642, 0.07193026691675186, 0.0034484209027141333, 0.0750420019030571, -0.0045534479431807995, -0.0017241935711354017, 0.13073760271072388, 0.06744099408388138, -0.059559166431427, -0.08011265844106674, -0.07883632183074951], [-0.12213699519634247, 0.05067102983593941, 0.2077568769454956, -0.010371926240622997, -0.1917264312505722, 0.21872259676456451, 0.0919824093580246, 0.27571818232536316, 0.0631328597664833, -0.11889548599720001, -0.09474968910217285, 0.23569342494010925, -0.03368726745247841, -0.048414915800094604, 0.20383217930793762, -0.026122987270355225, 0.40142789483070374, 0.005947712808847427, -0.07413088530302048, -0.06189556419849396, -0.09710922092199326, -0.05493762344121933, 0.003351225284859538, -0.005466935224831104, 0.04468994215130806, -0.08014943450689316, 0.13863244652748108, 0.30181020498275757, -0.26965317130088806, 0.1812225580215454, -0.07973135262727737, 0.18876329064369202, -0.27493149042129517, 0.2886473536491394, 0.00637901620939374, 0.03233649581670761, -0.07195831835269928, 0.042625509202480316, -0.11591335386037827, 0.08055830001831055, -0.06383784115314484, 0.22038805484771729, -0.18180228769779205, 0.2956055998802185, -0.010848460718989372, 0.20628294348716736, -0.24830952286720276, -0.1857515126466751, 0.12870880961418152, 0.10530299693346024, 0.08079356700181961, -0.027430729940533638, 0.08104497194290161, -0.06349896639585495, 0.03257404640316963, -0.01580517739057541, -0.06024013087153435, -0.25418925285339355, -0.1231553927063942, 0.026548128575086594, 0.02449587732553482, -0.180583655834198, -0.11740268021821976, 0.10616017132997513, -0.11582742631435394, -0.0018270999426022172, -0.028179094195365906, 0.07892046868801117, 0.1367434710264206, 0.24586443603038788, 0.02443038858473301, -0.13014814257621765, 0.378229022026062, -0.17206917703151703, 0.26963698863983154, 0.12467578798532486, 0.06489662081003189, -0.04782359302043915, 0.20437166094779968, 