{"lstm.weight_ih_l0": [[0.0701710507273674, -0.41718897223472595, 0.5376186966896057], [-0.05466657504439354, -0.13751962780952454, 0.14744454622268677], [-0.0032373336143791676, -0.2949536144733429, 0.07166002690792084], [-0.17000126838684082, -0.0011037533404305577, 0.6166669726371765], [-0.06057475507259369, -0.2071518450975418, 0.020479591563344002], [0.20836083590984344, -0.11821911484003067, 0.07070297002792358], [0.6018220782279968, -0.18877026438713074, 0.10967689752578735], [-0.191081240773201, 0.08719106763601303, 0.30263587832450867], [0.002627956448122859, -0.5408933758735657, 0.22855563461780548], [-0.2122448980808258, -0.08246902376413345, -0.1386948972940445], [0.40779098868370056, -0.15587455034255981, -0.07741250097751617], [-1.1120713949203491, -0.28541362285614014, 0.1040457934141159], [-0.5990908741950989, -0.1874089539051056, 0.21515491604804993], [0.035829368978738785, -0.10226917266845703, 0.07574087381362915], [0.20861968398094177, -0.06395275890827179, -0.07256420701742172], [0.3910595178604126, -0.1460968554019928, 0.3485493063926697], [0.0518474206328392, -0.3489841818809509, -0.12001806497573853], [-0.4744950532913208, -0.42296573519706726, 0.3602330982685089], [0.08909877389669418, -0.2696729898452759, -0.04429532587528229], [0.032660845667123795, -0.11424847692251205, -0.1335967779159546], [0.03221669793128967, 0.03567887097597122, -0.1351129412651062], [-0.019281182438135147, -0.359765887260437, 0.011772792786359787], [-0.07282256335020065, -0.18743975460529327, -0.14593032002449036], [-0.21525518596172333, -0.32530736923217773, 0.18043257296085358], [-0.06633835285902023, -0.22979667782783508, 0.3210412263870239], [-0.30855435132980347, -0.24349309504032135, -0.018065277487039566], [0.33320140838623047, -0.15559464693069458, 0.07291267812252045], [-0.11365616321563721, -0.31423380970954895, 0.03988317772746086], [-0.4000783860683441, -0.18540464341640472, 0.1917543262243271], [0.23559750616550446, -0.26145756244659424, 0.3400351107120514], [0.027447370812296867, -0.39737468957901, 0.16524145007133484], [0.1818513572216034, -0.2559010684490204, -0.01475484762340784], [-0.0657619759440422, -0.4322199821472168, 0.002817696426063776], [-0.048990391194820404, -0.20655202865600586, -0.11126454919576645], [0.3278110921382904, -0.23564478754997253, 0.20556224882602692], [-0.10811185836791992, -0.37333807349205017, 0.2990891933441162], [0.033242128789424896, -0.047445524483919144, 0.24659065902233124], [-0.03453807905316353, -0.3252449333667755, -0.004655295517295599], [-0.09434378147125244, -0.2692868411540985, 0.10378534346818924], [0.08079881966114044, -0.17817868292331696, 0.08953811228275299], [0.21074631810188293, -0.08036370575428009, -0.045767828822135925], [-0.3015420734882355, -0.16487173736095428, 0.09015694260597229], [-0.18729165196418762, -0.17235013842582703, 0.3045422434806824], [0.1557549238204956, 0.02344226837158203, -0.17376203835010529], [-0.04576434940099716, -0.4122210443019867, -0.10569353401660919], [-0.43795913457870483, -0.1680993288755417, 0.035834334790706635], [-0.08607892692089081, -0.4917638301849365, 0.14246147871017456], [0.3425581753253937, -0.03186316415667534, 0.02894037589430809], [-0.12319597601890564, 0.01465153694152832, -0.01158895157277584], [-0.011848028749227524, -0.18887202441692352, 0.29640525579452515], [-0.11149528622627258, -0.2049848735332489, -0.08712735772132874], [-0.09274988621473312, -0.24795964360237122, -0.17764323949813843], [-0.03664118051528931, -0.13483388721942902, 0.11526602506637573], [0.07700317353010178, -0.39085081219673157, 0.8503528833389282], [0.045088961720466614, -0.1927514374256134, 0.23053964972496033], [-0.24355743825435638, -0.21649636328220367, 0.21587225794792175], [0.03888906165957451, -0.3371921479701996, 0.037503331899642944], [-0.10055676847696304, -0.0254584401845932, 0.18075451254844666], [0.18030190467834473, -0.5121496319770813, 0.060708798468112946], [0.46084341406822205, -0.343524307012558, -0.22629868984222412], [0.23741357028484344, -0.00482496153563261, -0.05429500341415405], [0.17019878327846527, -0.5189070701599121, -0.03844083100557327], [0.07921312004327774, -0.12198518216609955, 0.11085010319948196], [-0.4182593822479248, -0.15549705922603607, -0.04929463565349579], [0.10227612406015396, 1.1074155569076538, -0.43513140082359314], [-0.23792050778865814, 0.17742151021957397, 0.09232395142316818], [0.021315505728125572, 0.20402376353740692, -0.0676993578672409], [-0.2933019995689392, 0.6855126023292542, 0.05900067090988159], [-0.12462963163852692, 0.31549498438835144, -0.22429755330085754], [0.11029379069805145, 0.20888635516166687, 0.048032525926828384], [0.4347708523273468, 0.2958202064037323, -0.10831554234027863], [-0.06896588951349258, 0.2545570731163025, 0.2189038097858429], [-0.03941000998020172, 0.09997575730085373, -0.32283374667167664], [-0.01800086908042431, 0.13723504543304443, -0.19862285256385803], [0.5512200593948364, 0.15344585478305817, -0.22717595100402832], [-0.8136296272277832, 0.24783845245838165, -0.01013127900660038], [-0.7335104942321777, 0.45849180221557617, -0.2847433090209961], [0.7581064701080322, 0.17864571511745453, -0.016012858599424362], [0.12409044802188873, 0.021610306575894356, -0.14111585915088654], [-0.11815914511680603, 0.3160613775253296, -0.0007258662953972816], [0.2441636472940445, 0.02770385704934597, -0.3054356873035431], [-0.13440269231796265, 0.06988322734832764, -0.020951461046934128], [0.11831561475992203, 0.14136435091495514, -0.19759368896484375], [-0.14609931409358978, 0.10489574074745178, -0.09107507765293121], [-0.0718194916844368, 0.12054100632667542, -0.011656787246465683], [0.18982595205307007, 0.11473949253559113, 0.06281337887048721], [0.0865071639418602, 0.02542206645011902, 0.06539350003004074], [-0.22172728180885315, 0.46312350034713745, -0.11887186020612717], [-0.5784361958503723, 0.15813905000686646, 0.05280696973204613], [-0.25977030396461487, 0.10001987963914871, 0.031103812158107758], [0.1941618174314499, -0.054201919585466385, 0.03210121765732765], [-0.20424826443195343, 0.4180050790309906, -0.2059376835823059], [-0.2014012336730957, 0.2400030493736267, 0.13708384335041046], [0.0842837542295456, 0.26012158393859863, 0.09024511277675629], [0.004949395544826984, 0.5070877075195312, -0.11213136464357376], [0.21041736006736755, 0.326025128364563, 0.043026573956012726], [-0.13471949100494385, 0.6124240159988403, -0.29772818088531494], [-0.16866806149482727, 0.12750855088233948, -0.03686589002609253], [0.19072286784648895, 0.3072231709957123, 0.024624790996313095], [0.28594478964805603, 0.361665815114975, -0.03603551536798477], [0.23666079342365265, 0.5091529488563538, -0.0652453601360321], [0.266848623752594, -0.0436205230653286, -0.131519615650177], [0.12527787685394287, 0.011639993637800217, 0.012980367988348007], [0.218300461769104, -0.009285859763622284, -0.04533986747264862], [0.12569168210029602, 0.07539994269609451, -0.007152354810386896], [-0.3763977885246277, 0.2538885176181793, -0.035655997693538666], [-0.188764289021492, 0.25183427333831787, 0.1328837275505066], [0.2748129665851593, 0.14579978585243225, -0.1002207025885582], [0.06273194402456284, -0.10524808615446091, -0.17396830022335052], [0.007398540154099464, 0.33400923013687134, -0.39279454946517944], [0.30867505073547363, 0.6639516949653625, -0.46804437041282654], [0.41322609782218933, 0.3314531147480011, 0.13851511478424072], [-0.1350097358226776, -0.07570083439350128, -0.1706690788269043], [-0.13959404826164246, 0.44373300671577454, 0.02134099416434765], [-0.08435099571943283, 0.04441492632031441, -0.0919274389743805], [-0.0029821747448295355, 0.06161535531282425, 0.02138763852417469], [-0.0030541783198714256, 0.560258686542511, -0.0027153133414685726], [0.3253411054611206, 0.7321643233299255, -0.131799578666687], [-0.09122516959905624, 0.3424397110939026, -0.01312069222331047], [0.16441720724105835, 0.31799304485321045, -0.3433372676372528], [0.234480619430542, 0.10532069206237793, -0.005229600705206394], [0.28339144587516785, 0.15707659721374512, -0.14436398446559906], [0.05568818375468254, 0.1270335167646408, -0.12046904116868973], [0.30106213688850403, 0.16502974927425385, -0.19891685247421265], [0.49714773893356323, -0.06683500111103058, 0.01984805054962635], [0.1628587245941162, -0.07216298580169678, -0.2897142767906189], [-0.001623704214580357, 0.2502497732639313, -0.0637422502040863], [-0.5596300959587097, 0.22020165622234344, -0.11176911741495132], [0.061609722673892975, -0.04571175575256348, 0.06411942839622498], [0.3121125102043152, 0.049991630017757416, -0.1708299070596695], [0.05735049396753311, -0.032306306064128876, 0.05625809729099274], [-0.024087505415081978, 0.07738054543733597, -0.3441343307495117], [0.7078894376754761, 0.03577166795730591, 0.08078231662511826], [-0.15253575146198273, -0.015333851799368858, -0.13685385882854462], [0.64732426404953, -0.05798680707812309, -0.08637019246816635], [-0.2338348776102066, 0.04912108927965164, -0.3334726393222809], [-0.006599840708076954, 0.011897888965904713, -0.16006991267204285], [0.028414839878678322, -0.02345481887459755, -0.06269875168800354], [-0.39338529109954834, 0.06326048076152802, 0.03955736383795738], [0.25200653076171875, 0.03576984256505966, -0.15573222935199738], [-0.3680948317050934, 0.11770712584257126, -0.17197489738464355], [0.4692009389400482, -0.09837976098060608, 0.09037905186414719], [0.009042962454259396, -0.07746047526597977, 0.016721220687031746], [-1.1723130941390991, 0.006803643889725208, 0.09515731781721115], [-0.21693485975265503, 0.04816003516316414, 0.07097910344600677], [0.029015546664595604, -0.08874751627445221, 0.21274393796920776], [-0.07028326392173767, 0.034922339022159576, 0.11961986869573593], [0.03908838331699371, 0.03436915948987007, -0.03410840407013893], [0.43476468324661255, -0.10074525326490402, 0.17096157371997833], [-0.15803535282611847, -0.008501346223056316, -0.11601562798023224], [0.06993386894464493, 0.030987855046987534, 0.1359092891216278], [0.09321346133947372, 0.030927710235118866, -0.13886640965938568], [0.6698918342590332, 0.027980413287878036, -0.10634413361549377], [-0.12228361517190933, -0.0659072995185852, 0.03933605179190636], [0.18144644796848297, -0.09129266440868378, 0.08727657794952393], [0.003753175027668476, -0.051508549600839615, 0.02833116240799427], [0.11197341978549957, -0.04585016146302223, 0.08459395170211792], [-0.127715066075325, -0.014271518215537071, -0.04265477508306503], [-0.026348726823925972, 0.03413829207420349, 0.05665096268057823], [0.16872204840183258, 0.1306355893611908, -0.07084566354751587], [-0.0604805089533329, -0.05868468061089516, 0.1029309555888176], [0.2514053285121918, 0.06347925961017609, 0.006055521313101053], [0.05056915804743767, 0.10091991722583771, -0.22106558084487915], [-0.11670422554016113, -0.09874145686626434, 0.16497112810611725], [0.1847381591796875, -0.03866404667496681, 0.2469647079706192], [-0.30361875891685486, -0.05343607813119888, -0.0013345902552828193], [0.2573896050453186, 0.07304632663726807, 0.030895959585905075], [-0.03102085553109646, 0.07733837515115738, -0.0019894326105713844], [-0.021074024960398674, -0.04497981816530228, 0.008155671879649162], [0.8460049033164978, 0.03471123054623604, -0.04001784697175026], [-0.08668198436498642, 0.04987196996808052, -0.33291855454444885], [0.20763298869132996, -0.09754781424999237, 0.06377257406711578], [-0.04998957738280296, 0.0071313888765871525, -0.04633459076285362], [0.8933354616165161, 0.02688700333237648, -0.08951351046562195], [0.5260015726089478, 0.025353698059916496, 0.05677608773112297], [-0.5327395796775818, 0.07048317790031433, -0.16602350771427155], [0.32725968956947327, -0.061170950531959534, -0.0338045135140419], [0.1301797330379486, 0.09414374828338623, -0.1456635594367981], [0.48520854115486145, 0.07438123226165771, 0.07736484706401825], [0.24114494025707245, -0.0009430676000192761, 0.03506763279438019], [-0.17586860060691833, 0.082962766289711, -0.20798352360725403], [0.41584277153015137, 0.083894744515419, -0.23382970690727234], [0.21334590017795563, 0.010792446322739124, 0.06556490063667297], [0.06851959228515625, 0.021214356645941734, 0.09190866351127625], [0.6507381796836853, -0.11869766563177109, 0.06389261782169342], [0.5878962874412537, 0.06482943892478943, 0.11655855178833008], [0.005921082105487585, -0.04553703963756561, 0.15265287458896637], [0.5524329543113708, -0.033123310655355453, 0.06944271922111511], [0.1814507097005844, -0.08953968435525894, 0.17379574477672577], [-0.06332177668809891, 0.03695635870099068, 0.05496592074632645], [0.06301089376211166, 0.09925470501184464, -0.2431732565164566], [-0.19810257852077484, -0.06980190426111221, 0.08017949014902115], [0.2135198563337326, -0.1951490193605423, 0.4096869230270386], [-0.3091886341571808, -0.06702815741300583, 0.1220976933836937], [0.07247690856456757, -0.2687353193759918, 0.03048270381987095], [0.07738858461380005, 0.04529310017824173, 0.38144969940185547], [-0.13852620124816895, -0.2843897342681885, 0.054168231785297394], [0.17569339275360107, -0.03534261882305145, 0.10208750516176224], [0.4039529860019684, -0.12231602519750595, -0.09217027574777603], [0.09646452218294144, -0.0864245593547821, 0.24804037809371948], [0.16263356804847717, -0.28140687942504883, 0.13264258205890656], [-0.025992166250944138, -0.07977275550365448, -0.005080258008092642], [0.42343267798423767, -0.05663032457232475, -0.16806840896606445], [-0.8173286318778992, -0.332296222448349, 0.17157785594463348], [-0.3113715350627899, -0.20567338168621063, 0.15222015976905823], [0.3586271405220032, -0.04195844382047653, 0.0749116837978363], [0.16313917934894562, -0.11762748658657074, 0.02323177084326744], [-0.4824915826320648, -0.04608539491891861, 0.18287837505340576], [0.17475959658622742, -0.29459694027900696, -0.21444270014762878], [-0.008474384434521198, -0.5906010866165161, 0.24229444563388824], [0.12543021142482758, -0.4115520417690277, 0.11810699850320816], [0.04627110809087753, -0.10903137922286987, 0.06222422420978546], [0.07922063767910004, -0.07640188932418823, -0.13746710121631622], [-0.0023423584643751383, -0.2682526111602783, 0.1118050143122673], [-0.03552787005901337, -0.1606660634279251, -0.13631995022296906], [-0.3503401279449463, -0.3271094560623169, 0.3525541424751282], [-0.33914637565612793, -0.1022678017616272, 0.08278848230838776], [-0.07647357881069183, -0.16034859418869019, -0.09147165715694427], [0.38963988423347473, -0.1966245472431183, 0.1783231496810913], [-0.23506785929203033, -0.18728579580783844, 0.03133587911725044], [-0.22706112265586853, -0.23727625608444214, 0.07809429615736008], [0.22421616315841675, -0.38797876238822937, 0.1630261093378067], [0.09228917211294174, -0.036879923194646835, 0.023005595430731773], [0.18020333349704742, -0.0775405690073967, -0.011174606159329414], [-0.02353314869105816, -0.13205242156982422, -0.04954839497804642], [-0.08263301849365234, -0.0491819828748703, -0.06145709753036499], [0.13233976066112518, -0.30020397901535034, 0.1571100950241089], [-0.14706110954284668, -0.12229153513908386, 0.2772682309150696], [-0.07504723966121674, -0.005867843050509691, 0.24733924865722656], [-0.02855556830763817, -0.18553271889686584, 0.08580373227596283], [-0.18757593631744385, -0.20184145867824554, 0.04593641683459282], [0.2529742121696472, -0.06214841082692146, 0.16237559914588928], [0.13433507084846497, -0.17042559385299683, 0.01789073646068573], [-0.3723829388618469, 0.012997058220207691, -0.048458147794008255], [-0.02409493550658226, -0.10906635224819183, 0.12984780967235565], [0.03481345996260643, -0.03241266310214996, -0.1714608371257782], [0.00738012557849288, -0.44795799255371094, 0.03002014569938183], [-0.38982921838760376, -0.2748165428638458, -0.02981269545853138], [0.1021871343255043, -0.39451923966407776, 0.06633225828409195], [0.19229423999786377, -0.11223501712083817, 0.0626179501414299], [0.021992377936840057, -0.18168538808822632, -0.18341706693172455], [-0.12930750846862793, -0.2539428770542145, 0.1456531584262848], [0.07555625587701797, -0.14890389144420624, -0.20711779594421387], [0.014247754588723183, -0.30867302417755127, -0.056722186505794525], [-0.0591794028878212, 0.015687158331274986, 0.14986909925937653], [0.046208012849092484, -0.3310205638408661, 0.715596616268158], [0.02070535719394684, 0.03801807388663292, 0.033959344029426575], [-0.004524678457528353, -0.2180711030960083, 0.11196154356002808], [-0.022595340386033058, -0.35439595580101013, -0.07036931067705154], [0.010252627544105053, -0.12497864663600922, 0.08719423413276672], [0.09098447859287262, -0.3415203094482422, 0.04735611006617546], [0.4652387201786041, -0.2726130783557892, -0.16704173386096954], [0.31560906767845154, -0.18895351886749268, 0.07838908582925797], [-0.0021201465278863907, -0.5534787774085999, 0.09327368438243866], [-0.08092866092920303, -0.15314261615276337, 0.11053009331226349], [-0.28624287247657776, -0.11827275156974792, -0.23806829750537872]], "lstm.weight_hh_l0": [[0.004612716846168041, -0.30138254165649414, 0.0719887912273407, -0.7008962035179138, -0.06197833642363548, -0.12691400945186615, 0.08438052982091904, -0.37185099720954895, -0.3465519845485687, -0.08494052290916443, 0.17852303385734558, 0.05578511580824852, -0.22949892282485962, 0.42366844415664673, 0.18853561580181122, 0.5750016570091248, -0.34211301803588867, 0.15689879655838013, 0.1012786477804184, 0.16500161588191986, 0.530258297920227, 0.16998545825481415, -0.09036856889724731, 0.050402361899614334, -0.13577581942081451, 0.15222153067588806, 0.183832049369812, 0.27397483587265015, 0.08879674971103668, -0.21859215199947357, 0.7822506427764893, -0.014822498895227909, -0.14497511088848114, -0.2432175725698471, -0.16645996272563934, 0.46077585220336914, 0.5819032192230225, 0.2908412218093872, 0.004021062050014734, -0.26429855823516846, 0.3643542230129242, -0.23224414885044098, -0.38318005204200745, 0.4814409911632538, -0.1055578738451004, -0.6385424137115479, 0.9642323851585388, -0.31350383162498474, -0.11096782982349396, 0.006059437058866024, -0.06469377130270004, -0.3191162049770355, -0.5111450552940369, -0.2348242700099945, 0.06406975537538528, 0.15093755722045898, -0.031109828501939774, 0.03713400289416313, -0.10771682113409042, 0.2701468765735626, 0.4357014298439026, 0.032662585377693176, -0.23885445296764374, 0.3595598042011261], [-0.5498639345169067, -0.014561855234205723, -0.07512709498405457, -0.268717497587204, 0.29708316922187805, -0.2756826877593994, -0.10823071748018265, -0.20246826112270355, -0.10828300565481186, 0.1378146857023239, -0.22000724077224731, 0.03792719170451164, -0.021239669993519783, 0.523565948009491, 0.0751737654209137, -0.1701456904411316, -0.12242162972688675, -0.21155652403831482, -0.10623931139707565, -0.2991500198841095, 0.1797381490468979, -0.2838113009929657, 0.29860788583755493, 0.05191712826490402, 0.05282405763864517, -0.06119183823466301, 0.4633096158504486, -0.13940976560115814, 0.4607359766960144, -0.20804433524608612, 0.2199489027261734, -0.015477580018341541, -0.058780573308467865, 0.1806151121854782, -0.27972403168678284, 0.021078456193208694, 0.23841387033462524, -0.021092256531119347, -0.06472035497426987, -0.3510574400424957, 0.06640317291021347, 0.09891842305660248, -0.15057970583438873, 0.36763516068458557, 0.23624862730503082, -0.017660101875662804, 0.27579501271247864, -0.4731779992580414, 0.13583144545555115, -0.11921598762273788, 0.2858324348926544, 0.29051652550697327, -0.3313256800174713, -0.16985134780406952, 0.09513773024082184, -0.07193530350923538, 0.264566034078598, 0.2820466458797455, -0.22746707499027252, -0.03363596647977829, 0.1715770810842514, -0.17822077870368958, -0.0427570641040802, -0.11430094391107559], [0.2644554674625397, -0.41675037145614624, -0.001963016577064991, -0.2231271117925644, -0.4354906976222992, -0.013054528273642063, 0.01428707130253315, -0.05938690900802612, -0.361286997795105, 0.25148147344589233, 0.06379718333482742, -0.5162199139595032, -0.439287394285202, 0.02800757996737957, -0.15246833860874176, 0.6558552980422974, 0.09503383934497833, 0.38487672805786133, -0.04989112541079521, 0.059611670672893524, 0.24019359052181244, 0.24465808272361755, -0.0018673191079869866, -0.5926544666290283, -0.6911712288856506, 0.35196956992149353, -0.010725367814302444, 0.15160296857357025, -0.11677490174770355, -0.06644608825445175, 0.5536348223686218, -0.34256869554519653, 0.15480679273605347, 0.038143742829561234, -0.2190352976322174, 0.325054794549942, 0.43293213844299316, 0.0687856525182724, 0.006291473750025034, 0.03179820999503136, 0.06998895108699799, -0.5273752212524414, -0.19601888954639435, -0.1068226769566536, -0.17179681360721588, -0.04069460183382034, -0.05585910379886627, -0.2501771152019501, -0.04411981999874115, 0.06631248444318771, -0.315200537443161, -0.26135584712028503, -0.032014310359954834, 0.056678563356399536, -0.2221316546201706, -0.007667395751923323, -0.1639871448278427, -0.34784218668937683, 0.06749404221773148, -0.11783555150032043, 0.05112064257264137, 0.17671655118465424, 0.1490534543991089, 0.24135228991508484], [0.7698342800140381, -0.1862504631280899, -0.015999862924218178, 0.060278650373220444, 0.43391865491867065, -0.37901103496551514, -0.26662394404411316, -0.6781144142150879, -1.7508751153945923, -0.07656067609786987, 0.2779201567173004, 0.08453244715929031, -0.16547389328479767, 0.4476774036884308, 0.878616213798523, 0.5833591818809509, -0.5775395631790161, -0.20339174568653107, -0.5818993449211121, -0.12383746355772018, 0.33185553550720215, 0.14410501718521118, 0.21886178851127625, -0.08260764926671982, -0.09745374321937561, -0.007954594679176807, 0.0505233034491539, -0.13860811293125153, 0.48822954297065735, 0.3804638087749481, 1.5622062683105469, 0.09609232097864151, -0.05065938085317612, 0.03931692987680435, -0.01483174692839384, 0.0022051187697798014, 0.883180558681488, 0.04245220124721527, 0.4446963667869568, 0.011216939426958561, 0.32905831933021545, 0.1513105183839798, -0.9408795833587646, 0.7615968585014343, -0.7052522897720337, -0.14767774939537048, 1.0795159339904785, -0.3056505024433136, -0.06558936834335327, 0.13811948895454407, 0.1294408142566681, 0.09398429095745087, -0.784435510635376, -0.03008587472140789, 0.23400846123695374, 0.5822051167488098, 0.2757628858089447, 0.12276943773031235, 1.1671160459518433, 0.390920490026474, 0.7777677774429321, 0.3223832845687866, -0.3122217357158661, 0.1919141709804535], [0.242027148604393, -0.4577094614505768, 0.3002557158470154, -0.381409227848053, 0.020850228145718575, -0.10695135593414307, -0.0335736945271492, 0.017596447840332985, -0.3225506842136383, -0.014277039095759392, -0.053897496312856674, 0.16394494473934174, -0.692598819732666, 0.20968297123908997, -0.000523760390933603, 0.4684891700744629, -0.010532506741583347, 0.09222514182329178, 0.33977872133255005, 0.05332352593541145, 0.026747899129986763, -0.049138691276311874, -0.06476054340600967, -0.08997153490781784, -0.30540987849235535, 0.2961462140083313, -0.07879457622766495, 0.2604508399963379, 0.1453559249639511, -0.04480661451816559, 0.26816439628601074, -0.3716147243976593, -0.122137650847435, 0.012370671145617962, -0.22678710520267487, 0.18672771751880646, 0.41944077610969543, -0.07084871083498001, -0.08146268129348755, -0.27006006240844727, 0.12207074463367462, -0.5275096297264099, -0.6302639245986938, -0.18921570479869843, -0.10321298241615295, -0.04837343469262123, 0.4325524568557739, 0.07944122701883316, 0.07390081882476807, -0.31628578901290894, -0.04606645181775093, -0.12656329572200775, -0.15467992424964905, -0.24191074073314667, -0.04395274817943573, -0.22932212054729462, -0.09603995829820633, -0.18200910091400146, -0.13515716791152954, -0.20164130628108978, 0.3022373914718628, 0.1661500632762909, -0.27676305174827576, 0.3589867055416107], [-0.34748223423957825, -0.009894763119518757, 0.07986132055521011, -0.42857396602630615, 0.11623574048280716, -0.10784925520420074, 0.15806415677070618, -0.3048984706401825, 0.11387219280004501, -0.01935124583542347, -0.0669783353805542, 0.028608420863747597, -0.564582109451294, 0.24705658853054047, 0.032207321375608444, -0.057667214423418045, -0.17452266812324524, -0.18981923162937164, 0.13863447308540344, 0.07192244380712509, 0.10557336360216141, -0.08471889048814774, 0.009225579909980297, -0.18140463531017303, -0.023721270263195038, 0.31736788153648376, 0.1568652242422104, 0.10465933382511139, 0.12940536439418793, -0.1536751240491867, -0.14262038469314575, -0.12532049417495728, -0.028598519042134285, -0.10749948024749756, -0.22092360258102417, 0.08515678346157074, 0.4303396940231323, -0.03793298453092575, 0.19137150049209595, -0.18595397472381592, -0.00873356219381094, -0.03808901086449623, -0.311074435710907, -0.06035508215427399, -0.024150824174284935, 0.19610455632209778, -0.07051579654216766, -0.14536872506141663, -0.03360677883028984, 0.03414418548345566, 0.1344665288925171, 0.09859640151262283, -0.4506185054779053, -0.40152794122695923, 0.1784752905368805, 0.09644361585378647, 0.1419192999601364, -0.004736114758998156, -0.21048137545585632, -0.07707350701093674, 0.17262279987335205, 0.1472984105348587, -0.4554513394832611, 0.04223915562033653], [0.4598435163497925, -0.37434616684913635, 0.3133336007595062, -0.3666956424713135, 0.1153956800699234, -0.010745314881205559, -0.0006857066182419658, -0.08744654804468155, -0.33352598547935486, -0.025220613926649094, 0.3558942377567291, 0.006108254659920931, -0.103824682533741, 0.08501433581113815, 0.01847701147198677, 0.14156079292297363, -0.23980045318603516, -0.30996283888816833, -0.00723163690418005, 0.06054316461086273, 0.20127005875110626, 0.019994422793388367, -0.05479886755347252, -0.14583729207515717, -0.3297026455402374, 0.37535566091537476, 0.03136527165770531, 0.38959386944770813, 0.13240289688110352, 0.06423260271549225, 0.4424315392971039, 0.04554319754242897, -0.020290285348892212, 0.10259267687797546, 0.054989442229270935, 0.19704464077949524, 0.3638099133968353, -0.26745307445526123, 0.11607600003480911, 0.09761472791433334, 0.07216443121433258, -0.31046077609062195, -0.1430310308933258, -0.0647311881184578, 0.014451111666858196, 0.024953005835413933, 0.11436498165130615, -0.0688929557800293, 0.030146067962050438, -0.09096582233905792, 0.022331170737743378, 0.08593233674764633, -0.38396090269088745, -0.030604630708694458, 0.00753748556599021, 0.36331623792648315, 0.1252889782190323, 0.08461397886276245, 0.13551656901836395, 0.021852336823940277, 0.09640582650899887, 0.03930753841996193, -0.17519639432430267, 0.17792987823486328], [0.3547670245170593, -0.3397687077522278, 0.062379300594329834, -0.41841521859169006, -0.10272368043661118, -0.01859316974878311, -0.11488719284534454, -0.04786127433180809, -0.4032994508743286, -0.09430362284183502, 0.25986698269844055, -0.4264879524707794, -0.340535432100296, 0.031598251312971115, 0.06991253793239594, 0.592849850654602, 0.13123345375061035, 0.2544236481189728, 0.4721043109893799, 0.14750178158283234, 0.24036726355552673, 0.02323594130575657, 0.025104805827140808, -0.3025120198726654, -0.25236430764198303, 0.3045065402984619, -0.11342962086200714, 0.279777467250824, -0.11782053112983704, 0.09782145172357559, 0.4848513901233673, -0.35873541235923767, 0.22346845269203186, -0.13968950510025024, -0.05962330475449562, 0.3392002284526825, 0.2247714400291443, 0.2436719536781311, -0.10203349590301514, 0.15628579258918762, 0.2082107663154602, -0.4619954526424408, -0.14536167681217194, -0.025818444788455963, -0.018531041219830513, -0.35504150390625, 0.09213165938854218, -0.17879879474639893, -0.2374359518289566, -0.1829403191804886, 0.01867448352277279, -0.17761723697185516, -0.12987004220485687, -0.03733915835618973, -0.22337456047534943, 0.028088843449950218, -0.1492016762495041, -0.17951807379722595, 0.18348930776119232, 0.10007014870643616, 0.16986533999443054, 0.1672898381948471, -0.2632654011249542, 0.3410152196884155], [0.2011582851409912, -0.013670976273715496, 0.4668860137462616, -0.3399926722049713, 0.17713728547096252, 0.09660795331001282, 0.47120988368988037, -0.16542504727840424, -0.004256209824234247, -0.43580934405326843, -0.02159426175057888, 0.5456975102424622, -0.014632794074714184, 0.4881039559841156, 0.02277456223964691, -0.013118011876940727, -0.20307277143001556, -0.3206455409526825, 0.19162486493587494, 0.1982298195362091, 0.2445339858531952, -0.24417844414710999, 0.06374207884073257, -0.30814453959465027, 0.20189650356769562, 0.19307219982147217, 0.1693980097770691, 0.22656673192977905, 0.31455451250076294, 0.2411285787820816, 0.020212363451719284, 0.33076032996177673, -0.3872864842414856, -0.1305311918258667, -0.04854912310838699, 0.14896433055400848, 0.35518625378608704, -0.06446970999240875, 0.1916443556547165, -0.04059702157974243, 0.10614176094532013, -0.06502269953489304, -0.18438316881656647, -0.0027936999686062336, -1.0689153896237258e-05, 0.25132444500923157, -0.01992025226354599, -0.4569436013698578, 0.00466378778219223, 0.044056426733732224, 0.10890360176563263, 0.09675271809101105, -0.8563254475593567, -0.1103656142950058, 0.29273056983947754, -0.367271363735199, 0.4878636300563812, 0.4325925409793854, -0.4590546488761902, -0.051267921924591064, 0.2617689371109009, 0.22839555144309998, 0.23683728277683258, 0.3813275396823883], [0.06489325314760208, -0.6468672752380371, 0.16189908981323242, -0.09071861952543259, -0.1129026710987091, 0.0861448273062706, -0.005218766629695892, 1.1238301340199541e-05, -0.2383086085319519, -0.02240021526813507, 0.2566085457801819, -0.5140932202339172, -0.26054078340530396, -0.1333283931016922, -0.017004748806357384, 0.4975837469100952, 0.015121735632419586, -0.10738437622785568, 0.2040896713733673, 0.05666079744696617, 0.21078640222549438, 0.17067521810531616, -0.02602323517203331, -0.3793453276157379, -0.5760334730148315, 0.45530250668525696, -0.15917205810546875, -0.059781044721603394, 0.06953632086515427, 0.3662607967853546, 0.20806452631950378, -0.11792800575494766, 0.1634196937084198, 0.07599904388189316, -0.024974307045340538, 0.33798614144325256, 0.26848456263542175, 0.018758822232484818, 0.06764362007379532, -0.13452273607254028, 0.09496147185564041, -0.3440585136413574, -0.12270912528038025, -0.11357181519269943, -0.3194439113140106, -0.053176335990428925, 0.09734879434108734, 0.11511378735303879, 0.15376630425453186, 0.04044407978653908, 0.16874676942825317, -0.22375653684139252, -0.12171991169452667, -0.03726339340209961, -0.060847073793411255, 0.050557807087898254, -0.09642720222473145, -0.2653382122516632, 0.014356088824570179, -0.05260533094406128, 0.12499631941318512, 0.12822973728179932, -0.06780675798654556, 0.03333697468042374], [-0.08313210308551788, -0.07314852625131607, -0.09025198221206665, 0.06467404961585999, -0.044466130435466766, -0.13991869986057281, -0.14636653661727905, -0.08402150124311447, -0.22778534889221191, 0.22326132655143738, -0.12657023966312408, 0.05397599935531616, -0.21770426630973816, 0.004349421709775925, 0.0668891966342926, 0.0758451521396637, -0.08677029609680176, -0.04229208081960678, -0.04772322624921799, 0.09607797116041183, 0.16955891251564026, 0.09815888851881027, -0.05325602740049362, -0.0873885452747345, -0.22793975472450256, 0.03597157821059227, -0.43701818585395813, 0.15271508693695068, 0.2905535399913788, 0.21573574841022491, 0.16307903826236725, -0.2882896065711975, 0.001735739060677588, 0.14689786732196808, 0.1859779804944992, -0.1811249852180481, 0.1357519030570984, -0.0887908935546875, -0.0684671401977539, 0.007772222626954317, 0.08181281387805939, 0.08319433033466339, -0.2238352745771408, 0.013950464315712452, -0.08596424013376236, 0.24836422502994537, 0.0690397173166275, -0.020305875688791275, 0.11732453852891922, 0.004917967598885298, 0.1836526244878769, 0.06187501549720764, 0.04975401982665062, -0.03772975504398346, 0.01843680441379547, 0.02364782616496086, -0.06224208325147629, -0.031922098249197006, 0.13483011722564697, -0.00466261338442564, 0.14946192502975464, -0.1055198535323143, 0.010738749988377094, -0.0909447893500328], [-0.43643641471862793, -0.3270552158355713, -0.3241187334060669, -0.5136814117431641, -0.2998405396938324, -0.2347354292869568, -0.5955721735954285, -0.2892514765262604, -0.5662084817886353, 0.09433609247207642, -0.07307316362857819, -0.5015620589256287, 0.3262411952018738, -0.019127510488033295, -0.17239411175251007, 0.6204841732978821, 0.7485908269882202, 0.05747886374592781, 0.5576742887496948, -0.24025385081768036, 0.4436410963535309, -0.07692407816648483, 0.5505571961402893, 0.10040973871946335, -0.32905444502830505, -0.13954150676727295, -0.3542650640010834, -0.39095187187194824, -0.11156323552131653, 0.04177089408040047, 0.615781843662262, -0.654281497001648, 0.23530612885951996, 0.2642368674278259, -0.2715855538845062, -0.004385359585285187, 0.32169002294540405, 0.5273023247718811, -0.4672291874885559, 0.006710435729473829, 0.2734127640724182, -0.14092609286308289, -0.3285406231880188, 0.08567382395267487, 0.23337000608444214, -0.6541497707366943, -0.6168545484542847, -0.5601791739463806, 0.22107084095478058, -0.4078398644924164, 0.10808782279491425, 0.11322670429944992, -0.0016497746109962463, -0.09004592150449753, -0.6677045226097107, -0.025780251249670982, -0.3888452649116516, -0.2300996333360672, -0.127273827791214, -0.3186871111392975, 0.318684846162796, -0.07402040809392929, -0.3467804789543152, 0.08256576955318451], [-0.2189602106809616, -0.23795053362846375, -0.08378031849861145, -0.5327429175376892, -0.013519411906599998, -0.3282362222671509, -0.30859729647636414, -0.6419892311096191, -0.5420825481414795, -0.2666068375110626, -0.051708564162254333, 0.5556136965751648, 0.1296568512916565, 0.40998563170433044, 0.1785074919462204, 0.6787887811660767, 0.13473892211914062, -0.2976287603378296, 0.009721795096993446, -0.23553670942783356, 0.3695152997970581, -0.34679168462753296, 0.3535802662372589, 0.6491891145706177, -0.20393848419189453, -0.24922390282154083, -0.048299938440322876, -0.04334213584661484, 1.3568252325057983, -0.07882043719291687, 0.43172740936279297, -0.31054139137268066, 0.04456586763262749, 0.20166178047657013, -0.47693750262260437, -0.2959839105606079, 0.5887458324432373, 0.13308532536029816, -0.5026199221611023, -0.27550074458122253, -0.12425871193408966, 0.13897040486335754, -0.3795052170753479, 0.3867664635181427, 0.33388441801071167, -0.31365302205085754, -0.04742548614740372, -0.34468796849250793, 0.22674047946929932, -0.6006923913955688, 0.11746726185083389, 0.23633146286010742, -0.6120728254318237, -0.4352903664112091, -0.025950191542506218, 0.12849150598049164, 0.10920470952987671, 0.02016701176762581, -0.1344756931066513, -0.1688702553510666, 0.36284855008125305, -0.2373647838830948, -0.5593690276145935, 0.0739133358001709], [-0.04773753508925438, -0.16416946053504944, 0.05220293253660202, -0.17891807854175568, -0.2342604547739029, 0.09177687764167786, -0.09756581485271454, -0.06704778969287872, -0.2670188844203949, -0.20907732844352722, -0.155314639210701, 0.13033516705036163, -0.3642318546772003, 0.048704203218221664, -0.006064141169190407, 0.3461344540119171, -0.12877285480499268, 0.15337596833705902, 0.22284603118896484, -0.02722037024796009, 0.03180353716015816, 0.043953534215688705, 0.088793084025383, -0.09616030752658844, -0.18963755667209625, 0.0031821795273572206, -0.32359570264816284, 0.322326123714447, 0.2516564428806305, -0.023164847865700722, 0.39303746819496155, -0.22896209359169006, 0.06079074740409851, -0.03344785422086716, -0.12172647565603256, 0.0920904278755188, 0.2345208376646042, 0.13217583298683167, -0.11808855831623077, -0.11676192283630371, 0.03647040203213692, -0.26518866419792175, -0.33794549107551575, 0.07525569945573807, 0.015865208581089973, 0.1250404566526413, 0.07914046943187714, -0.23627299070358276, 0.06594663113355637, -0.2135000079870224, -0.0513070747256279, -0.16402028501033783, -0.29413020610809326, -0.26212871074676514, -0.06396178901195526, 0.03137577697634697, -0.15915028750896454, -0.14522840082645416, -0.12589716911315918, -0.10627073794603348, 0.08470022678375244, -0.1192505806684494, -0.09378261119127274, 0.35762256383895874], [-0.33588019013404846, 0.0544152557849884, -0.1425294131040573, -0.5894357562065125, 0.036220185458660126, -0.2358345091342926, -0.2000790685415268, -0.00733640231192112, 0.08960044384002686, 0.19662268459796906, 0.0785171315073967, 0.006622530985623598, 0.02143736183643341, -0.0749603658914566, -0.05693158134818077, 0.0773596316576004, 0.2042362540960312, 0.02909529022872448, 0.4744223654270172, -0.35191619396209717, 0.1413602977991104, -0.09391693025827408, 0.42322009801864624, 0.12204785645008087, -0.09706694632768631, -0.015509424731135368, 0.2830296456813812, -0.07888513058423996, -0.051305416971445084, -0.5477471947669983, 0.30183956027030945, -0.285627156496048, 0.030783148482441902, 0.17317435145378113, -0.2656022012233734, 0.20130975544452667, -0.018318310379981995, 0.49827393889427185, 0.047714803367853165, 0.0033375972416251898, -0.14497341215610504, 0.05803915858268738, 0.19982554018497467, 0.10914912819862366, -0.038441259413957596, -0.13486143946647644, 0.11805355548858643, -0.4051678478717804, 0.09164275228977203, -0.16894622147083282, 0.3303498327732086, 0.08195216953754425, 0.11613592505455017, -0.23612737655639648, -0.4031403958797455, -0.16900700330734253, 0.07166646420955658, 0.06587258726358414, -0.07222374528646469, -0.08032108843326569, 0.10593903809785843, 0.023746490478515625, 0.03115946054458618, -0.08163397014141083], [-0.2048589140176773, -0.07417895644903183, 0.17520417273044586, -0.21836179494857788, 0.13480861485004425, -0.38841208815574646, -0.02366199903190136, -0.1867680847644806, -0.3608091473579407, -0.19715365767478943, -0.2676112651824951, 0.25970974564552307, -0.6038253307342529, 0.4180627465248108, 0.1927305907011032, 0.021128319203853607, -0.3603129982948303, -0.15999183058738708, -0.06653624027967453, -0.07807784527540207, 0.2138763666152954, -0.2626849412918091, -0.002068230416625738, 0.027208205312490463, -0.08234282582998276, 0.10392757505178452, 0.13237705826759338, 0.31656426191329956, 0.6616465449333191, -0.3272767961025238, 0.23445676267147064, -0.4461935758590698, -0.12745897471904755, -0.2491692453622818, -0.4742426574230194, -0.15056651830673218, 0.4772307276725769, -0.25728026032447815, 0.11593002080917358, -0.480792373418808, 0.08724478632211685, -0.018067900091409683, -0.5085819959640503, -0.0055984375067055225, 0.09530376642942429, 0.17332448065280914, 0.5813680291175842, -0.5098905563354492, -0.12802141904830933, -0.24045445024967194, 0.190086230635643, 0.10774654150009155, -0.5563057065010071, -0.17847809195518494, 0.13561195135116577, -0.18454885482788086, 0.3721071779727936, 0.2740795910358429, -0.14238230884075165, -0.1444050818681717, 0.3169524669647217, -0.21491631865501404, -0.47544625401496887, 0.572397768497467], [-0.2659967839717865, -0.32017675042152405, 0.06720512360334396, -0.48117050528526306, 0.06851477921009064, -0.11808215081691742, 0.09797663986682892, -0.14317047595977783, -0.5147525668144226, 0.2660750448703766, 0.1625278741121292, 0.0007164735579863191, 0.0187514740973711, 0.15827606618404388, 0.011406537145376205, 0.3087586462497711, 0.09850840270519257, 0.08048783242702484, 0.0679704025387764, -0.09439332038164139, 0.1550159603357315, -0.1618313193321228, 0.12715770304203033, 0.12495780736207962, -0.4124045670032501, 0.21558494865894318, -0.22490520775318146, -0.2455226182937622, 0.06906260550022125, 0.12010795623064041, 0.41766390204429626, -0.3746989965438843, 0.19251161813735962, 0.28439268469810486, -0.07436186075210571, 0.17237365245819092, 0.083882175385952, 0.10946067422628403, -0.0014745575608685613, -0.11308400332927704, 0.08639833331108093, 0.046313993632793427, -0.08166461437940598, 0.04384830221533775, -0.059725984930992126, -0.1505270153284073, 0.37806105613708496, -0.2968671917915344, 0.1361125409603119, -0.27062663435935974, 0.14436064660549164, 0.06569309532642365, 0.022381171584129333, -0.010950395837426186, -0.3465369641780853, 0.14925462007522583, -0.014603049494326115, -0.2842792272567749, -0.12290512770414352, -0.04446659982204437, 0.14196382462978363, 0.10682132095098495, -0.21916407346725464, 0.006618930026888847], [-0.17461730539798737, -0.33869698643684387, 0.3805291950702667, -1.1587549448013306, 0.09504220634698868, -0.41150933504104614, -0.307995080947876, -0.5395392775535583, -0.34879180788993835, 0.28040623664855957, -0.04550633206963539, -0.2805309593677521, -0.1008491963148117, 0.2944659888744354, 0.24375146627426147, 0.4734686613082886, 0.09285083413124084, 0.1797158420085907, 0.08975910395383835, -0.4398493766784668, 0.6492945551872253, -0.01657073199748993, 0.5864293575286865, -0.06888478249311447, -0.4113673269748688, 0.10305017977952957, 0.40063852071762085, -0.14246110618114471, 0.35585731267929077, -0.3562578856945038, 0.061567652970552444, -0.6770191192626953, 0.14142285287380219, 0.2570352852344513, -0.7019650936126709, 0.0676412433385849, 0.17623193562030792, -0.11694802343845367, -0.40933895111083984, -0.46742987632751465, -0.03412029519677162, -0.03772950544953346, -0.3554501235485077, 0.363190621137619, 0.017078258097171783, -0.3600056767463684, -0.33375388383865356, -0.6441535949707031, 0.25853168964385986, -0.7413467168807983, 0.22970649600028992, 0.20101360976696014, -0.30629298090934753, -1.1806695461273193, -0.2483890950679779, -0.13186684250831604, 0.22671176493167877, 0.12779130041599274, -0.02296767756342888, 0.11465975642204285, 0.46500062942504883, -0.05427955836057663, -1.0643935203552246, -0.15805302560329437], [-0.3265247941017151, 0.06052250415086746, 0.003816831624135375, -0.25700443983078003, 0.09732624888420105, -0.07197844237089157, 0.19478507339954376, -0.30119261145591736, -0.3566216826438904, 0.28668221831321716, 0.12490474432706833, -0.0037749239709228277, -0.24261800944805145, 0.09660598635673523, -0.14613215625286102, 0.04766564816236496, -0.0065125213004648685, 0.07806935906410217, 0.17813421785831451, 0.0026388673577457666, 0.24417339265346527, -0.08702059090137482, -0.008045651018619537, -0.06650198996067047, -0.05259585753083229, 0.041602302342653275, -0.038018569350242615, -0.1495598554611206, 0.06394375115633011, 0.07490845769643784, 0.28102514147758484, -0.25345855951309204, -0.038777921348810196, 0.13137605786323547, -0.06042313575744629, 0.047708660364151, 0.23617412149906158, -0.1042356938123703, 0.25162145495414734, -0.05370503291487694, -0.05426758527755737, 0.08496885746717453, -0.17762799561023712, 0.36257869005203247, -0.15676698088645935, 0.14363279938697815, 0.7577096223831177, -0.3045390248298645, 0.09057343751192093, 0.10628370195627213, 0.024703985080122948, 0.08103690296411514, -0.18131251633167267, 0.032308150082826614, -0.15237227082252502, -0.07595501095056534, 0.1355774700641632, 0.011757067404687405, 0.08981452882289886, -0.07566123455762863, 0.07510381937026978, 0.07534372806549072, -0.18320652842521667, -0.09565917402505875], [-0.11841984838247299, -0.10622169077396393, 0.06476487964391708, -0.21604815125465393, 0.18564243614673615, -0.18195798993110657, 0.138540118932724, -0.20896625518798828, -0.03071572072803974, 0.09180748462677002, -0.10449770092964172, 0.10938302427530289, -0.17504599690437317, 0.15264755487442017, -0.05436944589018822, 0.07552571594715118, -0.030331231653690338, 0.028535017743706703, -0.0140145942568779, -0.14763770997524261, 0.02295580878853798, -0.029055234044790268, 0.00839080661535263, -0.10488718003034592, -0.0841403678059578, 0.12424036115407944, 0.29631805419921875, 0.034657981246709824, 0.27072036266326904, -0.3985894024372101, -0.030222566798329353, -0.0007864994113333523, 0.014664641581475735, 0.030798323452472687, -0.28092676401138306, 0.15422989428043365, 0.2887500524520874, -0.056230343878269196, 0.10850527137517929, -0.10733092576265335, 0.10458163917064667, -0.013638803735375404, -0.23863357305526733, 0.07649532705545425, -0.11429807543754578, 0.18162916600704193, 0.007361424621194601, -0.082661472260952, 0.027831995859742165, -0.12466493248939514, -0.031817320734262466, 0.1212618350982666, -0.29094043374061584, -0.2057589590549469, -0.04157227277755737, -0.037514615803956985, 0.09020818024873734, 0.0062071336433291435, -0.16754527390003204, -0.09938539564609528, 0.06471840292215347, -0.0893363207578659, -0.15652801096439362, -0.07597173750400543], [0.03374408558011055, -0.14277781546115875, -0.06316003948450089, -0.23771162331104279, -0.17946027219295502, -0.007696973159909248, 0.008845840580761433, -0.02950907312333584, -0.30679386854171753, -0.021123090758919716, 0.073637455701828, 0.194498673081398, -0.03332127258181572, -0.08908705413341522, -0.07965953648090363, 0.5789340734481812, 0.10743828862905502, -0.07724732160568237, 0.24686557054519653, 0.06492359191179276, -0.06354784220457077, 0.048469822853803635, 0.16187162697315216, 0.003957848064601421, -0.15649433434009552, 0.19439111649990082, -0.16125081479549408, 0.10218790173530579, 0.21334151923656464, 0.09890933334827423, 0.08357593417167664, -0.15726083517074585, -0.1421494036912918, 0.09812616556882858, 0.05831194669008255, -0.08794780820608139, 0.04855827987194061, 0.13013924658298492, 0.012314502149820328, 0.00031654699705541134, -0.14902442693710327, -0.41990771889686584, -0.19913950562477112, -0.17304831743240356, 0.08113450556993484, -0.020989593118429184, -0.05287439748644829, 0.155214324593544, 0.054982203990221024, -0.015673980116844177, -0.11213430762290955, -0.11372946947813034, -0.019242379814386368, 0.006151909474283457, 0.030409786850214005, -0.0913686752319336, -0.14876249432563782, -0.18893973529338837, 0.045257631689310074, -0.015417304821312428, -0.008563211187720299, 0.11887584626674652, 0.005576119292527437, 0.0517314188182354], [0.1848796010017395, -0.2845098376274109, -0.18189814686775208, -0.47242745757102966, 0.1385635882616043, -0.23051895201206207, -0.294559121131897, -0.20821283757686615, -0.4738304615020752, -0.0223004799336195, -0.293366014957428, -0.08904646337032318, -0.34162256121635437, 0.3455854654312134, -0.013967192731797695, 0.4421361982822418, -0.023337705060839653, -0.08720173686742783, 0.3106420338153839, -0.0630577802658081, 0.21602705121040344, -0.07915602624416351, 0.2934020161628723, 0.06180773675441742, -0.04730653390288353, 0.12845444679260254, -0.13825799524784088, -0.03940313309431076, 0.33607882261276245, -0.25870952010154724, 0.3866915702819824, -0.30895671248435974, 0.24452082812786102, 0.08236313611268997, -0.31078287959098816, 0.13535818457603455, 0.4502302408218384, 0.012595122680068016, -0.24553516507148743, -0.22906403243541718, -0.018371175974607468, -0.20371899008750916, -0.46594783663749695, 0.04194756969809532, -0.06268277764320374, 0.08745640516281128, 0.2226041704416275, -0.34430238604545593, 0.05039689317345619, -0.37211593985557556, 0.02955648861825466, -0.01809048093855381, -0.27869462966918945, -0.3649791479110718, -0.13911233842372894, 0.1557847112417221, 0.0790439248085022, 0.010655287653207779, 0.0073366183787584305, -0.17269644141197205, 0.27602630853652954, -0.08331599831581116, -0.42226356267929077, -0.024878155440092087], [-0.0006423552404157817, -0.2782289385795593, -0.01926834136247635, -0.1789938509464264, 0.13586679100990295, -0.036508284509181976, -0.032559528946876526, -0.030428988859057426, -0.09560646116733551, -0.04991805553436279, 0.09336245059967041, 0.0641372948884964, -0.12917888164520264, -0.03115612454712391, 0.13680315017700195, 0.3117489516735077, 0.13034823536872864, -0.1496729999780655, 0.09374678134918213, -0.13869114220142365, 0.08505182713270187, 0.07250837981700897, 0.018573589622974396, 0.02433060295879841, -0.04380239546298981, 0.1684383898973465, 0.015184502117335796, -0.017255771905183792, 0.07091885805130005, -0.03501018509268761, 0.2258935272693634, -0.014123181812465191, -0.046969156712293625, 0.16301003098487854, 0.018368953838944435, 0.18851985037326813, 0.18166851997375488, -0.031387683004140854, -0.014465605840086937, -0.07701927423477173, -0.0016457070596516132, -0.25265124440193176, -0.2069701850414276, 0.113804392516613, 0.0900932103395462, 0.11880912631750107, 0.1263836920261383, -0.06565097719430923, 0.0053271022625267506, -0.0598687082529068, 0.14416055381298065, 0.14401184022426605, -0.06610020995140076, -0.287462443113327, -0.012822338379919529, 0.009129567071795464, 0.14743731915950775, -0.04926303029060364, -0.008664361201226711, -0.0002915326040238142, 0.0406784825026989, 0.1000729575753212, -0.024564111605286598, 0.08042345941066742], [0.3083009421825409, -0.521413266658783, -0.506450355052948, -0.8165855407714844, -0.039794810116291046, -0.23849830031394958, -0.8166310787200928, -0.19354496896266937, -1.1868605613708496, 0.7198620438575745, 0.12382487952709198, -0.37759602069854736, 0.12272023409605026, -0.3022034168243408, -0.037540584802627563, 1.196821928024292, 0.24391992390155792, 0.05945548415184021, 0.28617843985557556, -0.23403938114643097, 0.6417945027351379, 0.16377048194408417, 0.13187068700790405, 0.1374695748090744, -0.7413573861122131, 0.028028704226017, -0.7423688173294067, -0.11713454127311707, 0.011240729130804539, 0.24359004199504852, 1.6775707006454468, -0.7293984293937683, 0.9700215458869934, 0.33166980743408203, -0.4762687087059021, 0.5007714629173279, 0.2628299593925476, 0.41097337007522583, -0.7022475004196167, 0.09903710335493088, 0.6576253175735474, -0.5506501197814941, -0.3626914620399475, 0.30315327644348145, 0.20852212607860565, -0.8618749380111694, -0.042224202305078506, -0.6919297575950623, 0.09203536808490753, -0.9852322340011597, -0.13251477479934692, 0.011366019025444984, 0.5446067452430725, -0.14004823565483093, -1.1573002338409424, 0.785904049873352, -0.3964610993862152, -0.5744214057922363, 0.4099634885787964, 0.09884459525346756, 0.4984046518802643, 0.45838963985443115, -0.16088776290416718, -0.2773329019546509], [-0.32738634943962097, -0.07180242985486984, 0.047530513256788254, -0.4121399521827698, 0.07950905710458755, -0.16615262627601624, -0.06200706586241722, -0.08422334492206573, -0.2613685429096222, 0.11519276350736618, -0.13561701774597168, 0.2531847357749939, -0.07735277712345123, 0.41450974345207214, 0.17340868711471558, 0.07608086615800858, 0.018120232969522476, -0.06654860079288483, 0.06701382249593735, -0.25947335362434387, 0.11134687066078186, -0.25939181447029114, 0.08994825184345245, 0.018040694296360016, -0.006835564970970154, 0.1009707823395729, -0.22542810440063477, 0.10591834783554077, 0.3611930310726166, -0.15111477673053741, 0.37796294689178467, -0.350262314081192, 0.0009757883963175118, 0.11562243103981018, -0.19478441774845123, -0.1552359014749527, 0.23609237372875214, -0.019743094220757484, -0.0020632182713598013, -0.17671892046928406, 0.03137865290045738, 0.09559398889541626, -0.21844437718391418, 0.2787238657474518, 0.04581613093614578, -0.17548036575317383, 0.04596932232379913, -0.3601681590080261, 0.02876240387558937, -0.33123865723609924, 0.19445422291755676, 0.03502305969595909, -0.3228090703487396, -0.2076607495546341, 0.006558356340974569, -0.21440331637859344, 0.3796258568763733, 0.030550677329301834, -0.029878491535782814, 0.023097695782780647, 0.17153804004192352, -0.14944331347942352, -0.2182883620262146, 0.2098194807767868], [-0.13339847326278687, 0.09220649302005768, -0.11545763164758682, -0.37500685453414917, -0.18893714249134064, -0.4957275986671448, -0.2215093970298767, -0.1494002640247345, -0.3364003002643585, 0.2786414325237274, -0.10687877237796783, -0.12185073643922806, -0.15563152730464935, 0.026401584967970848, 0.019898751750588417, 0.054011810570955276, -0.09001141786575317, 0.0418645516037941, 0.002780279843136668, -0.40310248732566833, 0.10900337249040604, -0.17451418936252594, 0.00888002011924982, -0.03183832764625549, 0.0418270081281662, 0.0525071881711483, 0.37072187662124634, 0.025229742750525475, -0.0535086952149868, -0.3465738296508789, 0.4987149238586426, -0.24500679969787598, 0.3456272780895233, 0.04288043454289436, -0.2053261250257492, 0.016150962561368942, 0.19927646219730377, 0.07746682316064835, -0.0481216125190258, -0.2820625901222229, 0.19384843111038208, 0.07979848980903625, -0.019785605370998383, 0.13348431885242462, -0.0005844749393872917, -0.3875127136707306, 0.18408271670341492, -0.29740196466445923, 0.11435693502426147, -0.14383728802204132, -0.09404385089874268, -0.04342840984463692, 0.09204026311635971, -0.1662161648273468, -0.1899440437555313, 0.07864254713058472, 0.05991135165095329, -0.07259199023246765, 0.007247028406709433, -0.12624363601207733, 0.06681478768587112, -0.07690469175577164, -0.28523263335227966, 0.1195366308093071], [0.8149760365486145, -0.20936203002929688, 0.5504798293113708, 0.1676613986492157, 0.42877551913261414, -0.13061396777629852, 0.5047897100448608, -0.42158713936805725, -0.3257702887058258, -0.06560645252466202, 0.021295253187417984, 0.32665151357650757, -0.5178959369659424, 0.4471520483493805, 0.06197190657258034, -0.14853622019290924, -0.30130091309547424, 0.021726123988628387, -0.25917860865592957, 0.12616169452667236, 0.09541576355695724, -0.35552600026130676, 0.03746378421783447, -0.47975799441337585, 0.003119619097560644, 0.32605835795402527, 0.016145383939146996, 0.4431775212287903, 0.21782180666923523, -0.07947435230016708, 0.20558175444602966, 0.6254240870475769, -0.7608723640441895, -0.1347929686307907, -0.22625859081745148, 0.03283381462097168, 0.6358286142349243, -0.5280172228813171, 0.46337953209877014, 0.021057460457086563, -0.14247260987758636, -0.2178402990102768, -1.0230345726013184, 0.030388977378606796, -0.0027941279113292694, 0.6325166821479797, 0.6936341524124146, -0.1660229116678238, -0.050418421626091, 0.17014676332473755, 0.06395485997200012, 0.15026891231536865, -0.4716090261936188, -0.0845416858792305, 0.11938617378473282, 0.05507933720946312, 0.41701748967170715, 0.2465851753950119, -0.10245618969202042, 0.10327532142400742, 0.16610640287399292, 0.06917434930801392, 0.17819979786872864, 0.39489850401878357], [-0.07042299211025238, -0.5049846172332764, -0.17517155408859253, -0.37947821617126465, 0.054303865879774094, -0.15998363494873047, -0.21354809403419495, -0.2765442430973053, -0.8465741872787476, -0.01906435564160347, 0.334550142288208, 0.04427434504032135, -0.15212386846542358, 0.09363016486167908, 0.08767206966876984, 0.9888547658920288, 0.10675685852766037, 0.2534419000148773, 0.3718727231025696, 0.018433766439557076, 0.2637423872947693, -0.044812921434640884, 0.2771734595298767, 0.5249825119972229, -0.6645118594169617, 0.23353709280490875, -0.0268632173538208, -0.16130031645298004, 0.6023156642913818, -0.03733661398291588, 0.7581983804702759, -0.28942570090293884, 0.1719122678041458, 0.2141168862581253, -0.2826531231403351, 0.455301970243454, 0.35993027687072754, 0.12730772793293, 0.023976614698767662, -0.14527763426303864, -0.013306855224072933, -0.17391373217105865, -0.2598804533481598, 0.13051484525203705, -0.13382096588611603, -0.28480514883995056, 0.4477813243865967, -0.3464319407939911, 0.06642353534698486, -0.3420049250125885, 0.1031729131937027, -0.10407350957393646, -0.3063255846500397, -0.25046947598457336, -0.2906002104282379, 0.44434502720832825, -0.29174771904945374, -0.2238284945487976, -0.19757692515850067, 0.027062933892011642, 0.31938961148262024, 0.2080880105495453, -0.1600927859544754, 0.2543971538543701], [-0.7018534541130066, -0.24197417497634888, -0.8483765721321106, -0.9216899275779724, -0.505029559135437, -0.1463443487882614, -0.4610064625740051, 0.09684772789478302, -0.4871331453323364, 0.2966594398021698, -0.19199317693710327, -0.4586993157863617, 0.13808968663215637, -0.25701475143432617, -0.19129925966262817, 0.8104388117790222, 0.4666776955127716, 0.1851046085357666, 0.9160977005958557, -0.3582119643688202, 0.2997021973133087, 0.06658081710338593, 0.0631568506360054, 0.3144557774066925, -0.35722115635871887, -0.17490254342556, -0.31885454058647156, -0.2920408248901367, -0.30430445075035095, -0.4537352919578552, 0.48774802684783936, -1.0244845151901245, 1.2856639623641968, 0.30824270844459534, -0.13555282354354858, 0.6603186726570129, -0.35011541843414307, 0.825908899307251, -0.3713265061378479, 0.0605296827852726, 0.361564576625824, -0.005265744403004646, 0.308440238237381, 0.08805373311042786, 0.05520687624812126, -0.6211946606636047, 0.26322484016418457, -0.4403306543827057, 0.0400080680847168, -0.6806939244270325, 0.11342045664787292, 0.09317158162593842, 0.32541218400001526, 0.03196055814623833, -0.6080283522605896, 0.5025411248207092, -0.4960228204727173, -0.4114265739917755, -0.21891628205776215, -0.13303148746490479, 0.13114841282367706, -0.4561992883682251, -0.20494459569454193, 0.01650637947022915], [-0.3424559235572815, -0.458760529756546, -0.13823896646499634, -0.5631322264671326, 0.6886382699012756, -0.1546574831008911, -0.046461354941129684, -0.6596501469612122, -0.4364292621612549, -0.513791024684906, 0.06392000615596771, 0.433662086725235, -0.005555944982916117, 0.847269594669342, 0.32983294129371643, -0.5003372430801392, -0.19742418825626373, 0.2915191054344177, -0.05912651866674423, 0.246913343667984, 0.694722056388855, -0.3837692141532898, 0.42000409960746765, -0.14793018996715546, 0.04861683025956154, 0.18476146459579468, -0.6576151251792908, -0.19985856115818024, 1.143224835395813, 1.0058680772781372, -0.35689279437065125, -0.3247574269771576, 0.02195540815591812, 0.2220849096775055, -0.19456055760383606, 0.0016136616468429565, 0.6635918617248535, -0.11023431271314621, -0.20031338930130005, 0.09401090443134308, -0.4048747420310974, 0.5794672966003418, -0.7948618531227112, 0.4782997667789459, 0.22022873163223267, 0.4196128845214844, 0.06166708469390869, -0.3270035982131958, 0.19883857667446136, -0.45777761936187744, 0.7231658697128296, -0.07914235442876816, -0.9546115398406982, -0.7514607906341553, 0.4217439591884613, -0.6724779009819031, 0.222250834107399, 0.515089213848114, -0.542918860912323, 0.20238594710826874, 0.5189656019210815, 0.21966850757598877, -0.864635705947876, 0.5588129758834839], [-0.043850913643836975, 0.10486243665218353, 0.44619035720825195, -0.5154481530189514, -0.10264906287193298, 0.17368049919605255, 0.16007427871227264, -0.034798502922058105, 0.4581606984138489, -0.2513349652290344, 0.1863042712211609, -0.11904639005661011, 0.04717497527599335, 0.021733680739998817, -0.17029538750648499, 0.12968093156814575, 0.12031279504299164, -0.7611982226371765, 0.16644887626171112, -0.11955886334180832, 0.31826549768447876, 0.15126925706863403, 0.2230328470468521, -0.5376667380332947, 0.06984459608793259, 0.17158305644989014, 0.05202309414744377, 0.4522876441478729, 0.15465766191482544, 0.5587906241416931, 0.16595405340194702, 0.15454839169979095, -0.6051239967346191, -0.19582490622997284, 0.20677180588245392, -0.19519729912281036, 0.7632662653923035, -0.521511971950531, 0.05811108276247978, 0.22650103271007538, -0.05197301506996155, -0.10327375680208206, -0.08369459956884384, -0.046567659825086594, 0.39320337772369385, 0.042539630085229874, -0.5741962790489197, -0.10945650935173035, 0.09107837080955505, 0.3154311180114746, -0.13484226167201996, 0.09525740891695023, -0.8090519905090332, -0.2531817555427551, 0.2558823227882385, -0.2993888258934021, 0.1444207727909088, 0.06814713031053543, -0.09768153727054596, -0.010951998643577099, 0.13669893145561218, 0.38779351115226746, 0.06231209635734558, 0.25787442922592163], [0.846970796585083, -0.4737427234649658, 0.35604023933410645, -0.034035321325063705, 0.4370955228805542, 0.3815622329711914, 0.061756838113069534, -0.6455798745155334, -1.1219221353530884, -0.20714499056339264, 0.43135619163513184, -0.08788257092237473, -0.21612684428691864, 0.3300342857837677, 0.3665781319141388, 0.39262649416923523, -0.479459673166275, -0.030722662806510925, -0.16750088334083557, 0.6396471261978149, 0.26673415303230286, 0.3609737753868103, -0.38050010800361633, 0.20723159611225128, -0.5251282453536987, 0.46664419770240784, -0.4947890043258667, 0.23913154006004333, -0.027714701369404793, 1.2101346254348755, 0.6539838910102844, -0.2769908905029297, -0.27213266491889954, 0.0178510881960392, 0.1316707581281662, -0.057093728333711624, 0.6598142385482788, -0.4024060070514679, 0.0540885254740715, 0.1838918924331665, 0.3473171591758728, -0.3269234299659729, -0.9406577944755554, 0.20380820333957672, -0.5075095295906067, 0.19525018334388733, 0.07019761204719543, 0.0659099668264389, -0.0573805496096611, 0.15832209587097168, -0.08618193119764328, -0.06468019634485245, -0.5753269195556641, -0.12614618241786957, 0.00860021822154522, 0.6072355508804321, 0.1735536754131317, -0.19417306780815125, 0.5629461407661438, 0.359494149684906, 0.5992377996444702, 0.594031572341919, -0.15503951907157898, 0.0278179869055748], [0.24043191969394684, 0.1676202416419983, 0.25580257177352905, -0.1036754921078682, -0.22323137521743774, 0.07196742296218872, 0.20409327745437622, -0.018696270883083344, -0.04779307544231415, 0.023388460278511047, 0.03232555836439133, 0.2659596800804138, 0.025543687865138054, 0.011630977503955364, 0.15936367213726044, 0.10675133019685745, -0.2619255781173706, -0.2832568287849426, -0.22537823021411896, 0.09153290838003159, -0.08797426521778107, -0.023104144260287285, -0.17185188829898834, -0.1298571079969406, 0.1748797446489334, -0.12676255404949188, 0.16536174714565277, 0.20205408334732056, 0.12414464354515076, -0.08827181160449982, -0.18734554946422577, -0.06939065456390381, -0.23240876197814941, -0.008388083428144455, 0.13015426695346832, -0.1293456256389618, 0.12022026628255844, 0.25689247250556946, 0.02200574241578579, -0.03205719217658043, 0.02872508578002453, 0.022149117663502693, -0.13595633208751678, 0.012222900986671448, 0.01323289517313242, -0.11106688529253006, 0.05769007280468941, 0.08151835948228836, 0.09156321734189987, -0.01975363679230213, -0.12164366245269775, 0.1730204075574875, -0.1939825713634491, -0.012971067801117897, -0.24911537766456604, 0.05583541840314865, -0.07884474098682404, -0.04385123774409294, 0.1282794028520584, -0.03664897754788399, 0.14134730398654938, 0.05181105434894562, -0.007519817445427179, 0.1220390722155571], [0.0094777662307024, -0.3532744348049164, -0.08207906037569046, -0.051117103546857834, -0.1534997671842575, -0.021576879546046257, -0.018756993114948273, -0.10241557657718658, -0.23198917508125305, 0.11410652846097946, 0.10988134890794754, 0.09686741232872009, -0.12005621194839478, 0.007342789322137833, -0.05201662331819534, 0.3310239017009735, 0.0521567240357399, -0.07486768066883087, 0.23957574367523193, -0.05475202947854996, 0.0690464973449707, 0.06134973466396332, 0.11480510234832764, 0.00926213152706623, -0.1772099882364273, 0.12350288033485413, -0.05369514226913452, 0.06488098204135895, 0.2986812889575958, 0.08597294241189957, 0.10159875452518463, -0.2156546413898468, 0.09471070021390915, -0.013359051197767258, 0.07019798457622528, 0.13783133029937744, 0.017058944329619408, -0.004548795986920595, 0.0006110563990660012, -0.19000469148159027, 0.06400784850120544, -0.10580237209796906, -0.28953269124031067, -0.06596284359693527, -0.011176860891282558, 0.08362183719873428, 0.23045893013477325, 0.10958123207092285, -0.05971575155854225, -0.19121478497982025, 0.03680354356765747, -0.11828575283288956, -0.07406681030988693, -0.04408681392669678, 0.035342026501894, -0.06651468575000763, -0.11591558903455734, -0.14805179834365845, -0.1206117644906044, 0.02577533759176731, 0.06194191798567772, -0.009922423399984837, 0.02729833498597145, 0.11093106865882874], [-0.36729416251182556, -0.16009429097175598, 0.5263133645057678, -0.30379778146743774, 0.39907631278038025, 0.04578016698360443, 0.10977480560541153, -0.3855694532394409, -0.27754244208335876, -0.11195337772369385, 0.13088294863700867, -0.07108986377716064, -0.502446711063385, 0.31870830059051514, 0.052322760224342346, 0.16115546226501465, -0.09958270937204361, 0.25491607189178467, -0.002306025940924883, -0.01950533501803875, 0.3557703197002411, 0.006734917405992746, 0.07164353877305984, -0.2278699278831482, -0.10549433529376984, 0.19269414246082306, 0.08281000703573227, 0.3939579725265503, 0.30862635374069214, 0.09548026323318481, 0.2453964650630951, -0.1094127893447876, -0.2560453712940216, -0.16067586839199066, -0.16292902827262878, -0.0890071764588356, 0.548760175704956, -0.34803828597068787, 0.2322443723678589, -0.19749829173088074, 0.056389711797237396, -0.23447184264659882, -0.5217041373252869, 0.24071642756462097, 0.009146776050329208, 0.0769428238272667, 0.31727078557014465, -0.2982865571975708, -0.02812405303120613, 0.10454556345939636, 0.20571269094944, 0.12618091702461243, -0.6070064902305603, 0.01240766141563654, 0.2984245717525482, -0.43144357204437256, 0.2981142997741699, 0.047071218490600586, 0.02922813408076763, 0.03193413093686104, 0.32947784662246704, 0.11310401558876038, -0.2997404932975769, 0.3932032287120819], [-0.35825449228286743, 0.03419344872236252, -0.1231573298573494, -0.5463627576828003, -0.010370481759309769, -0.632026195526123, -0.398184597492218, -0.2953038811683655, 0.3689124882221222, 0.3425934314727783, -0.16377492249011993, -0.21963132917881012, -0.05865006521344185, 0.4631141126155853, 0.16565649211406708, 0.051324110478162766, -0.009852577932178974, 0.008379731327295303, 0.18109555542469025, -0.6788895130157471, 0.5310419797897339, -0.24698582291603088, 0.5530017614364624, -0.23943378031253815, 0.08586833626031876, -0.024316001683473587, 0.7641732096672058, -0.05015161633491516, 0.027256418019533157, -0.30429714918136597, -0.08940310031175613, -0.2700035274028778, 0.10183516144752502, 0.057942818850278854, -0.4490175247192383, 0.228992760181427, 0.3458838164806366, 0.1767437756061554, 0.014991872943937778, -0.520812451839447, -0.012394263409078121, 0.009110085666179657, -0.23370559513568878, 0.2396053969860077, -0.09035943448543549, -0.36391764879226685, -0.24426016211509705, -0.4572220742702484, -0.030120521783828735, -0.43245190382003784, 0.2774089574813843, 0.13882839679718018, -0.2367049753665924, -0.4736359119415283, -0.11195612698793411, -0.565940260887146, 0.18776054680347443, 0.013212018646299839, 0.08539291471242905, 0.024717191234230995, 0.27693358063697815, -0.058228749781847, -0.4882422685623169, 0.12691311538219452], [-0.9056744575500488, -0.3266678750514984, -0.6978533267974854, -0.6327979564666748, -0.6244084239006042, 0.1013871356844902, -0.1468777060508728, 0.111702561378479, 0.08284659683704376, -0.20808196067810059, 0.0612664632499218, -0.28364431858062744, 0.1545175313949585, -0.19231151044368744, -0.1462264358997345, 0.5236822366714478, 0.35655996203422546, 0.14608991146087646, 0.6309800744056702, -0.37784746289253235, 0.1871280074119568, -0.15872731804847717, 0.3389081060886383, 0.12989619374275208, -0.24464158713817596, -0.06610611826181412, -0.2637671232223511, -0.34151533246040344, 0.35313716530799866, -0.03317674994468689, 0.07600043714046478, -0.43128564953804016, 0.4684268832206726, 0.19836486876010895, 0.04121406003832817, 0.4492707848548889, -0.15644626319408417, 0.38031893968582153, -0.5199759602546692, 0.32872697710990906, 0.03270195424556732, -0.11317811161279678, 0.15182039141654968, -0.06050822138786316, 0.0922253206372261, -0.43539226055145264, -0.2821759879589081, -0.30880510807037354, -0.01994081772863865, -0.7747102379798889, 0.08082989603281021, 0.17746379971504211, 0.10306590050458908, 0.12063037604093552, -0.34621313214302063, -0.30284377932548523, 0.03630286827683449, 0.09266050904989243, -0.20948266983032227, -0.04417342320084572, 0.22886371612548828, -0.2911238372325897, -0.21487724781036377, 0.04775483161211014], [-0.3248055577278137, -0.1343919336795807, -0.001956415129825473, -0.49107736349105835, -0.10777319967746735, -0.2657141387462616, -0.0029597291722893715, -0.16013890504837036, 0.058174945414066315, -0.02230333350598812, -0.09494690597057343, -0.4183773398399353, -0.2891790568828583, 0.2365526407957077, 0.2120136022567749, 0.23170426487922668, -0.10535869747400284, 0.15286819636821747, -0.01008987333625555, -0.28419962525367737, 0.3731267750263214, -0.10964552313089371, 0.04806915298104286, -0.044131092727184296, -0.1851310282945633, 0.09868493676185608, 0.43516093492507935, 0.17452797293663025, 0.1870628148317337, -0.15237142145633698, -0.058178238570690155, -0.09867997467517853, -0.15627582371234894, 0.05628228560090065, -0.24224622547626495, -0.045549023896455765, 0.3704477846622467, 0.10140977799892426, -0.13526950776576996, -0.19234751164913177, 0.005095441825687885, 0.04945475235581398, -0.43252941966056824, 0.04201482981443405, 0.09699369221925735, -0.11007804423570633, -0.030726032331585884, -0.22128352522850037, 0.12828195095062256, -0.10240292549133301, -0.05675202235579491, -0.09251345694065094, -0.3838959336280823, -0.11374174058437347, -0.1823432445526123, -0.19170701503753662, -0.18897391855716705, 0.024102983996272087, -0.08207254111766815, -0.10731858760118484, 0.2529889643192291, -0.07344891130924225, -0.21201841533184052, 0.27824342250823975], [0.09912806004285812, -0.4588540196418762, 0.46331095695495605, -0.25200894474983215, 0.3870448172092438, -0.28541919589042664, 0.13563849031925201, -0.4338694214820862, -0.2707509994506836, -0.030970700085163116, 0.0650658905506134, 0.21762627363204956, -0.31787464022636414, 0.38598528504371643, 0.056872691959142685, 0.358125776052475, -0.105596162378788, 0.2569675147533417, -0.08625046163797379, 0.10522899776697159, 0.11790011823177338, -0.15125229954719543, 0.17928512394428253, -0.21788592636585236, -0.07818947732448578, 0.26244983077049255, 0.07379001379013062, 0.032711029052734375, 0.5049927234649658, -0.19872581958770752, 0.2876998782157898, -0.24041801691055298, -0.19631454348564148, 0.1825195699930191, -0.23438425362110138, 0.39106735587120056, 0.3142232894897461, -0.1978595107793808, -0.040217746049165726, -0.1970232129096985, -0.07532715797424316, -0.19146305322647095, -0.4934997856616974, 0.1037219688296318, -0.2997409701347351, 0.10804715752601624, 0.26166075468063354, -0.29569321870803833, 0.0519796647131443, -0.10232862830162048, 0.06820584833621979, -0.025681443512439728, -0.36381083726882935, -0.140549898147583, -0.11016170680522919, -0.13333337008953094, 0.2022063434123993, 0.037169311195611954, 0.10014524310827255, 0.06599804013967514, 0.2347554713487625, -0.08563711494207382, -0.07924100756645203, 0.04483349248766899], [-0.1860501766204834, -0.13450275361537933, 0.22578653693199158, -0.2785075306892395, 0.5272747278213501, 0.135544091463089, 0.21385516226291656, -0.4648885428905487, -0.21327020227909088, -0.12259192764759064, -0.005922473501414061, 0.1880304366350174, -0.5620168447494507, 0.1639266014099121, -0.02651912346482277, -0.23307038843631744, -0.27525070309638977, 0.20839114487171173, 0.07752738893032074, 0.14520315825939178, 0.18433140218257904, -0.16640745103359222, 0.1697625070810318, 0.020799599587917328, -0.017890846356749535, 0.2695876657962799, 0.017325978726148605, 0.1644057184457779, 0.4413905143737793, 0.23717661201953888, -0.06769411265850067, 0.07197214663028717, -0.12225069850683212, -0.08396857231855392, -0.10974764823913574, 0.07094466686248779, 0.4585901200771332, -0.1799459159374237, 0.22048521041870117, -0.034826505929231644, -0.3025854825973511, 0.0021865309681743383, -0.6501410007476807, 0.13344672322273254, 0.01215282641351223, 0.5614519119262695, 0.40509095788002014, -0.001683237380348146, -0.03376217931509018, 0.01333703938871622, 0.18504485487937927, 0.024586321786046028, -0.4317425489425659, -0.07493072003126144, 0.09711574763059616, -0.3412453532218933, 0.018639149144291878, 0.2099001407623291, -0.11942869424819946, 0.10392269492149353, 0.14167341589927673, 0.045679133385419846, -0.018659239634871483, 0.1710086613893509], [-0.09766542911529541, 0.016729285940527916, -0.007857883349061012, -0.2508309483528137, -0.014867421239614487, -0.2164071947336197, 0.06914089620113373, -0.02111491747200489, -0.200955331325531, 0.18319882452487946, 0.08631998300552368, -0.197429820895195, 0.30367511510849, 0.044226743280887604, 0.1547481119632721, 0.1550665944814682, -0.13284751772880554, -0.23133347928524017, -0.011234128847718239, 0.003700768342241645, 0.1806935966014862, -0.12348981946706772, 0.06917984783649445, -0.06522441655397415, 0.12301125377416611, -0.1360420137643814, -0.1142297014594078, -0.23197247087955475, -0.11436080932617188, -0.056953832507133484, 0.4243070185184479, -0.3922314941883087, -0.046270713210105896, 0.16744495928287506, -0.04042963683605194, -0.01710999570786953, 0.2604828476905823, 0.14959082007408142, 0.20548059046268463, 0.10559694468975067, 0.07815594971179962, 0.17801369726657867, -0.014515888877213001, 0.06262832134962082, -0.059885744005441666, -0.05071764811873436, -0.010417760349810123, -0.35114723443984985, 0.2701587975025177, 0.14329572021961212, 0.19340482354164124, 0.16979041695594788, 0.009602666832506657, 0.09708689898252487, -0.1921369582414627, 0.15483331680297852, 0.08319506049156189, -0.005671984516084194, 0.006913874763995409, 0.05101383477449417, 0.15756113827228546, -0.020385265350341797, 0.05246999114751816, -0.16456261277198792], [0.11713480204343796, -0.2800602316856384, -0.04820208624005318, -0.35460713505744934, -0.014172323979437351, -0.20024138689041138, 0.05000784248113632, -0.27461662888526917, -0.31243377923965454, -0.04293117672204971, -0.1995832920074463, 0.12078797817230225, -0.6219591498374939, 0.362552672624588, 0.04282979294657707, 0.20853213965892792, -0.33833616971969604, -0.05308779329061508, -0.054322946816682816, 0.013152526691555977, 0.12476466596126556, 0.16423499584197998, 0.05014336481690407, -0.0982484519481659, -0.33964285254478455, 0.23890718817710876, -0.08468376100063324, 0.17243672907352448, 0.24475954473018646, 0.15743161737918854, 0.4956963360309601, -0.4739110469818115, 0.21535877883434296, -0.17630408704280853, -0.2579405605792999, 0.020758265629410744, 0.5469830632209778, -0.14909875392913818, -0.2880570590496063, -0.22038650512695312, 0.4243789315223694, -0.0868125930428505, -0.46143707633018494, 0.08943886309862137, 0.02740817330777645, 0.12318287789821625, 0.043969523161649704, -0.32974541187286377, 0.0058895135298371315, -0.23735637962818146, -0.031062578782439232, -0.11714936792850494, -0.17164850234985352, -0.12745477259159088, -0.20683805644512177, -0.08419905602931976, 0.07156291604042053, 0.047372523695230484, 0.27507659792900085, -0.11505171656608582, 0.17154990136623383, 0.038517072796821594, -0.3806803524494171, 0.3926107585430145], [-0.42768117785453796, -0.16246795654296875, -0.18034617602825165, -0.7964367866516113, -0.16098423302173615, -0.23129719495773315, 0.2027762085199356, 0.09350915253162384, -0.034606464207172394, 0.2676670551300049, -0.27355486154556274, -0.3726450204849243, -0.13300594687461853, 0.04680647328495979, 0.17155742645263672, 0.4220888018608093, 0.3299148678779602, 0.02718217857182026, 0.42056208848953247, -0.5289693474769592, 0.4566326141357422, -0.21505941450595856, 0.41012391448020935, -0.033086203038692474, -0.2937483787536621, -0.04840065911412239, 0.15823957324028015, -0.34126585721969604, -0.10522090643644333, -0.4681910574436188, 0.3837886452674866, -0.8005905151367188, 0.5373114943504333, 0.3122636377811432, -0.3175531327724457, 0.49984320998191833, -0.22216808795928955, 0.3405618369579315, -0.11955679208040237, -0.08452962338924408, 0.2355227917432785, -0.05833828076720238, 0.22094139456748962, 0.26280173659324646, 0.18737950921058655, -0.1539723128080368, 0.09887421876192093, -0.6605895757675171, 0.17885681986808777, -0.39545151591300964, 0.4062633216381073, 0.14721253514289856, 0.20495294034481049, -0.21180543303489685, -0.44984447956085205, 0.003937732893973589, -0.026867708191275597, 0.14704649150371552, -0.26177769899368286, 0.15616747736930847, 0.2169337123632431, -0.3982503116130829, -0.3516836166381836, -0.1911390721797943], [0.08941178768873215, -0.26128897070884705, 0.06548770517110825, -0.1532190442085266, -0.10584898293018341, -0.08335486799478531, -0.058565229177474976, -0.07670563459396362, -0.3250386416912079, -0.039874155074357986, -0.05749599263072014, -0.02269034832715988, -0.24920040369033813, -0.1107354387640953, 0.07912502437829971, 0.32288795709609985, 0.028068333864212036, 0.13997995853424072, 0.104082390666008, 0.061980243772268295, 0.038114383816719055, 0.026410790160298347, -0.02891584113240242, -0.121749646961689, -0.26217231154441833, 0.30214473605155945, -0.22268788516521454, 0.194386824965477, 0.03777015209197998, -0.02560310810804367, 0.3316496014595032, -0.40153586864471436, -0.07925651222467422, 0.00764899468049407, -0.16759100556373596, 0.006814439315348864, 0.21213389933109283, 1.5152462765399832e-05, -0.016503259539604187, -0.07568152248859406, -0.0704115778207779, -0.23722372949123383, -0.3422542214393616, 0.046536512672901154, 0.031427543610334396, -0.16182462871074677, 0.06392361223697662, -0.019009675830602646, 0.04090967774391174, 0.0856861099600792, -0.06700154393911362, -0.16689065098762512, -0.0738467276096344, -0.06406444311141968, -0.15695005655288696, -0.09541046619415283, -0.19701619446277618, -0.261824369430542, 0.1253986358642578, -0.21038281917572021, 0.016987286508083344, 0.000964221078902483, 0.012179691344499588, 0.15556441247463226], [-0.36254894733428955, -0.17626336216926575, 0.08325933665037155, -0.6130591034889221, -0.42973098158836365, -0.04054030403494835, 0.02354411967098713, -0.04623696580529213, -0.11123185604810715, 0.20192165672779083, 0.07322494685649872, -0.3838576078414917, -0.0022072389256209135, 0.28763243556022644, 0.10395157337188721, 0.311532586812973, 0.10756707191467285, 0.28458771109580994, 0.1540951132774353, -0.2729940414428711, 0.20409613847732544, 0.06644254922866821, -0.07867535203695297, -0.22126266360282898, -0.11486075818538666, 0.3072063624858856, 0.6183997392654419, -0.12570510804653168, -0.1897699534893036, -0.10321108251810074, -0.07884010672569275, -0.26459959149360657, 0.3949819505214691, 0.05264966934919357, -0.1596846878528595, 0.4234088659286499, -0.03097005933523178, 0.4570205509662628, -0.1253441423177719, -0.2871544361114502, 0.04835336282849312, -0.19622643291950226, -0.09266642481088638, 0.0719103142619133, -0.20262248814105988, -0.2960914373397827, 0.34465473890304565, -0.14617705345153809, 0.16835720837116241, -0.2222595363855362, -0.018426761031150818, -0.13042844831943512, 0.04037758708000183, -0.23885811865329742, -0.1686912328004837, 0.04613446816802025, -0.137208953499794, -0.13633418083190918, -0.2659761607646942, -0.33664900064468384, 0.08744107931852341, -0.07936974614858627, -0.21111741662025452, 0.05827111750841141], [-0.23716627061367035, 0.038200583308935165, 0.05315171927213669, -0.19249099493026733, 0.16392579674720764, -0.24975083768367767, 0.031395211815834045, -0.14691711962223053, -0.17555934190750122, 0.010604490526020527, -0.21259109675884247, 0.13938987255096436, -0.1545610874891281, 0.13995906710624695, 0.25440627336502075, -0.07319028675556183, -0.21134282648563385, -0.24519136548042297, -0.06036839634180069, -0.12309448421001434, 0.01967458426952362, -0.18843331933021545, 0.0001726089685689658, -0.0505976639688015, 0.06456603854894638, -0.1654185801744461, 0.15797650814056396, 0.23124857246875763, 0.6050616502761841, -0.3007277250289917, 0.39740049839019775, -0.3425520062446594, -0.012783233076334, 0.11251822859048843, -0.23520956933498383, -0.18112033605575562, 0.49949365854263306, 0.16521640121936798, -0.075035959482193, -0.16392149031162262, 0.00150920613668859, 0.04211428016424179, -0.39937832951545715, 0.08959469944238663, 0.17572228610515594, 0.044882070273160934, 0.25780922174453735, -0.30265486240386963, 0.08883807808160782, -0.21977706253528595, 0.029934609308838844, 0.11178287863731384, -0.43622279167175293, 0.11907428503036499, -0.2892502248287201, -0.35131800174713135, -0.041795168071985245, 0.05030525475740433, -0.03886649012565613, -0.07201920449733734, 0.219930499792099, -0.07669296115636826, -0.39460673928260803, 0.18799303472042084], [-0.0024443515576422215, -0.0028508049435913563, -0.1267416626214981, -0.41428813338279724, -0.48367932438850403, 0.1489672064781189, 0.3011583685874939, -0.11938820779323578, 0.08098616451025009, 0.27782708406448364, -0.0766647681593895, 0.18123123049736023, 0.07972349971532822, 0.14387854933738708, 0.1165444403886795, 0.4503554403781891, -0.4694272577762604, -0.5646344423294067, -0.22369959950447083, -0.20796799659729004, 0.11950426548719406, 0.39111506938934326, -0.43647289276123047, -0.16978944838047028, -0.027044907212257385, 0.15429843962192535, -0.34548819065093994, 0.1484186053276062, 0.16789500415325165, 0.33923158049583435, 0.4699343144893646, -0.13161642849445343, 0.17355817556381226, 0.021202169358730316, 0.15601404011249542, 0.16981542110443115, 0.41427934169769287, 0.40856242179870605, -0.19445788860321045, 0.054739683866500854, 0.17516034841537476, -0.31460681557655334, 0.16135795414447784, 0.2436988353729248, 0.03713949769735336, -0.2210211306810379, 0.057121992111206055, -0.19185473024845123, 0.16233502328395844, -0.05778144299983978, -0.47547289729118347, -0.054748814553022385, -0.4068308174610138, 0.054934196174144745, -0.60801762342453, -0.39701369404792786, 0.05178504064679146, -0.3152325451374054, -0.10813860595226288, -0.21054111421108246, 0.17101457715034485, -0.12236858159303665, -0.004415820352733135, -0.04219581559300423], [0.07404447346925735, -0.15079692006111145, -0.1337495893239975, -0.08733079582452774, 0.07694444060325623, -0.15750204026699066, -0.009386743418872356, -0.043253593146800995, -0.2718464434146881, -0.0015405158046633005, -0.12449799478054047, -0.02343795634806156, -0.20767199993133545, 0.02986583299934864, 0.11132576316595078, 0.17642241716384888, -0.2362687885761261, -0.11793947964906693, -0.04255916550755501, 0.04353302717208862, 0.16878008842468262, 0.1943919062614441, 0.11892323195934296, -0.08842119574546814, -0.3463298976421356, 0.09150589257478714, -0.3082640767097473, 0.20281431078910828, 0.2446960210800171, 0.2583840787410736, 0.31577378511428833, -0.22454272210597992, -0.11023920029401779, -0.0719805359840393, -0.026423724368214607, -0.11847270280122757, 0.33813410997390747, 0.0584491603076458, -0.22132384777069092, -0.11567410826683044, -0.04455016553401947, -0.22250397503376007, -0.3657948672771454, 0.0022602195385843515, 0.047293148934841156, 0.29048025608062744, 0.1596791297197342, -0.011199751868844032, -0.00038300800952129066, 0.08192549645900726, 0.061049964278936386, 0.041597042232751846, -0.0919380858540535, 0.014412661083042622, 0.09781555086374283, -0.06976720690727234, 0.010426104068756104, 0.06147821992635727, 0.02591060660779476, 0.05075452849268913, 0.24029240012168884, 0.11410819739103317, -0.1946667581796646, 0.25141388177871704], [-0.18418292701244354, -0.0815824642777443, -0.15144428610801697, -0.09379071742296219, -0.008207367733120918, 0.007837091572582722, 0.006664820481091738, 0.012672631070017815, 0.0030981909949332476, -0.04799169301986694, -0.14202292263507843, -0.025261253118515015, -0.18531225621700287, 0.0858343169093132, -0.018762292340397835, 0.28058236837387085, 0.04284195229411125, -0.13431736826896667, 0.17166583240032196, -0.10158271342515945, 0.08975939452648163, -0.09157808125019073, -0.028803182765841484, 0.1287851482629776, -0.15611079335212708, 0.05072086676955223, 0.14488790929317474, -0.038210999220609665, 0.1959836632013321, -0.02542281337082386, 0.20812304317951202, -0.06695987284183502, 0.08555470407009125, -0.04739726707339287, -0.13465392589569092, -0.034916095435619354, 0.21110962331295013, -0.12050987035036087, -0.14400623738765717, -0.1643994301557541, 0.10174867510795593, -0.19167345762252808, -0.0036984458565711975, 0.044890645891427994, 0.022295687347650528, 0.1368502676486969, 0.024666139855980873, 0.0031860836315900087, 0.048388294875621796, -0.13169921934604645, -0.051720041781663895, -0.003326637437567115, -0.10805640369653702, 0.027660895138978958, -0.03216676414012909, 0.04914340749382973, 0.0572652705013752, -0.18677707016468048, -0.09446216374635696, 0.04896242916584015, -0.04189356416463852, 0.05280480533838272, -0.07900591939687729, 0.02625137008726597], [0.3612646460533142, 0.10766661167144775, 0.1363007128238678, 0.0644446462392807, 0.572377622127533, 0.035460446029901505, -0.0282257292419672, -0.4929872751235962, -0.28882426023483276, -0.05730590596795082, 0.14645276963710785, 0.04635044187307358, -0.1905214786529541, 0.28448930382728577, 0.3083210289478302, 0.10487503558397293, -0.6183190941810608, -0.16679419577121735, -0.5046252012252808, 0.12242530286312103, 0.31969311833381653, 0.05250151827931404, 0.20696812868118286, -0.27337563037872314, -0.07294280081987381, 0.2579605281352997, 0.23483510315418243, 0.1061965748667717, 0.20072951912879944, 0.2958078980445862, -0.19181303679943085, 0.2877507507801056, -0.33486270904541016, 0.006943333428353071, -0.1355203092098236, -0.41031038761138916, 0.3552342653274536, -0.3151303231716156, 0.2835218012332916, -0.029752083122730255, -0.036615192890167236, 0.08680199831724167, -0.6446934342384338, 0.1948845535516739, -0.29187214374542236, 0.06766915321350098, 0.14860397577285767, -0.1881442368030548, -0.011349042877554893, 0.0031341915018856525, 0.023869305849075317, 0.29927998781204224, -0.5440733432769775, -0.14624100923538208, 0.2676480710506439, -0.22137519717216492, 0.13096629083156586, 0.15267705917358398, 0.6421604156494141, 0.09844284504652023, 0.390525221824646, 0.21980951726436615, -0.2573537826538086, -0.005762486718595028], [-0.07446806132793427, -0.36291956901550293, -0.0012106627691537142, -0.1273086667060852, -0.1425057053565979, -0.1269938051700592, -0.17476162314414978, -0.0914236456155777, -0.34287914633750916, -0.04978145658969879, -0.05462092161178589, 0.2255358099937439, -0.3721792697906494, -0.10761690139770508, 0.0634138211607933, 0.4874436855316162, -0.0672641471028328, -0.126523956656456, 0.2607406675815582, -0.08113405108451843, 0.15384425222873688, -0.0445372499525547, 0.013823638670146465, -0.03959588333964348, -0.3361697196960449, 0.1506272405385971, -0.11838306486606598, 0.018517296761274338, 0.27909019589424133, 0.19559870660305023, 0.17714811861515045, -0.13698668777942657, 0.018945081159472466, 0.03518300876021385, -0.21001175045967102, 0.10852184146642685, 0.27607446908950806, 4.792825347976759e-05, -0.04360387474298477, -0.06929183006286621, 0.08862423896789551, -0.3350689113140106, -0.3687642812728882, -0.18501687049865723, -0.1079372838139534, -0.09739754348993301, 0.1537884771823883, -0.06095874309539795, 0.07984963804483414, -0.061368875205516815, -0.01610388793051243, -0.16256333887577057, -0.06266046315431595, -0.1295439898967743, -0.04951072111725807, -0.15096986293792725, -0.18807023763656616, -0.26313623785972595, -0.033351507037878036, -0.06823722273111343, 0.014972440898418427, 0.053091853857040405, -0.053102295845746994, 0.09990645945072174], [0.009074660018086433, -0.1304793506860733, -0.10209230333566666, -0.17078006267547607, 0.1264992505311966, -0.2781323194503784, -0.1875988394021988, -0.19549955427646637, -0.19803476333618164, -0.028687570244073868, 0.03940485417842865, 0.005323020741343498, -0.11576411873102188, 0.15815089643001556, 0.19495554268360138, 0.31947144865989685, -0.11588072776794434, 0.07649070769548416, 0.19518540799617767, -0.034857384860515594, 0.30933165550231934, -0.11913523823022842, 0.1494826376438141, -0.0393499918282032, -0.2665366232395172, 0.28181636333465576, 0.07805067300796509, -0.03998134285211563, 0.27500617504119873, 0.08623425662517548, 0.17622536420822144, -0.25843900442123413, -0.0040793162770569324, 0.21215899288654327, -0.14439310133457184, 0.08730940520763397, 0.15280373394489288, 0.13836242258548737, -0.03059040755033493, -0.11609522253274918, 0.1037122905254364, -0.21168717741966248, -0.30931395292282104, 0.1880839318037033, 0.012888950295746326, 0.00864556897431612, -0.03324895724654198, -0.07339601963758469, 0.12249420583248138, -0.08564810454845428, 0.05784915015101433, -0.11665819585323334, 0.018062865361571312, -0.08138769865036011, -0.23955677449703217, 0.030464282259345055, 0.06585323810577393, -0.0984032154083252, -0.08582429587841034, -0.151810884475708, 0.3030136227607727, -0.06804504245519638, -0.3451288640499115, 0.0030592861585319042], [0.15003852546215057, -0.3983839154243469, -0.16701234877109528, -0.24797818064689636, -0.23456373810768127, -0.1319081336259842, -0.11723598092794418, -0.20686040818691254, -0.22800017893314362, -0.020663002505898476, -0.07312945276498795, -0.2308940589427948, -0.34034469723701477, -0.011081106029450893, -0.04660386964678764, 0.49284183979034424, 0.022338367998600006, 0.283720999956131, 0.23157331347465515, -0.12205249816179276, 0.17121578752994537, 0.0885285958647728, 0.017074402421712875, -0.17589737474918365, -0.3666982054710388, -0.07924501597881317, -0.278842031955719, 0.18294309079647064, 0.07353994995355606, -0.2472945600748062, 0.7378736734390259, -0.20433589816093445, 0.16477009654045105, -0.05165402963757515, -0.11271299421787262, 0.3869546055793762, 0.15619730949401855, 0.1746637225151062, -0.004004198592156172, -0.015416723676025867, 0.28156954050064087, -0.011314122006297112, -0.1614701747894287, -0.03642485663294792, -0.07633279263973236, -0.1244053840637207, 0.364454448223114, -0.3253042697906494, -0.011680961586534977, -0.10009641200304031, 0.06656011193990707, -0.05572502315044403, 0.033361028879880905, 0.2752903699874878, -0.23827198147773743, 0.07361340522766113, -0.1634288728237152, 0.028460197150707245, 0.06842900067567825, 0.027738207951188087, 0.08143085986375809, -0.08926442265510559, 0.00982465036213398, -0.07590752094984055], [-0.15105962753295898, -0.7030124664306641, 0.13868409395217896, -0.3273521363735199, 0.5765156149864197, -0.1450461745262146, 0.16066081821918488, -0.9142939448356628, -0.9746959209442139, -0.06433122605085373, -0.03728619962930679, -0.21597279608249664, -0.8361688852310181, 0.6181095838546753, 0.775877058506012, 0.2781555652618408, -0.6833893060684204, 0.5238595008850098, 0.17819729447364807, -0.03386066481471062, 0.8049108386039734, -0.13867513835430145, 0.30930835008621216, -0.5320262312889099, -0.45532599091529846, 0.3138900101184845, -0.09594084322452545, 0.2867385447025299, 0.29818037152290344, -0.16069304943084717, 0.4775370657444, -0.2714759111404419, 0.2221669703722, -0.015313354320824146, -0.2706986963748932, 0.613461971282959, 1.1924742460250854, -0.2626478672027588, 0.4519439935684204, 0.021533578634262085, 0.5560822486877441, 0.08787983655929565, -1.0429695844650269, 0.5889195203781128, -0.4318286180496216, 0.015428024344146252, 1.1236892938613892, -0.7794438600540161, 0.15267764031887054, -0.064021535217762, 0.2744477689266205, 0.15573644638061523, -0.5602688193321228, -0.09938202053308487, 0.3486819863319397, -0.4084204435348511, 0.33028316497802734, 0.31495368480682373, 0.42334410548210144, 0.742520272731781, 0.8347814083099365, -0.19226746261119843, -0.4332387447357178, 0.3142247200012207], [-0.1275223046541214, -0.2976295053958893, 0.09918129444122314, -0.16105587780475616, 0.2956480383872986, -0.1732560247182846, 0.22792546451091766, -0.20936065912246704, -0.29650309681892395, 0.12351187318563461, 0.23677922785282135, 0.07240884006023407, -0.24211114645004272, 0.1647271066904068, 0.050986770540475845, 0.16048777103424072, -0.11524362117052078, 0.23961640894412994, -0.020150840282440186, -0.03716310113668442, 0.1285482496023178, 0.009486627764999866, -0.07697395235300064, 0.019226493313908577, -0.03870153799653053, -0.0165100134909153, 0.03426215052604675, 0.26455745100975037, 0.08038760721683502, -0.3393135368824005, 0.17610478401184082, 0.027274657040834427, 0.09010416269302368, 0.06182083114981651, -0.0626639798283577, 0.11786811798810959, 0.24873389303684235, -0.053569115698337555, 0.1235663965344429, -0.0028829937800765038, 0.07151873409748077, 0.098708376288414, -0.4432770907878876, 0.0524786114692688, -0.21316951513290405, 0.10259360074996948, 0.5307601690292358, 0.02058453857898712, 0.12273188680410385, -0.10381552577018738, 0.17297936975955963, -0.11223991960287094, -0.37597140669822693, 0.09632079303264618, -0.01798396371304989, 0.028160519897937775, 0.10238546878099442, 0.03470490500330925, -0.034767042845487595, 0.06472590565681458, 0.15621055662631989, -0.0695371925830841, -0.16979661583900452, 0.08045762032270432], [0.028192957863211632, -0.20826509594917297, -0.349668949842453, 0.4380247890949249, -0.2958640158176422, 0.10861073434352875, 0.1336379051208496, -0.2306462675333023, -1.0443494319915771, 0.06912901252508163, 0.3443329632282257, 0.036439448595047, 0.3333808183670044, -0.06954298913478851, 0.22487935423851013, 0.33232930302619934, -0.036835700273513794, -1.3803675174713135, 0.6091432571411133, -0.35258716344833374, 0.12529711425304413, -0.4037487506866455, -0.10034998506307602, 0.6235836744308472, -0.037324681878089905, -0.13440917432308197, -0.8546671271324158, -0.49439871311187744, 0.07312597334384918, 0.3396173119544983, 1.278254508972168, 0.4630904495716095, 0.09464450180530548, -0.18641391396522522, 0.2497386634349823, 0.4642391800880432, 0.40972480177879333, 0.281925231218338, 0.2417871206998825, 0.6535778045654297, 0.21524102985858917, -0.3245690166950226, 0.34967198967933655, 0.11005186289548874, -0.057884689420461655, -0.5685685873031616, 0.9014924168586731, -0.20828862488269806, -0.08215545117855072, 0.43163058161735535, -0.42833518981933594, -0.06364712864160538, -0.3596837818622589, 0.907453179359436, -0.48353561758995056, 0.2616700828075409, -0.14228162169456482, -0.010166613385081291, -0.2209436446428299, -0.16470035910606384, 0.06138956546783447, 0.21930521726608276, 0.6695627570152283, 0.2987285256385803], [0.19139373302459717, -0.1258266121149063, 0.015821516513824463, -0.2756767272949219, 0.08974143862724304, -0.14007416367530823, -0.21396927535533905, -0.2320491373538971, -0.41955897212028503, 0.15490567684173584, -0.08970464020967484, -0.09250261634588242, -0.3681172728538513, 0.04257234185934067, 0.18583624064922333, 0.22675102949142456, 0.0029848397243767977, 0.15358023345470428, -0.038974106311798096, -0.07455386221408844, 0.16222913563251495, -0.09174660593271255, 0.01729837991297245, -0.2202872335910797, -0.18683259189128876, 0.1531793475151062, -0.31374087929725647, 0.05036717653274536, 0.2083936333656311, -0.001582966884598136, 0.6481951475143433, -0.5815338492393494, -0.08184695988893509, 0.18185687065124512, -0.30149751901626587, 0.11872925609350204, 0.26431819796562195, 0.007616620510816574, 0.018218768760561943, -0.003295328700914979, 0.10571915656328201, -0.13590148091316223, -0.553097128868103, 0.08234263956546783, -0.006628517061471939, 0.04132643714547157, 0.13064099848270416, -0.1684335470199585, 0.19810935854911804, -0.1399102658033371, 0.07794526219367981, -0.12751826643943787, -0.028461791574954987, -0.261647492647171, -0.2157229334115982, 0.2589329779148102, -0.07387951016426086, -0.10478756576776505, 0.09376802295446396, 0.011919734068214893, 0.22873279452323914, 0.14171139895915985, -0.1383117139339447, 0.12304998934268951], [-0.06092515587806702, -0.14191126823425293, -0.010657068341970444, -0.10739028453826904, 0.08594173192977905, -0.22617480158805847, -0.05426619201898575, -0.31945106387138367, -0.3588864803314209, -0.17883864045143127, -0.15227413177490234, 0.12530328333377838, -0.3708285689353943, 0.2758259177207947, 0.12789170444011688, 0.07570257782936096, -0.2320026457309723, -0.010332610458135605, -0.05825803428888321, 0.12436147779226303, 0.25206565856933594, -0.049480684101581573, -0.1380503624677658, 0.035895008593797684, -0.14364896714687347, 0.021625420078635216, -0.18852567672729492, 0.22087883949279785, 0.19093623757362366, 0.0664764866232872, 0.2553539574146271, -0.3769131898880005, -0.02959050051867962, 0.010815159417688847, -0.21136730909347534, -0.11671226471662521, 0.3077997863292694, -0.006606230046600103, 0.04385194927453995, -0.11059001088142395, 0.03318428993225098, -0.042765069752931595, -0.4187763035297394, 0.12073836475610733, 0.04466092213988304, -0.03602299466729164, 0.13139134645462036, -0.02119472622871399, -0.015003266744315624, -0.11681792140007019, -0.10973520576953888, 0.045215968042612076, -0.23429924249649048, -0.24699963629245758, 0.03100934997200966, 0.21828468143939972, 0.013822157867252827, -0.009119603782892227, -0.030380183830857277, 0.16116651892662048, 0.08400332182645798, -0.030822137370705605, -0.07854253053665161, 0.24194945394992828], [0.019825292751193047, -0.3660460114479065, -0.026715174317359924, -0.4788142144680023, 0.07273197919130325, -0.018328653648495674, 0.11734066158533096, -0.19315607845783234, -0.41773462295532227, 0.0655076876282692, 0.028324376791715622, -0.11016122996807098, -0.10702551156282425, 0.13397912681102753, -0.09552906453609467, 0.5159870982170105, 0.0865926519036293, 0.13316981494426727, 0.2573319971561432, -0.07429170608520508, 0.23982356488704681, 0.15480922162532806, 0.16294537484645844, 0.06820408999919891, -0.24453873932361603, 0.05852885916829109, -0.27660298347473145, -0.11210086196660995, 0.12030624598264694, 0.24083244800567627, 0.29505684971809387, -0.41915005445480347, 0.23094528913497925, 0.2469978630542755, 0.029724208638072014, 0.3286917805671692, 0.12701722979545593, 0.164483442902565, 0.02276812307536602, -0.019889650866389275, 0.21619124710559845, -0.1167975440621376, -0.1791987121105194, 0.2751970887184143, 0.021968381479382515, -0.15893663465976715, 0.3120417594909668, -0.31979915499687195, 0.0910409614443779, 0.0032246611081063747, 0.13586720824241638, 0.0005401631933636963, -0.00868768896907568, 0.03754562884569168, -0.2760884463787079, -0.047532834112644196, 0.012381219305098057, -0.20095603168010712, -0.0819118320941925, 0.04564151167869568, 0.27922025322914124, 0.08247897773981094, -0.14050208032131195, 0.02061551809310913], [0.1077101081609726, -0.3891026973724365, 0.22654122114181519, -0.6127187013626099, -0.2326940894126892, -0.08934762328863144, 0.14648978412151337, -0.040518730878829956, -0.3532535135746002, 0.0065884701907634735, 0.05055488273501396, -0.1610921174287796, -0.38596653938293457, -0.0984438955783844, 0.0721481665968895, 0.290783554315567, -0.22560547292232513, 0.122109554708004, -0.050589222460985184, -0.03002500906586647, 0.20215260982513428, 0.20792613923549652, 0.07884591817855835, -0.18508897721767426, -0.24264860153198242, 0.41998162865638733, -0.28403976559638977, 0.1934881955385208, 0.251103013753891, -0.031160522252321243, 0.3735932409763336, -0.32329192757606506, 0.016419995576143265, -0.008257728070020676, -0.021754654124379158, 0.1654336005449295, 0.2335033416748047, 0.013485142029821873, -0.2816268503665924, -0.09517788141965866, -0.051874589174985886, -0.42392319440841675, -0.38127198815345764, -0.17770014703273773, -0.15551133453845978, -0.005285447929054499, 0.48738735914230347, -0.110616035759449, 0.171712264418602, -0.21359758079051971, 0.07168770581483841, -0.18560029566287994, -0.12249082326889038, -0.1310587227344513, -0.06817483901977539, -0.11288776248693466, 0.09413516521453857, -0.23488394916057587, -0.10218434035778046, -0.16448701918125153, 0.16738316416740417, -0.04014244303107262, -0.21214915812015533, 0.23626339435577393], [0.027275748550891876, -0.10418137162923813, 0.06637037545442581, -0.32181182503700256, -0.12988653779029846, 0.08290045708417892, -0.17683155834674835, -0.22832858562469482, -0.16362081468105316, -0.009251663461327553, -0.02680184505879879, -0.17521926760673523, 0.09370508044958115, 0.11770404130220413, -0.11025997996330261, 0.24280264973640442, 0.12670302391052246, 0.007937704212963581, 0.22590424120426178, -0.13049714267253876, 0.1306549459695816, 0.0715770274400711, 0.2981127202510834, 0.28360655903816223, -0.16143235564231873, 0.12786713242530823, -0.1569855958223343, -0.03187454491853714, 0.13380010426044464, 0.012979671359062195, 0.07967010140419006, -0.14981049299240112, -0.003501100465655327, 0.09227152913808823, 0.03537454083561897, 0.05270924046635628, 0.19454804062843323, 0.16373658180236816, -0.030031567439436913, 0.015421334654092789, 0.10439043492078781, -0.14620357751846313, -0.12037403136491776, 0.0001061542279785499, 0.1531749814748764, -0.33807530999183655, -0.3607666790485382, -0.14121972024440765, 0.18084965646266937, -0.08364942669868469, 